extern const int weights_1[7744] = {
121, 96, 98, 108, 105, 69, 52, 51, 57, 22, 
51, 77, 40, 54, 78, 74, 75, 53, 28, 26, 
-12, 4, 77, 40, 56, 57, 54, 51, 49, 26, 
45, 10, 14, 72, 54, 65, 64, 60, 39, 46, 
39, 47, 2, 3, 89, 77, 73, 85, 97, 67, 
34, 22, 23, -11, -35, 98, 102, 103, 111, 74, 
37, -8, -44, -39, -58, -57, 118, 118, 110, 94, 
3, -92, -116, -142, -128, -86, -76, 98, 113, 84, 
43, -61, -163, -127, -162, -168, -118, -95, 95, 106, 
69, 25, -71, -188, -139, -189, -208, -131, -115, 45, 
66, 37, 5, -92, -199, -250, -250, -207, -116, -110, 
49, 64, 25, -20, -69, -120, -143, -167, -121, -98, 
-86, -2, 3, 49, 54, 39, 45, 63, 52, 63, 
27, 20, -13, -5, 19, 20, 40, 34, 48, 32, 
55, 17, 24, 4, -1, 27, 33, 27, 27, 20, 
-28, -26, -63, 27, 6, 20, 31, 42, 38, 31, 
2, -59, -73, -98, 61, 5, -16, 19, 24, 2, 
-21, -31, -85, -82, -112, 66, 19, -7, 18, 43, 
-4, -37, 9, -34, -68, -63, 85, 2, -15, -4, 
15, 10, -3, 13, -10, -29, -56, 72, -2, -21, 
-12, 1, 7, -1, 12, 3, -18, -45, 45, -11, 
-5, 15, 24, 7, 17, 24, 25, 30, 5, 70, 
0, -15, 8, 12, 4, -6, 18, 28, 28, -19, 
54, -54, -48, -11, -38, -44, -9, 3, 12, 4, 
-3, 15, -53, 14, 9, 92, 157, 168, 93, 0, 
-99, -115, -221, -92, -13, -34, 71, 173, 228, 190, 
77, -77, -152, -307, -135, -44, -49, 106, 283, 421, 
476, 390, 219, 33, -176, -202, -133, -151, -25, 175, 
366, 512, 523, 378, 150, -136, -250, -191, -252, -178, 
-13, 186, 384, 539, 497, 297, -35, -242, -215, -320, 
-273, -163, -10, 193, 406, 452, 358, 60, -217, -203, 
-330, -305, -254, -153, 4, 216, 340, 328, 123, -170, 
-134, -291, -300, -287, -210, -98, 69, 235, 272, 144, 
-109, -100, -262, -279, -274, -239, -158, -22, 126, 198, 
130, -83, -63, -228, -242, -257, -244, -192, -69, 36, 
108, 109, 39, 51, -131, -168, -187, -212, -201, -140, 
-34, 19, 48, -7, -3, 22, 43, 44, 52, 44, 
49, 42, 18, -8, 2, -41, -58, -57, -47, -12, 
12, 17, 17, 28, 17, 8, -34, -73, -149, -223, 
-248, -253, -218, -175, -107, -70, 68, 107, 174, 224, 
212, 152, 74, 5, -52, -65, -46, -14, -15, 35, 
119, 213, 318, 356, 349, 287, 175, 107, -32, -71, 
-155, -191, -229, -196, -120, -47, 48, 86, 115, -8, 
7, -33, -85, -148, -210, -266, -273, -258, -170, -92, 
47, 92, 139, 175, 188, 191, 154, 108, 59, 6, 
-27, -23, -27, 0, 37, 36, 64, 79, 109, 91, 
63, 20, -32, -57, -69, -79, -88, -94, -79, -56, 
-35, -13, -28, 7, 6, 7, 6, 4, 19, -23, 
-30, -22, -14, -2, 120, 38, 213, 93, 41, -16, 
-48, -83, -141, -207, -111, 69, 27, 196, 91, 30, 
-11, -47, -81, -113, -165, -66, 148, 97, 288, 180, 
68, -41, -106, -150, -178, -236, -144, 144, 137, 342, 
197, 50, -68, -129, -150, -173, -237, -133, 170, 162, 
379, 226, 54, -75, -127, -164, -204, -261, -155, 149, 
158, 370, 254, 66, -71, -119, -186, -223, -277, -148, 
113, 140, 368, 244, 95, -44, -111, -180, -217, -271, 
-166, 77, 96, 332, 237, 133, 13, -79, -152, -198, 
-266, -153, 70, 54, 291, 206, 144, 57, -26, -101, 
-174, -238, -155, 104, 42, 251, 175, 136, 88, 5, 
-63, -146, -239, -163, 53, -29, 159, 80, 90, 59, 
23, -33, -121, -229, -153, 71, -38, 84, -14, 24, 
-4, -25, -23, 3, -76, -13, -9, -61, 5, -20, 
5, 6, 6, -8, 29, -7, 15, 88, -3, 71, 
12, 13, 7, -5, -40, -1, -66, -30, 39, -48, 
39, -10, 6, 13, -1, -16, 3, -38, 5, 64, 
-33, 45, -2, 8, 3, -20, -45, 1, -46, -27, 
67, -32, 69, 14, 6, -6, -18, -19, 2, -43, 
-26, 60, -40, 47, 4, 12, -14, -10, -30, 3, 
-48, -31, 70, -18, 56, 3, 19, -8, -11, -22, 
-3, -50, -20, 50, -34, 48, -8, 13, 7, -12, 
-29, 0, -43, -10, 72, -8, 61, 10, 30, -5, 
-21, -16, 11, -42, -14, 20, -55, 67, -9, 26, 
0, -7, -23, 35, -56, -13, -24, -43, 7, 20, 
66, 91, 95, 62, 4, -21, -49, -24, -29, 12, 
11, 28, 15, -2, -30, -42, -31, -14, -3, -25, 
46, 44, 44, 36, 10, -44, -67, -56, 11, -8, 
-18, 56, 50, 39, 15, -30, -70, -77, -34, 55, 
16, 15, 87, 32, 14, 2, -67, -97, -58, -1, 
72, 40, 34, 66, 3, -16, -53, -126, -121, -11, 
36, 67, 52, 8, 36, -14, -54, -106, -90, -24, 
32, 76, 51, 59, -15, -7, -46, -92, -88, -30, 
19, 53, 78, 26, 34, -28, -14, -57, -42, 14, 
15, 14, 57, 55, -11, 2, -27, -10, -26, -34, 
8, -17, 22, 56, 51, -21, -38, -13, 14, -19, 
20, 61, 37, 43, 23, 0, -99, -49, -64, -45, 
-85, -76, -38, -7, -3, -17, 12, -8, -3, -26, 
-28, -86, -68, -18, -25, -46, -46, 18, 16, -21, 
-27, 7, -57, -115, -89, -83, -42, -1, 36, 22, 
-3, -2, 14, -75, -203, -177, -41, 121, 178, 167, 
65, -21, -1, -63, -207, -317, -221, 18, 200, 228, 
153, 46, -53, -54, -80, -230, -321, -239, -43, 90, 
60, 5, -48, -32, 14, 74, -51, -264, -272, -156, 
-111, -110, -90, -87, 2, 72, 169, 58, -184, -199, 
-109, -95, -95, -69, -48, 38, 75, 71, 2, -141, 
-107, 47, 105, 117, 107, 42, 54, 27, -16, -34, 
-87, -15, 126, 163, 189, 179, 97, 70, 37, 21, 
26, 26, 78, 107, 120, 124, 160, 121, 62, -171, 
181, 19, -107, 66, 38, -10, -29, 139, -82, 48, 
-153, 147, -137, 70, -21, -130, 130, -141, 112, -90, 
32, -98, 270, -224, 162, -1, -92, 197, -93, 91, 
-26, 24, -170, 222, -137, 34, -46, -21, 84, -98, 
135, -90, 15, -7, 31, -46, 67, -74, -27, 82, 
-80, 79, -56, -12, -71, 141, -19, -46, -24, 76, 
-64, 91, -18, -4, 91, -181, 119, 51, -84, -31, 
109, -129, 79, 43, -89, -23, 21, -5, -64, 98, 
-123, 42, 20, -49, 32, -21, -64, 34, 85, -113, 
76, -29, -74, 16, 63, -2, -15, 100, -83, 106, 
141, -116, 176, -15, -2, 100, 41, 19, -61, 50, 
-129, 100, -72, -77, 22, -26, -45, 23, -60, 17, 
-1, 20, -54, 3, 26, -137, 141, 0, -40, -26, 
49, -51, 89, -39, -43, 102, -194, 173, -11, -19, 
-1, 50, -129, 139, -70, -39, 103, -258, 265, -39, 
-53, 1, 63, -148, 220, -123, 11, 97, -321, 313, 
-32, -55, 5, 57, -158, 239, -187, 98, 64, -386, 
363, -6, -102, 17, 29, -126, 254, -255, 184, 55, 
-444, 398, 17, -147, 43, 18, -109, 268, -304, 179, 
94, -484, 383, 102, -205, 54, 16, -72, 241, -258, 
134, 187, -488, 293, 175, -208, 58, 0, -79, 194, 
-200, 43, 206, -418, 167, 212, -195, 18, -14, -40, 
116, -109, -14, 189, -303, 64, 206, -133, -5, 17, 
-7, 56, -15, -50, 133, -177, -15, 172, -51, -35, 
24, 76, 123, 148, 137, 109, 71, 54, 30, 24, 
43, -99, -48, -36, 50, 108, 151, 144, 111, 76, 
57, 57, -112, -97, -205, -198, -134, -14, 64, 93, 
86, 50, 54, -22, 12, -108, -200, -311, -336, -261, 
-125, -25, 4, 11, 29, 74, 74, 74, -11, -129, 
-216, -209, -142, -73, -34, 39, 39, 73, 120, 148, 
124, 63, -10, -49, -30, -55, 25, -2, 0, 30, 
56, 61, 51, 16, -21, -33, -54, -5, 0, 17, 
17, 9, 29, 28, 21, 1, -20, -62, 0, -7, 
0, 11, 8, 10, 27, 37, 18, -7, -23, 20, 
5, -5, -9, 0, 25, 37, 25, 35, 33, 4, 
7, -11, -2, -1, -8, -9, -5, 1, 12, 25, 
42, 67, 64, -38, -89, -183, -195, -84, -14, 30, 
66, 109, 76, 61, -35, -82, -124, -82, -7, 46, 
107, 115, 84, 13, -18, -159, -191, -189, -134, -10, 
125, 184, 120, 52, -4, -36, -166, -137, -138, -64, 
152, 272, 204, 59, -23, -46, -78, -171, -139, -117, 
67, 305, 288, 114, -26, -116, -115, -88, -133, -82, 
4, 280, 393, 207, 2, -95, -173, -121, -64, -80, 
8, 167, 396, 306, 45, -87, -160, -181, -89, -14, 
-4, 111, 278, 323, 103, -68, -156, -199, -132, -34, 
37, 62, 173, 247, 140, -69, -181, -196, -177, -50, 
7, 55, 98, 170, 131, -17, -141, -209, -196, -135, 
13, 68, 84, 117, 114, 14, -152, -208, -191, -121, 
-14, 121, 86, 28, -92, -97, -42, 74, 57, -12, 
-26, -3, -5, -2, 112, 5, -81, -90, 36, 102, 
14, -50, -20, 3, -51, 175, 111, -83, -194, -60, 
107, 81, 0, -36, -10, -136, 91, 242, 32, -179, 
-153, 15, 84, 55, 3, -34, -127, -88, 279, 209, 
-158, -212, -54, 32, 48, 41, -20, -36, -216, 100, 
419, -6, -233, -102, -22, -5, 34, 23, 28, -164, 
-120, 370, 215, -154, -85, -28, -17, -2, 58, 51, 
-93, -223, 181, 291, -50, -74, -33, -46, -34, 16, 
31, -33, -216, 26, 241, 51, -61, -10, -31, -32, 
0, 6, 30, -164, -93, 179, 118, -73, -2, -7, 
-25, -21, 11, 51, -98, -176, 40, 184, 52, -17, 
2, -4, -23, 11, -6, -10, -2, 8, 23, 15, 
-3, -1, 9, -4, -27, -17, -1, 37, 32, 7, 
-4, 5, 2, -10, -14, 40, 85, 78, 71, 50, 
22, 7, 13, -17, -38, -33, -4, 13, -59, -102, 
-125, -132, -146, -152, -121, -70, 19, -49, -56, -116, 
-155, -125, -84, -35, 46, 117, 153, 162, -32, -54, 
-21, 48, 131, 226, 283, 289, 199, 112, 2, 8, 
38, 149, 226, 231, 182, 80, -11, -104, -127, -147, 
117, 90, 99, 21, -69, -149, -215, -206, -153, -62, 
-19, -39, -102, -143, -183, -205, -184, -123, -82, -13, 
23, 28, -29, -28, -8, 38, 39, 79, 110, 132, 
109, 69, 33, -11, 35, 30, 29, 30, 19, 9, 
0, -28, -43, -58, -22, -28, -22, -6, -12, -2, 
3, 0, 5, -1, 14, 1, -24, -1, 9, 6, 
1, 16, 22, 14, 4, 0, 117, 83, 109, 114, 
135, 167, 160, 140, 139, 106, 91, 119, 89, 88, 
108, 144, 155, 131, 78, 47, 17, -39, 101, 116, 
126, 142, 93, 43, -25, -76, -108, -119, -133, 20, 
32, -45, -123, -239, -321, -306, -260, -196, -134, -113, 
-177, -175, -309, -377, -385, -345, -243, -138, -64, -43, 
-35, -242, -169, -185, -109, -65, -1, 26, 66, 46, 
-4, 4, -100, -12, 9, 53, 98, 122, 124, 80, 
57, 27, 56, 92, 127, 174, 186, 183, 165, 157, 
131, 126, 101, 126, 19, 12, 50, 46, 38, 24, 
-4, -1, -8, -27, -23, 140, 123, 95, 84, 79, 
72, 70, 60, 68, 71, 81, 84, 57, 35, 31, 
28, 48, 60, 57, 62, 51, 52, 69, 37, 23, 
2, -18, -10, -5, 1, -31, -23, -51, 0, -19, 
-21, -41, -67, -50, -55, -50, -51, -42, -66, -10, 
-29, -41, -59, -59, -35, -37, -61, -84, -41, -59, 
4, -38, -68, -69, -82, -23, -3, -56, -114, -79, 
-71, 27, -16, -79, -80, -54, -29, -17, -71, -112, 
-87, -76, 35, 25, -66, -70, -76, -51, -26, -57, 
-98, -94, -66, 21, 23, -82, -96, -127, -89, -55, 
-59, -101, -86, -85, 42, 36, -72, -74, -65, -33, 
13, 3, -36, -72, -71, -3, 17, -77, -96, -59, 
-35, -20, -36, -65, -80, -72, 39, 5, -51, -60, 
-70, -15, 143, 229, -69, -262, 63, -64, 78, 128, 
88, -88, -270, -277, 114, 440, 88, -230, -57, -96, 
8, 209, 288, 92, -333, -516, 9, 396, 63, 53, 
-72, -191, -94, 158, 412, 285, -237, -478, -69, 244, 
61, 98, -53, -235, -194, 81, 352, 286, -143, -326, 
16, -14, 64, 113, -98, -218, -148, 100, 282, 188, 
-116, -166, -27, -9, 215, 167, -203, -356, -182, 128, 
273, 110, -121, -35, -166, -24, 386, 293, -126, -351, 
-259, 56, 214, 44, 96, -58, -315, -123, 338, 361, 
71, -266, -247, 33, 76, 47, 218, 20, -328, -237, 
128, 294, 195, -81, -141, 15, -131, -66, 169, 134, 
-81, -162, -87, 78, 91, -21, -15, 163, 88, 196, 
174, 163, 174, 184, 172, 124, 134, 57, 2, -71, 
16, -21, -29, -25, -25, -17, -39, -30, -84, 220, 
115, 212, 190, 201, 201, 194, 172, 167, 175, 151, 
87, 15, 101, 57, 88, 86, 58, 63, 54, 58, 
41, 91, 28, 91, 39, 46, 39, 34, 50, 43, 
52, 33, 46, 8, 40, 14, -5, 12, 3, 13, 
18, 13, 18, 6, -13, 9, -12, -19, -5, -3, 
-24, -28, -42, -23, -42, -30, -50, -44, -54, -63, 
-71, -81, -83, -74, -76, -66, -22, -86, -80, -100, 
-80, -88, -90, -65, -61, -63, -171, -145, -197, -190, 
-212, -196, -174, -170, -160, -173, -159, -79, -53, -107, 
-112, -133, -149, -139, -122, -94, -114, -46, -11, 1, 
-34, 33, 62, -105, -28, 83, 7, -11, -27, 12, 
9, -72, -8, 97, -73, -76, 107, 56, -58, 5, 
22, 18, -54, -62, 184, -1, -226, 44, 146, -52, 
-28, 39, 24, -41, -167, 147, 206, -257, -156, 221, 
39, -64, 34, 49, 27, -193, -13, 399, -78, -379, 
74, 174, -47, -22, 57, 105, -156, -239, 302, 276, 
-355, -184, 166, 55, -50, 36, 161, -23, -323, 13, 
427, -39, -330, 11, 119, -62, -13, 168, 131, -232, 
-214, 236, 238, -163, -151, 68, -16, -85, 63, 211, 
-47, -249, 11, 205, 50, -115, -17, -3, -91, -79, 
166, 121, -142, -97, 83, 80, -14, -68, -5, -20, 
-110, 37, 183, 0, -93, -27, 8, 46, -18, 40, 
87, -12, -4, -14, 9, 16, 55, 103, 92, 168, 
78, 112, 18, 27, 22, 22, 25, 32, 59, 81, 
200, 2, 27, -149, -158, -200, -200, -234, -270, -232, 
-172, 74, 12, 58, -152, -167, -200, -216, -225, -278, 
-292, -238, 73, 0, 48, -147, -134, -156, -135, -127, 
-175, -252, -244, 29, 14, 64, -136, -115, -69, -64, 
-29, -72, -132, -183, 50, 37, 43, -131, -62, -22, 
-27, 9, -24, -53, -80, 100, 57, 40, -107, -28, 
17, 7, 20, 7, -12, -56, 118, 43, 13, -143, 
-52, 10, 26, 29, -32, -54, -70, 84, -19, -50, 
-193, -128, -64, -41, -34, -58, -101, -107, 66, 61, 
57, -53, -16, 21, 36, 25, 6, -4, -19, 136, 
19, -38, -127, -117, -122, -108, -90, -43, 21, 3, 
2, -43, -92, -180, -179, -159, -100, -77, 7, 63, 
26, 28, -154, -183, -296, -295, -236, -167, -132, 2, 
46, 37, 17, -120, -162, -255, -264, -213, -135, -49, 
86, 129, 104, 82, -111, -164, -235, -261, -207, -110, 
-3, 153, 185, 145, 82, -111, -155, -225, -249, -195, 
-90, 60, 234, 258, 189, 110, -113, -142, -238, -258, 
-191, -53, 109, 295, 322, 250, 135, -116, -139, -229, 
-226, -110, 17, 163, 369, 388, 274, 165, -49, -60, 
-151, -138, -8, 132, 244, 410, 433, 316, 189, -17, 
-30, -104, -90, 49, 165, 234, 336, 363, 272, 160, 
53, 25, -55, -49, 54, 117, 141, 168, 159, 127, 
46, -72, -74, -32, -49, -73, -67, -39, -41, -41, 
-55, -115, -48, -45, -6, -28, -47, -24, -17, -26, 
-25, -12, -92, -25, -11, 79, 100, 93, 82, 69, 
31, 15, 18, -90, -30, -12, 149, 210, 222, 175, 
99, 42, 12, 9, -110, -47, 30, 273, 392, 424, 
307, 142, 35, -8, -5, -117, -26, 68, 355, 508, 
526, 362, 152, 24, -18, -21, -114, -19, 53, 286, 
406, 404, 276, 112, 23, -15, -15, -104, -31, 6, 
165, 204, 191, 128, 47, -10, -10, 0, -102, -22, 
0, 88, 65, 46, 29, -1, -3, 7, 8, -69, 
-25, -35, 14, 12, -5, -12, -12, 1, -4, -14, 
-70, -157, -133, -110, -134, -138, -119, -114, -101, -84, 
-76, -125, -49, -61, -64, -69, -82, -81, -102, -73, 
-80, -59, -42, 75, 51, 73, 57, 65, 56, 66, 
68, 68, 68, 72, 65, 67, 85, 78, 100, 110, 
128, 138, 134, 95, 53, -54, -7, -2, -5, -16, 
-41, -63, -82, -88, -52, -69, -103, -94, -117, -104, 
-102, -98, -70, -54, -62, -52, -90, -4, -12, -52, 
-99, -142, -159, -140, -107, -91, -41, -24, 61, 61, 
94, 92, 109, 109, 97, 87, 72, 67, 49, 77, 
65, 145, 187, 247, 305, 321, 292, 233, 161, 133, 
-49, -84, -93, -133, -197, -238, -262, -233, -201, -139, 
-82, 6, 1, -12, -10, -20, -6, -28, -1, -11, 
-4, -16, -23, 4, -10, -10, 8, 23, 20, 28, 
19, 10, -25, -38, 26, -52, 35, 71, 66, 37, 
12, -24, -79, 25, -18, 36, -69, -22, 18, 21, 
-12, -18, -9, -69, 21, -2, 25, -58, -8, 64, 
82, 30, 5, 6, -68, 16, 4, 26, -64, -27, 
15, 88, 49, -32, -9, -67, 1, -8, 21, -74, 
-24, -5, 85, 91, -13, -31, -76, 6, 6, 16, 
-83, -18, -24, 74, 100, 11, -24, -80, 5, 27, 
20, -91, -14, 0, 66, 102, 19, -8, -92, 2, 
30, 7, -87, -23, -32, 52, 96, 21, -8, -88, 
5, 20, 16, -76, -29, -21, 34, 76, 34, 11, 
-81, -1, 18, 15, -46, -18, -3, 38, 62, 37, 
27, -58, -19, 7, 6, -100, -56, -4, 29, 41, 
39, 70, -49, -20, -6, 13, -62, 78, 131, -75, 
-127, -3, 71, -22, 7, 4, 8, -88, 48, 146, 
-80, -101, 58, 77, -38, -5, 1, 18, -117, 98, 
193, -180, -150, 94, 75, -48, -10, 12, 15, -146, 
148, 206, -265, -124, 163, 50, -70, 1, 2, 14, 
-134, 194, 198, -360, -72, 225, 13, -74, 1, -6, 
-4, -120, 207, 143, -396, 8, 252, -22, -73, 11, 
-2, -10, -98, 237, 69, -387, 52, 228, -45, -62, 
27, 6, -12, -67, 207, 8, -331, 79, 166, -38, 
-52, 12, -8, -6, -39, 163, -47, -242, 92, 134, 
-25, -43, 0, 8, 1, -23, 126, -52, -150, 83, 
105, -20, -47, 14, 2, 16, -7, 67, -69, -103, 
45, 86, -12, -41, -3, -13, -19, -5, 1, 16, 
14, -20, -30, -12, -17, -6, 47, 41, -10, -45, 
-55, -21, 14, 58, 56, 33, 9, -21, 20, 54, 
78, 55, 23, -4, -48, -46, -43, -22, -52, -13, 
28, 75, 97, 116, 71, 23, -8, -12, 8, -13, 
-137, -302, -419, -432, -334, -212, -53, 48, 51, 20, 
152, 265, 412, 518, 500, 394, 232, 87, 8, -19, 
-10, -151, -97, -102, -50, -28, -29, -33, -31, -40, 
-29, -3, -52, -188, -385, -520, -522, -410, -238, -80, 
-7, 4, 11, 156, 328, 478, 597, 573, 444, 285, 
133, 42, 16, 5, -97, -167, -227, -233, -193, -158, 
-123, -48, -19, -3, -7, 14, 36, 15, 17, -15, 
-10, 0, -3, 1, -17, 1, 125, 89, 101, 71, 
91, 126, 76, 6, -48, -65, -2, 79, 42, 40, 
4, 48, 67, 13, -43, -64, -69, -84, 138, 98, 
97, 50, 118, 142, 81, 14, -53, -83, -42, 155, 
162, 239, 265, 282, 193, 61, -68, -132, -114, -33, 
54, 171, 370, 385, 229, -5, -175, -230, -194, -141, 
-78, -64, 24, 181, 98, -75, -218, -232, -132, -45, 
-54, -30, -115, -181, -155, -209, -247, -197, -5, 96, 
85, 29, 52, -127, -218, -210, -247, -209, -91, 46, 
85, 66, 42, 73, -90, -90, -100, -128, -89, -14, 
28, 31, 49, 35, 75, -100, -90, -95, -106, -67, 
4, 52, 35, 45, 41, 56, -54, -66, -80, -61, 
-42, 13, 79, 75, 77, 39, 78, -6, 12, -48, 
95, -136, 27, 47, -26, -9, 5, 10, -2, 42, 
-89, 155, -145, 30, 88, -60, 17, 18, -8, -10, 
37, -98, 219, -228, 5, 172, -146, 13, 48, -27, 
10, 7, -95, 274, -275, -29, 282, -206, -16, 136, 
-65, 31, -52, -63, 277, -338, -25, 343, -276, -39, 
205, -105, 51, -88, -19, 288, -358, 4, 353, -292, 
-52, 251, -129, 37, -83, -11, 283, -389, 54, 323, 
-279, -87, 299, -153, 33, -43, -34, 284, -382, 80, 
278, -251, -74, 263, -136, 0, 2, -63, 247, -369, 
116, 196, -218, -28, 190, -98, 1, 24, -93, 208, 
-287, 121, 131, -161, 3, 112, -70, -5, 49, -66, 
123, -177, 74, 80, -117, 6, 44, 3, 5, 66, 
56, -162, -145, 46, 147, 59, -53, -10, 5, -12, 
52, 117, -130, -142, 63, 130, 24, -65, -15, 5, 
-20, 73, 166, -168, -250, 66, 183, 33, -88, -31, 
6, -41, 55, 204, -120, -313, 45, 225, 33, -99, 
-35, 24, -48, 58, 253, -81, -388, 0, 266, 93, 
-100, -47, 20, -59, 40, 256, -12, -399, -50, 252, 
106, -66, -51, 30, -66, 32, 249, 29, -365, -112, 
233, 119, -55, -43, 18, -65, 22, 214, 53, -306, 
-159, 198, 105, -50, -49, -2, -66, 26, 192, 43, 
-246, -169, 171, 129, -38, -37, 11, -52, 5, 156, 
40, -180, -157, 108, 107, -23, -40, -7, -33, 35, 
146, 24, -150, -165, 46, 114, 4, -31, -10, -185, 
-39, 94, 233, 226, 177, 109, 32, -52, -114, -64, 
-217, -74, 12, 162, 177, 132, 44, 8, -48, -72, 
-20, -242, -99, 41, 246, 280, 147, 21, -24, -51, 
-72, -8, -324, -175, -2, 272, 255, 83, -59, -95, 
-129, -118, -30, -345, -188, 9, 324, 257, 35, -94, 
-125, -151, -152, -72, -336, -155, 54, 348, 262, 30, 
-84, -125, -159, -166, -77, -317, -109, 85, 347, 246, 
18, -94, -136, -146, -148, -49, -264, -76, 133, 301, 
223, 32, -91, -107, -118, -107, -9, -194, -4, 161, 
278, 187, 67, -48, -64, -76, -64, 34, -138, 61, 
184, 247, 194, 110, 28, -8, -42, -39, 44, -177, 
56, 127, 170, 132, 53, -22, -90, -87, -81, -6, 
65, -34, -69, -205, 9, 188, 200, 4, -77, -45, 
-11, 80, 13, -68, -223, 29, 201, 165, -57, -70, 
-7, 14, 77, -5, -111, -271, 98, 306, 137, -147, 
-105, -13, 3, 81, -9, -126, -295, 130, 343, 109, 
-191, -118, -2, 10, 76, -19, -141, -299, 170, 407, 
65, -226, -92, 26, 30, 78, -16, -154, -298, 251, 
405, -10, -252, -83, 51, 18, 72, -19, -188, -239, 
355, 359, -91, -247, -38, 73, 10, 58, -41, -186, 
-185, 392, 239, -175, -207, -23, 49, -6, 67, -58, 
-167, -92, 387, 149, -163, -138, 11, 50, 6, 36, 
-72, -130, -19, 309, 75, -124, -90, 3, 31, 4, 
22, -94, -88, 43, 272, 35, -115, -99, -23, 22, 
11, -66, -16, -75, -74, -62, -33, -20, -14, 6, 
-35, -4, -6, 54, -2, -11, -6, 17, 36, 1, 
32, 22, 48, -64, -14, -48, -68, -72, -54, -34, 
-41, -18, -14, -6, -53, -10, -27, -7, -59, -67, 
-22, -21, 21, 24, 1, -65, -47, -67, 39, -53, 
-92, -34, -10, 24, -6, 6, -69, -3, 113, 497, 
196, -41, -19, -23, 1, -29, -53, -44, 50, 305, 
791, 331, -25, -47, -32, -3, -29, -63, -40, 11, 
12, 198, 35, -49, -33, -40, -10, -30, -29, -25, 
11, -75, -21, -29, -17, -5, -16, -9, -15, -21, 
-28, 15, -44, 0, -7, 15, 15, -31, -1, -4, 
-7, -24, 34, -28, -14, -6, -8, -15, -35, -25, 
-26, -20, 3, 35, 25, 27, -35, -35, -22, 7, 
6, 11, 13, -17, 2, -1, 14, -17, 11, 36, 
19, 8, -8, -1, -11, 11, 18, 6, -40, -15, 
11, -15, -4, -3, -10, -25, 15, 45, -6, -64, 
13, 33, -4, -6, -12, -23, -14, 37, 38, -43, 
-57, 45, 42, -3, -17, -16, -20, 9, 41, 3, 
-61, -18, 72, 31, -15, -13, -19, -9, 24, 29, 
-28, -59, 15, 85, 9, -45, -19, 5, -11, 28, 
18, -49, -29, 40, 42, -15, -41, -8, 1, -17, 
32, 12, -37, 3, 38, 38, -5, -10, 12, -4, 
0, 39, 10, -32, 2, 12, 23, -11, -19, -10, 
-15, -4, 41, -35, -38, -31, 22, 43, -10, -23, 
-14, -7, 5, 14, 1, 2, -3, -15, -71, 101, 
81, -153, 18, 16, 36, -37, 1, 60, -84, -44, 
152, -18, -130, 118, -26, 24, -39, 46, 37, -168, 
58, 234, -186, -113, 189, -65, -31, 21, 60, -80, 
-132, 210, 114, -333, 83, 160, -103, -50, 111, -63, 
-125, 50, 287, -114, -330, 256, 70, -76, -3, 58, 
-144, -26, 152, 199, -311, -209, 424, -69, -77, 54, 
-105, -8, 79, 83, 97, -439, 67, 465, -294, -30, 
2, -95, 107, 15, 85, -91, -378, 416, 174, -418, 
130, -52, 31, 78, -41, 122, -279, -49, 516, -257, 
-219, 216, -25, 72, -26, 0, 8, -241, 256, 206, 
-402, 103, 82, 10, 7, -44, 22, -65, -22, 235, 
-133, -219, 231, -56, 8, 18, 30, 70, -26, -177, 
-102, -11, 70, 60, 16, 0, 8, 6, 77, 51, 
-123, -103, 22, 97, 34, -4, -11, 10, 3, 75, 
101, -141, -251, -25, 141, 36, -3, -4, 17, 3, 
55, 156, -67, -335, -63, 213, 25, 5, -11, 19, 
17, 24, 173, 20, -404, -132, 291, 9, -4, -9, 
15, 26, 11, 126, 153, -386, -247, 334, 33, -19, 
-8, 26, 21, 7, 62, 222, -306, -365, 316, 96, 
-19, -22, 11, 29, 9, 13, 215, -198, -390, 223, 
126, -30, -21, 21, 30, 31, -13, 166, -103, -345, 
94, 153, -5, -14, 2, 16, 19, -6, 106, -42, 
-257, 25, 128, 13, 5, 10, 31, 32, 27, 63, 
-56, -226, -67, 105, 41, -4, -11, 4, 29, 24, 
26, 48, 20, 21, 60, 37, 63, 36, 35, 98, 
64, 20, 57, 72, 17, 21, 60, 7, -11, -63, 
4, -40, -21, 22, 24, -56, -58, 26, -5, 30, 
-16, 1, 21, 16, 27, 45, -22, -44, 83, -16, 
35, -4, -37, 15, 13, -38, 11, 28, -52, 78, 
9, 81, 18, -33, 0, 36, -30, -31, 17, -90, 
109, -2, 50, -49, 12, 98, 67, 34, -30, -9, 
-101, 80, -12, 49, -80, -1, 67, 70, 21, -20, 
-6, -77, 70, -16, 46, -51, 13, 1, 24, 47, 
-18, -12, -70, 90, -68, 30, -101, -23, -22, -29, 
21, -34, -30, -89, 61, 28, 100, -41, -4, 16, 
29, 76, 24, 42, -7, 87, 3, 18, -41, 1, 
4, -11, -23, -9, -2, -24, 38, 8, 63, 15, 
29, 31, 14, -15, -8, 19, -1, 39, -42, 16, 
-70, -46, -48, -35, -62, -41, -23, -61, -6, -3, 
58, -54, -1, 16, 9, -4, -5, 5, -21, 32, 
12, 61, -85, -21, -9, 2, -8, -15, 1, -18, 
37, 17, 49, -105, -62, -66, -51, -41, -19, 21, 
-29, 47, -2, 41, -136, -102, -122, -108, -83, -50, 
4, -29, 25, -18, 62, -142, -128, -152, -123, -99, 
-41, -8, -23, 23, -10, 99, -93, -79, -95, -87, 
-44, -12, 21, -7, 26, -60, 35, -118, -69, -87, 
-89, -67, -47, -33, -81, -39, 5, 98, 31, 98, 
95, 81, 50, 45, 57, -22, 16, 64, 80, 33, 
68, 70, 79, 67, 93, 92, 69, 129, 94, 101, 
59, 70, 53, 28, 40, 59, 90, 86, 155, 39, 
32, -46, -43, -73, -117, -109, -83, -63, -34, 61, 
63, 59, -40, -50, -94, -154, -158, -137, -93, -57, 
53, 62, 66, -46, -98, -155, -192, -202, -204, -162, 
-111, -5, 58, 36, -89, -138, -186, -213, -240, -232, 
-187, -137, -36, 71, 58, -74, -121, -183, -218, -241, 
-208, -157, -111, 0, 67, 79, -31, -73, -147, -178, 
-195, -172, -111, -80, 19, 70, 87, 12, -7, -60, 
-111, -117, -96, -51, -42, 35, 49, 68, -14, 7, 
-15, -52, -61, -65, -25, -47, 16, 103, 111, 63, 
87, 89, 84, 82, 52, 41, 35, 102, 13, -26, 
-157, -208, -226, -213, -165, -100, -72, -13, -1, 9, 
-21, -159, -181, -165, -144, -117, -47, 3, 42, 15, 
-77, -95, -190, -187, -148, -109, -59, -7, 40, 82, 
53, -106, -109, -172, -159, -96, -83, -28, 11, 75, 
101, 60, -89, -86, -130, -90, -56, -18, 11, 50, 
97, 123, 99, -94, -75, -93, -88, -35, -2, 32, 
62, 116, 126, 102, -91, -53, -87, -58, -17, 36, 
62, 111, 135, 143, 84, -82, -35, -64, -33, 20, 
64, 97, 132, 150, 126, 66, -46, -6, -36, 29, 
93, 134, 146, 140, 153, 130, 57, -14, 32, 16, 
71, 122, 151, 149, 148, 137, 106, 25, -20, 31, 
12, 72, 115, 136, 142, 110, 86, 32, 2, -12, 
0, 60, 46, 48, 70, 41, 51, 81, 66, 65, 
-20, -39, 29, 3, 33, 34, -42, -9, 43, 43, 
22, 43, 15, 83, 60, 76, 28, -217, -149, 33, 
86, 88, 49, 31, 108, 59, 13, -214, -801, -532, 
-24, 55, 78, 62, 35, 101, 100, 69, -157, -678, 
-395, 42, 105, 82, 29, -20, 68, 98, 107, 40, 
-192, -58, 97, 83, 56, 8, -31, 32, 64, 93, 
44, -67, 15, 86, 73, 36, -2, -10, 34, 49, 
81, 56, -39, 35, 77, 58, 41, 12, -4, 38, 
10, 30, 45, 1, 10, 38, 31, 18, 0, -28, 
0, -28, -17, 21, 16, -9, -2, 19, -4, -20, 
-52, -7, -10, 1, 13, 30, -17, -10, 8, -37, 
32, 27, -13, 28, 44, 33, 2, 11, 5, -5, 
56, 109, 83, 7, 24, 54, 66, 42, 49, -15, 
-38, 78, -39, -71, -149, -117, -82, -43, -50, -74, 
-86, -83, 62, 16, -37, -176, -140, -87, -100, -92, 
-92, -66, -35, 53, 44, 3, -184, -183, -177, -137, 
-113, -108, -66, -17, 85, 50, 5, -139, -195, -168, 
-101, -102, -95, -49, 0, 99, 54, 12, -74, -104, 
-128, -75, -99, -54, -8, 14, 117, 18, 37, -50, 
-47, -53, -6, -16, -45, -42, -21, 94, -7, 1, 
-8, -19, -25, -27, -45, -33, -55, -84, 31, -43, 
-48, -32, -6, -29, -68, -70, -64, -79, -86, 13, 
59, 66, 66, 75, 88, 91, 64, 58, 21, 39, 
74, 29, -26, -11, 5, -34, -16, 64, 82, -68, 
-48, 8, -3, 19, 18, -42, -62, 77, 101, -54, 
-119, 37, 41, -26, 27, -29, -96, 53, 152, 3, 
-170, -49, 101, 1, 23, -17, -109, -5, 202, 89, 
-180, -173, 125, 102, -37, -15, -95, -45, 223, 221, 
-138, -322, -4, 243, 27, -70, -99, -55, 159, 269, 
-56, -416, -177, 301, 234, -127, -75, -72, 113, 198, 
23, -375, -315, 226, 456, -81, -254, 33, 29, 131, 
40, -216, -302, 73, 485, 98, -349, -85, 121, 75, 
30, -80, -169, -52, 310, 256, -273, -225, 154, 74, 
24, -44, -92, -30, 121, 224, -92, -281, 46, 154, 
-50, -29, -43, -10, 52, 74, -24, -185, 3, 160, 
14, -56, -104, -108, -93, -116, -69, -42, -40, -35, 
-46, -30, -32, -25, -56, -51, -65, -80, -84, -48, 
-37, -43, -39, -13, -101, -103, -139, -177, -205, -232, 
-233, -218, -199, -173, -139, -37, -43, -55, -138, -198, 
-232, -257, -236, -199, -157, -115, 26, 24, -4, -49, 
-125, -206, -232, -230, -175, -121, -97, 66, 65, 74, 
27, -51, -126, -178, -189, -149, -102, -71, 64, 82, 
149, 133, 63, -8, -45, -88, -89, -66, -70, 52, 
68, 158, 207, 211, 176, 106, 60, 12, -16, -48, 
45, 52, 171, 266, 324, 337, 307, 227, 155, 92, 
23, 61, 40, 157, 241, 331, 394, 404, 337, 253, 
173, 88, -21, -68, -7, 67, 148, 213, 226, 198, 
146, 103, 46, -27, -15, -56, -69, -71, -56, -56, 
-54, -58, -35, -66, -58, -32, -49, -42, -54, -44, 
-34, -12, -8, 13, 7, -20, -8, -15, -10, 5, 
0, 3, 19, 48, 37, 29, 14, 5, 21, 4, 
24, 48, 58, 48, 49, 42, 24, 41, 25, 34, 
39, 77, 87, 63, 50, 33, 13, 3, 52, 15, 
48, 37, 52, 35, 33, 30, 12, 15, 16, 22, 
-6, 20, 21, 16, 14, 2, 13, 19, 37, 1, 
7, -11, 5, 4, 15, 5, 8, -6, 2, 15, 
-15, -12, -14, -8, 4, -17, -14, -32, -31, -40, 
-16, -47, -17, 2, -7, -17, -35, -41, -33, -35, 
-49, -30, -71, 14, 29, -1, -4, -8, -6, -7, 
2, 2, 13, -8, -5, -24, -14, -25, -29, -37, 
-24, -15, -6, 1, -74, 16, 2, 8, 15, 11, 
-13, -12, -13, 4, 25, -8, 7, -8, 28, 35, 
47, 20, 6, -14, 2, 15, -22, -18, -4, 24, 
35, 49, 27, 3, 1, 18, 33, -2, -14, -23, 
-12, 15, 48, 54, 62, 32, 51, 74, 23, -34, 
-47, -73, -43, 9, 117, 162, 120, 125, 113, 31, 
-33, -37, -93, -111, -95, -25, 65, 120, 160, 148, 
92, -39, -6, -51, -85, -151, -183, -146, -24, 73, 
131, 138, -7, 7, -37, -44, -106, -164, -198, -129, 
-74, 11, 57, 25, 20, -10, -17, -13, -54, -111, 
-113, -113, -85, -46, 88, 93, 65, 84, 100, 75, 
24, -19, -35, -43, -26, -24, -14, -38, -35, -26, 
-9, -13, 2, 29, 20, 34, -6, -22, -50, -58, 
-47, -7, 9, 6, 33, 24, 49, 6, -13, -64, 
-51, -25, -5, 18, 20, 25, 20, 42, 0, -11, 
-67, -54, -20, 7, 15, 11, 36, 51, 44, -23, 
-26, -102, -97, 2, 45, 12, -9, 34, 56, 47, 
-17, -31, -137, -82, 162, 295, 134, 20, 30, 35, 
13, -5, -60, -180, -133, 194, 401, 186, -3, -23, 
-3, 5, 33, 5, -157, -184, -39, 44, -4, -80, 
-27, 24, 26, 38, 37, -34, -143, -151, -135, -141, 
-93, 4, 12, 29, 14, 33, 34, -36, -58, -49, 
-55, -27, -24, -33, -25, 38, 69, 81, 68, 44, 
31, 36, 33, 34, 5, 42, 60, 10, 82, -2, 
-26, 29, 32, 25, 25, 68, -40, 42, 10, 61, 
7, -29, -1, -2, -36, -45, 24, -63, 76, 22, 
115, 44, 33, 36, 0, -23, -19, 49, -41, 78, 
-2, 106, 75, 45, 19, -25, -34, -27, 26, -58, 
42, -70, 72, 67, 31, -3, -8, -14, -10, 33, 
-77, 39, -90, 69, 56, 39, 32, 6, -11, -2, 
52, -72, 77, -26, 103, 48, 38, 34, -4, -21, 
-9, 55, -64, 100, 23, 106, 17, -4, 2, -20, 
-30, -14, 33, -74, 96, 16, 74, -12, -26, -1, 
0, -13, -9, 36, -82, 86, 1, 41, -12, -16, 
8, 20, 3, 2, 67, -66, -1, -87, -41, -82, 
-76, -46, -44, -62, -53, 0, -134, -49, 33, -15, 
27, 12, 18, 17, 37, -8, 63, -21, -17, 12, 
-17, 2, -17, -18, -29, -1, -28, -5, -47, -56, 
32, -8, 41, 33, 51, 59, 50, 38, 72, 57, 
-41, 31, -11, 8, 2, 10, 6, -1, -9, 40, 
11, -57, 45, -33, -15, -1, -1, 9, 21, 10, 
30, 9, -62, 34, -33, 0, -24, -6, -16, 9, 
5, 6, 13, -73, 23, -17, 10, -12, -1, -10, 
11, 8, -5, 1, -58, 12, -27, 3, -21, -7, 
-13, 7, 19, 18, 27, -38, 13, -18, 2, -13, 
-6, -2, 15, -7, 12, -4, -62, 19, -29, 13, 
-10, 1, 4, 17, 9, 17, 22, -65, -1, -42, 
-17, -25, -11, 7, -17, -4, 5, 11, 15, -17, 
-10, -19, -32, -16, 4, 0, 0, 5, 2, 26, 
-3, 0, -11, -30, -14, -21, -21, -24, -7, -4, 
33, -8, -1, -30, -39, -41, -40, -58, -73, -53, 
-45, 49, 2, 8, 1, -16, -13, -33, -55, -51, 
-53, -47, 96, 86, 73, 29, 8, 27, 23, 26, 
4, -9, -26, 92, 163, 204, 200, 165, 124, 79, 
55, 58, 49, 80, -115, -33, 93, 204, 280, 313, 
288, 177, 108, 81, 111, -232, -234, -262, -210, -102, 
91, 251, 314, 287, 195, 176, -99, -121, -254, -379, 
-524, -537, -403, -221, -55, 52, 102, 69, 87, 98, 
63, -52, -191, -338, -412, -390, -302, -213, 100, 94, 
135, 179, 243, 260, 242, 137, 53, -7, -57, -380, 
-459, -366, -250, -107, 26, 55, 61, 46, 47, 5, 
-358, -379, -187, 11, 196, 254, 221, 149, 100, 89, 
11, -243, -140, 166, 414, 518, 453, 288, 150, 57, 
14, -60, -83, 123, 468, 640, 590, 386, 172, 6, 
-86, -82, -111, 122, 333, 600, 592, 406, 109, -118, 
-210, -194, -172, -97, 221, 350, 448, 321, 68, -201, 
-325, -327, -260, -172, -78, 160, 207, 217, 24, -218, 
-368, -396, -326, -221, -125, -42, 57, 61, 10, -150, 
-332, -388, -337, -229, -116, -63, 22, -9, -19, -84, 
-202, -300, -321, -235, -107, -7, 60, 74, -31, -38, 
-95, -188, -246, -204, -129, 25, 112, 146, 138, -59, 
-18, -46, -112, -127, -60, 56, 143, 215, 195, 174, 
-129, -109, -57, 45, 136, 195, 210, 162, 37, 10, 
-135, -75, -117, -142, -92, -20, 50, 110, 95, 2, 
15, -113, -6, -103, -146, -157, -21, 71, 189, 202, 
111, 68, -36, 87, -33, -104, -238, -137, -10, 127, 
215, 172, 118, -6, 106, -4, -39, -221, -296, -168, 
34, 164, 171, 167, 46, 128, 32, -10, -121, -289, 
-321, -135, 66, 145, 168, 126, 148, 87, 49, -27, 
-157, -312, -222, -57, 58, 117, 132, 104, 113, 112, 
46, -32, -217, -245, -152, -31, 81, 126, 56, 100, 
132, 85, 29, -90, -174, -182, -87, 32, 84, 58, 
72, 129, 109, 85, -8, -119, -186, -123, -37, 37, 
-30, 29, 132, 151, 151, 101, 35, -101, -152, -121, 
-81, 60, 22, 19, 30, 21, 30, 54, 45, 48, 
81, 28, 9, -22, -15, -11, -3, 7, 22, -9, 
5, 52, 24, 26, -20, 4, 11, 4, 23, 37, 
19, 33, 82, 41, -35, -59, -48, -36, -45, -49, 
-20, -19, 0, 62, 11, -38, -61, -41, -44, -54, 
-48, -25, -27, -10, 64, -6, -32, -48, -53, -61, 
-62, -40, -27, -23, -10, 33, -14, -26, -44, -55, 
-70, -62, -40, -20, -31, -18, 52, 5, -24, -47, 
-38, -58, -73, -50, -18, -22, -10, 44, 11, -8, 
-43, -41, -38, -56, -33, 3, 11, 5, 45, 9, 
31, -11, 2, -5, 15, 28, 61, 68, 40, 67, 
32, -2, -11, 6, 2, 0, 36, 30, -1, -30, 
30, 18, -101, -81, -14, -11, -56, -42, -29, -8, 
17, 29, -159, -96, -111, -34, -59, -76, -78, -95, 
-63, -39, 18, -154, 3, -13, 130, 134, 95, 91, 
40, 46, 74, 151, -21, -41, -28, 107, 140, 127, 
110, 60, -1, 28, 95, -63, -39, -29, 115, 153, 
160, 134, 73, 12, 8, 69, -74, -32, -37, 146, 
156, 161, 131, 67, 37, 17, 68, -80, -47, -31, 
94, 114, 116, 94, 59, 29, 14, 70, -81, -22, 
-39, 68, 42, 52, 46, 26, 35, 22, 61, -69, 
7, 6, 84, 55, 48, 42, 27, 29, 49, 93, 
-56, 8, 17, 85, 79, 77, 65, 35, 60, 92, 
123, -21, -133, -115, -22, -30, -43, -61, -83, -56, 
-15, 7, -153, 10, -3, 50, 34, 30, 19, 6, 
-23, -41, 14, -9, -16, -75, -44, -26, -33, -43, 
-58, -75, -73, -20, -27, -1, -69, -24, -41, -36, 
-33, -35, -42, -35, 37, -3, -4, -47, -16, -85, 
-97, -88, -79, -71, -7, 65, 21, 16, -20, -30, 
-94, -111, -85, -47, -25, 17, 84, 53, 36, -3, 
9, -34, -22, 14, 49, 29, 26, 69, 12, 31, 
-21, 32, 31, 61, 83, 53, 30, 36, 61, -16, 
5, -45, 38, 67, 63, 35, -18, -35, -25, 25, 
-36, -4, -48, 45, 83, 57, 1, -55, -58, -33, 
11, -45, 34, -16, 86, 116, 93, 30, -13, -2, 
19, 68, 11, 33, 18, 61, 70, 60, 18, -6, 
11, 34, 75, 20, -13, 50, -27, 6, 41, -24, 
24, -12, -14, 0, 10, -13, 72, 57, 57, 42, 
41, 61, 74, 85, 34, -27, -56, -135, -187, -193, 
-177, -182, -191, -233, -203, -149, -25, 20, 125, 146, 
138, 200, 170, 248, 306, 302, 223, 128, 51, 121, 
98, 79, 113, 52, 4, -124, -159, -162, -130, -125, 
-248, -368, -406, -380, -411, -339, -267, -136, -68, 2, 
89, 246, 375, 427, 462, 454, 512, 428, 340, 224, 
91, -60, -29, -113, -180, -180, -240, -236, -262, -257, 
-202, -51, -26, -72, -108, -117, -97, -86, -55, 7, 
72, 65, 35, -21, 82, 128, 157, 183, 166, 146, 
68, 15, -24, -52, 19, 8, -53, -71, -43, -105, 
-53, -16, -19, 24, 25, 0, -16, -100, -99, -68, 
44, 112, 137, 149, 86, -20, -93, -106, -72, 58, 
208, 265, 186, 57, -86, -173, -160, -42, 42, 218, 
355, 296, 67, -162, -256, -249, -135, 23, 145, 236, 
282, 118, -174, -393, -360, -195, -38, 72, 133, 241, 
124, -107, -364, -434, -252, -18, 103, 155, 122, 76, 
-17, -192, -365, -280, -48, 139, 172, 131, 81, 11, 
-32, -193, -150, -78, 115, 179, 140, 81, 52, 12, 
-12, -10, -97, 55, 110, 122, 65, 47, 22, 27, 
27, -6, -11, -4, 51, 4, 14, 36, 47, 21, 
-16, -25, -17, -11, -44, -5, 21, 34, 15, -27, 
-37, -56, -37, -27, -7, 2, 29, 29, -6, -37, 
-31, -12, 19, 36, 11, -7, -139, -64, -242, -206, 
-191, -116, -70, -20, 31, 123, 42, -59, 20, -149, 
-79, -36, 11, 31, 34, 44, 100, 33, -253, -112, 
-258, -183, -120, -25, 0, 30, 53, 148, 74, -251, 
-71, -191, -100, -30, 23, 26, 56, 82, 176, 67, 
-243, -73, -180, -64, -2, 29, 27, 87, 111, 172, 
88, -255, -70, -156, -25, -3, 4, 29, 93, 128, 
199, 89, -237, -56, -133, -33, -20, 10, 45, 90, 
122, 204, 70, -200, -19, -126, -15, 16, 51, 78, 
111, 127, 221, 58, -159, 26, -84, 13, 34, 75, 
92, 90, 106, 184, 25, -146, 27, -44, 39, 81, 
108, 120, 155, 166, 237, 45, -104, 47, -20, 57, 
69, 83, 76, 73, 57, 98, -177, -23, -51, -20, 
-1, 18, 32, 17, 13, 41, 3, -22, 14, -56, 
-52, -82, -37, 27, 43, 15, 4, 12, 26, 58, 
-3, -4, -94, -112, -89, -15, 15, 32, 22, 51, 
79, 59, 98, 28, -100, -184, -165, -84, -15, 6, 
38, 19, 56, 133, 179, 136, -40, -189, -163, -122, 
-60, -44, -48, -1, 21, 94, 255, 291, 139, -25, 
-94, -82, -136, -47, -12, -60, -91, -5, 171, 235, 
185, 72, 21, -79, -34, -4, -24, -60, -84, -69, 
3, 86, 95, 87, 23, -8, -14, -2, -10, -30, 
-31, -25, 16, 37, 48, 53, -2, -15, -9, -23, 
-38, -34, -28, -19, 12, 29, 68, -24, -21, -8, 
-16, -8, -2, -19, -52, -52, -34, 0, -66, -113, 
-42, -88, -95, -109, -81, -46, -39, 7, -99, -101, 
-167, -86, -133, -141, -138, -144, -121, -92, -59, -146, 
70, 20, 165, 143, 157, 164, 149, 136, 111, 121, 
-24, 19, 2, 179, 179, 222, 254, 228, 172, 112, 
82, -79, 5, -10, 155, 163, 218, 251, 240, 192, 
117, 88, -79, -32, -40, 113, 110, 179, 203, 196, 
143, 86, 68, -90, -62, -77, 78, 48, 108, 160, 
133, 90, 44, 43, -107, -72, -93, 37, 27, 55, 
92, 80, 53, 12, 28, -95, -57, -71, 37, -2, 
21, 35, 30, 34, 19, 38, -112, -32, -47, 79, 
37, 26, 19, 35, 44, 69, 80, -75, -137, -122, 
-48, -84, -109, -91, -95, -71, -46, -28, -170, -112, 
-103, -174, -185, -209, -208, -246, -220, -182, -231, -89, 
39, 13, -28, -53, -94, -103, -113, -126, -118, -148, 
-55, -71, -87, -130, -207, -231, -272, -292, -323, -300, 
-336, -249, 34, 19, -23, -102, -147, -189, -214, -230, 
-204, -240, -182, 82, 57, 40, -27, -67, -133, -152, 
-176, -141, -158, -133, 133, 87, 116, 62, 12, -48, 
-88, -103, -45, -44, -59, 131, 88, 180, 127, 97, 
49, 7, 6, 1, -16, -20, 127, 103, 206, 208, 
194, 211, 187, 142, 96, 56, 23, 106, 94, 218, 
242, 258, 273, 278, 242, 178, 149, 61, 100, 71, 
196, 223, 272, 316, 288, 274, 241, 192, 123, -86, 
-95, 12, 53, 119, 189, 177, 180, 158, 132, 70, 
36, 58, -4, -25, -64, -28, -64, -76, 31, 50, 
-31, 34, 30, -7, -38, -93, -36, 177, 98, -54, 
-42, 15, -82, -120, -39, 96, 204, 48, -194, -128, 
-24, 94, 79, -61, 40, 37, 33, 55, -16, -87, 
57, 57, -22, -8, 23, 64, 3, -116, -282, 5, 
390, 301, -32, -239, -133, 40, -102, -144, 106, 234, 
144, -234, -312, 54, 213, 51, -64, 16, 74, 19, 
58, -34, -157, -114, -43, 128, 63, -11, 74, 82, 
-92, -181, -86, 277, 337, -18, -177, -87, 26, -14, 
-66, 40, 66, 38, -115, -136, 99, 94, -10, 35, 
-23, 0, 42, 32, 37, -66, -95, -36, 65, 68, 
-21, 14, 20, -45, -26, -25, 62, 112, -14, -60, 
-21, 9, 15, 5, 11, 3, 7, 15, 38, 16, 
-1, -20, 0, 22, -14, -2, -1, -4, 2, 6, 
2, -6, -21, -11, 10, -30, -21, -28, -34, -34, 
-18, -15, -18, -31, -42, -17, -46, -48, -37, -41, 
-46, -39, -28, -15, -22, -25, -3, -22, -17, -15, 
-10, -16, -5, 1, 1, -9, 3, -8, -18, -18, 
-15, -14, -26, 9, -6, -10, 7, 21, -28, -24, 
-37, -34, -35, -36, -6, 18, 35, 59, 56, 37, 
38, 39, 51, 73, 101, 145, 157, 146, 144, 103, 
94, 134, 165, 199, 226, 243, 225, 162, 93, 80, 
119, 84, 85, 52, 51, 12, -18, -42, -62, -71, 
-51, -108, -121, -181, -196, -213, -265, -271, -251, -213, 
-185, -171, 5, 48, -16, 2, 11, 10, 4, 8, 
8, -20, 7, 64, 46, 48, 75, 57, 72, 65, 
55, 62, 30, 57, 4, 13, 0, 15, 5, 13, 
17, 0, -9, -2, 8, 16, 59, 20, 42, 33, 
34, 30, 30, 29, 37, 40, -35, 4, -12, 3, 
-14, -2, -3, 4, 4, 10, -12, 2, -4, -24, 
-2, -5, 3, 9, 13, -1, 9, -4, -5, -13, 
9, 18, 2, -7, -1, -4, -2, 2, -5, -15, 
-32, 11, -18, -12, 7, -2, 3, -8, -8, -21, 
-45, -60, -25, -50, -48, -52, -37, -47, -29, -32, 
-54, -10, -44, 9, -28, -34, -38, -42, -32, -44, 
-19, -29, -23, -34, 14, -8, -7, -10, -23, -11, 
-43, -18, -53, -97, 58, 144, -49, -111, 81, 54, 
-52, -15, 11, -4, 62, 128, -127, -148, 132, 24, 
-122, -9, 81, -11, -23, 106, -140, -201, 119, 100, 
-71, 51, 126, -53, -85, 41, -46, -158, 77, 115, 
-60, 49, 93, -79, -105, 62, 31, -123, -24, 140, 
150, 99, -58, -138, -114, 81, 93, -84, -87, 262, 
295, -31, -342, -237, 28, 117, 107, -57, -15, 220, 
135, -266, -495, -170, 363, 264, 30, -141, -126, 80, 
40, -312, -321, 217, 625, 189, -305, -238, -62, 203, 
104, -190, 16, 347, 341, -177, -495, -194, 159, 282, 
107, -173, 70, 143, 12, -297, -335, 105, 436, 236, 
-81, -256, -82, 5, -70, -94, 23, 250, 192, -151, 
-269, -110, 90, 104
};
