extern const int weights_1[7744] = {
-74, -59, -83, -83, -69, -92, -73, -29, -1, -26, 
26, -71, -69, -78, -48, -42, -67, -47, -33, -4, 
-31, 11, -102, -88, -108, -95, -88, -102, -88, -72, 
-27, -23, 7, -97, -80, -108, -113, -104, -127, -124, 
-88, -38, -37, -7, -105, -71, -126, -110, -102, -105, 
-111, -90, -56, -38, 0, -143, -97, -128, -124, -111, 
-89, -39, -51, -6, 24, 49, -193, -125, -161, -108, 
-101, -3, 140, 149, 119, 118, 94, -185, -138, -159, 
-92, 2, 178, 482, 460, 288, 194, 110, -155, -91, 
-99, -28, 103, 305, 586, 505, 316, 185, 86, -147, 
-78, -74, -12, 72, 169, 284, 259, 209, 168, 97, 
-88, -41, -53, -19, 36, 128, 174, 181, 167, 152, 
104, 25, 23, 6, 17, -30, -38, -3, 1, 7, 
-25, 46, 28, 46, -1, 14, -9, -18, 1, 18, 
45, -22, 66, 13, 10, -43, -50, -68, -84, -90, 
-116, -124, -167, 27, 30, 46, -6, -9, -37, -74, 
-106, -153, -166, -196, 58, 23, 18, -5, 2, -45, 
-84, -109, -170, -178, -180, 63, 47, 42, 6, 16, 
-24, -62, -55, -73, -108, -133, 111, 45, 21, -9, 
23, -8, -46, -11, -25, -63, -89, 110, 24, 37, 
-14, 11, -10, -10, 15, -6, -33, -83, 64, 37, 
55, 11, 34, 1, 21, 22, 19, 13, -30, 88, 
16, 22, -8, 3, -22, -19, -3, 6, -3, -55, 
59, 77, 90, 57, 27, 23, 54, 69, 64, 54, 
11, 96, 40, 7, -3, -39, -73, -93, -83, -44, 
-22, 41, 114, 67, 23, 7, -34, -72, -99, -90, 
-80, -40, 28, 117, 80, 41, 14, -51, -110, -188, 
-212, -220, -158, -95, 35, 102, 74, 55, 9, -74, 
-161, -214, -257, -205, -153, 6, 122, 106, 104, 48, 
-10, -101, -192, -262, -239, -183, -55, 148, 133, 127, 
108, 58, -11, -108, -206, -252, -205, -69, 149, 114, 
166, 138, 105, 65, -30, -139, -201, -182, -87, 150, 
125, 174, 156, 147, 94, 49, -53, -128, -143, -80, 
131, 97, 150, 150, 133, 111, 78, 6, -62, -93, 
-63, 130, 103, 141, 151, 136, 129, 100, 35, -23, 
-68, -20, 82, 80, 101, 133, 139, 128, 91, 55, 
10, -35, -13, -23, -34, -11, -9, -20, -4, -7, 
5, -9, 1, -39, 33, -22, -43, -55, -68, -28, 
-16, -19, -15, 20, 22, 49, 34, -1, -82, -170, 
-218, -245, -218, -172, -114, -48, 92, 152, 275, 359, 
384, 313, 215, 107, 38, -11, -12, -76, -56, 21, 
134, 282, 440, 501, 492, 408, 253, 163, -120, -158, 
-284, -357, -396, -341, -237, -107, 27, 97, 128, -63, 
-44, -137, -222, -334, -423, -483, -476, -406, -292, -161, 
63, 109, 161, 185, 175, 156, 95, 31, -44, -92, 
-102, 10, 17, 58, 95, 129, 147, 149, 163, 129, 
65, 21, 25, -2, -9, -21, -30, -16, 5, 20, 
28, 32, 32, 17, 10, 7, 1, 7, 15, -11, 
-9, 4, 4, 25, -12, -37, -16, -23, -13, -10, 
1, 28, 20, 28, 31, 1, -1, -6, -13, 2, 
21, 13, 14, 30, 43, 27, -4, -26, -19, -28, 
-16, -5, -6, 0, -13, 19, 7, 3, -19, -19, 
-10, 16, -6, 6, -2, 5, 8, 27, 4, -10, 
-24, -12, 6, 20, 8, 9, 13, -5, 13, 5, 
-17, -39, -20, 3, 31, 23, -2, -5, -11, 5, 
-5, -16, -26, -29, 11, 32, 30, -2, -14, 4, 
-8, -5, -1, -25, -31, -9, 27, 15, -5, 4, 
7, -13, -15, -13, 3, -9, -4, 9, 25, 4, 
-11, 21, 9, -35, -12, -18, -22, -7, -7, 4, 
12, -19, 13, -12, -12, -34, 0, -17, 0, 11, 
14, 28, 9, 25, 13, 141, -13, 143, 15, 16, 
-20, -62, -65, -58, -134, 11, 78, -48, 69, 6, 
23, 15, -17, -28, -4, -73, 41, 190, 14, 125, 
33, 33, -11, -50, -88, -86, -171, -68, 127, -21, 
112, 31, 32, 26, -21, -49, -44, -120, -36, 169, 
-5, 119, 52, 24, 12, -18, -72, -53, -146, -74, 
156, -9, 129, 40, 33, 9, -22, -58, -60, -151, 
-76, 141, -7, 114, 37, 36, -5, -5, -53, -62, 
-138, -86, 148, -11, 122, 57, 42, 9, -11, -44, 
-62, -131, -73, 92, -28, 97, 32, 42, 17, -14, 
-25, -41, -134, -53, 110, -29, 106, 27, 36, 15, 
-26, -51, -46, -141, -74, 50, -73, 114, 23, 49, 
36, 18, -12, 0, -107, -34, -27, -45, 43, 80, 
118, 165, 137, 60, -17, -69, -101, -29, -20, 56, 
90, 96, 84, 14, -71, -117, -121, -84, 25, 43, 
139, 152, 149, 98, -6, -114, -165, -138, -36, 68, 
49, 166, 152, 89, 7, -99, -190, -181, -92, 72, 
116, 90, 186, 98, 17, -75, -213, -259, -153, -14, 
121, 124, 89, 108, -10, -99, -218, -294, -226, -45, 
95, 162, 113, 26, 10, -78, -202, -276, -220, -44, 
96, 190, 174, 45, -53, -73, -158, -251, -177, -36, 
71, 161, 190, 134, -15, -106, -108, -155, -128, -14, 
59, 110, 166, 148, 66, -81, -98, -80, -90, -40, 
37, 67, 110, 136, 123, 15, -115, -62, -22, -25, 
39, 125, 117, 103, 89, 39, -95, 38, 21, 50, 
9, 12, 15, 41, 27, 2, 33, -38, 55, 43, 
71, 26, 25, 58, 23, 4, -40, 36, -4, 59, 
59, 113, 79, 49, 48, 8, -5, -31, 18, -6, 
58, 71, 123, 79, -11, -34, 23, 79, 85, 85, 
-7, 29, 73, 78, -20, -79, -32, 93, 168, 135, 
75, -18, -16, -4, 30, -44, -78, -10, 106, 128, 
67, 18, -46, -28, 4, 113, 60, -56, -42, 3, 
-5, -38, -37, -42, -23, 30, 151, 98, -24, -2, 
31, -12, -51, -32, -34, 2, 25, 63, 23, -32, 
23, 97, 89, 66, 63, -5, 14, -11, -4, 12, 
-7, 21, 95, 62, 45, 62, 2, -22, -41, -10, 
3, 0, 13, -13, -67, -77, -22, -60, 82, -190, 
180, 26, -135, 67, 39, -20, -68, 122, -41, 60, 
-143, 158, -140, 96, 2, -131, 153, -146, 101, -37, 
30, -106, 237, -262, 165, -7, -114, 193, -124, 38, 
16, 45, -163, 215, -136, 60, -12, -31, 72, -123, 
109, -41, 24, -16, -12, -61, 108, -69, -43, 90, 
-89, 46, -3, 9, -93, 106, -14, -22, -19, 73, 
-82, 72, -58, 24, 112, -178, 94, 77, -93, -22, 
116, -135, 57, 33, -38, -17, 43, -24, -55, 113, 
-118, 67, 18, -54, -16, 53, -68, 40, 69, -140, 
110, -20, -65, 38, 62, -50, 13, 72, -108, 38, 
88, -153, 151, -60, -27, 53, -28, -3, -50, 81, 
-131, 119, -61, -50, 61, -13, -39, 28, 3, 16, 
-67, 32, -29, 33, 65, -151, 112, -9, -32, 10, 
66, -122, 102, -25, -20, 150, -217, 164, -33, -38, 
37, 68, -201, 160, -64, -21, 168, -293, 245, -53, 
-80, 43, 83, -236, 206, -131, 56, 156, -362, 328, 
-83, -93, 52, 92, -225, 233, -234, 164, 124, -424, 
375, -51, -139, 73, 77, -198, 244, -317, 265, 123, 
-486, 417, -5, -204, 89, 67, -176, 235, -349, 270, 
164, -548, 384, 70, -261, 119, 60, -146, 221, -326, 
227, 256, -528, 290, 162, -268, 105, 53, -121, 165, 
-238, 94, 288, -458, 162, 214, -222, 63, 32, -97, 
90, -133, 25, 258, -335, 55, 207, -166, 14, 49, 
-59, 26, -45, -16, 182, -174, -37, 175, -63, -11, 
30, 102, 141, 190, 177, 155, 115, 87, 68, 25, 
69, -105, -65, -47, 39, 118, 201, 183, 140, 116, 
75, 89, -135, -151, -275, -277, -204, -71, 41, 77, 
85, 29, 48, -13, -4, -146, -270, -420, -434, -383, 
-216, -93, -46, -25, 44, 104, 89, 92, -24, -172, 
-289, -297, -210, -147, -81, 57, 47, 93, 163, 192, 
175, 77, -17, -80, -89, -84, 58, 23, 33, 61, 
82, 116, 104, 43, 3, -29, -58, 35, 22, 36, 
32, 43, 61, 77, 57, 32, -3, -17, 29, -2, 
21, 29, 19, 34, 55, 63, 55, 18, 0, 23, 
-1, -4, 5, 17, 25, 40, 50, 43, 34, 34, 
-5, -12, -23, -19, -19, -12, -21, -8, -1, 18, 
40, 7, 25, -20, -39, -96, -72, 2, 34, 19, 
30, 39, 12, 17, -13, -35, -51, -5, 33, 27, 
35, 43, 6, 5, -6, -75, -81, -72, -37, 24, 
92, 97, 42, -10, -2, -4, -82, -41, -45, -1, 
111, 187, 96, -9, -45, -3, -25, -68, -45, -54, 
42, 198, 153, 0, -48, -103, -66, -40, -65, -29, 
0, 177, 228, 51, -71, -87, -133, -54, -10, -23, 
-4, 84, 245, 146, -52, -111, -110, -72, -18, -1, 
-13, 56, 135, 163, -7, -83, -122, -123, -22, -1, 
23, 7, 82, 120, 32, -92, -131, -103, -85, 51, 
17, 20, 33, 79, 52, -53, -99, -103, -93, -43, 
60, 60, 16, 39, 38, -40, -108, -100, -66, -18, 
46, 155, 130, 54, -134, -169, -117, 66, 79, 44, 
19, 24, -7, 42, 187, 17, -133, -184, -14, 120, 
61, -20, -7, 10, -65, 254, 175, -107, -302, -191, 
67, 97, 31, -12, -2, -184, 140, 365, 99, -245, 
-279, -58, 84, 98, 48, -24, -186, -80, 386, 349, 
-154, -324, -146, -5, 64, 80, 18, -126, -278, 159, 
595, 85, -288, -192, -70, -23, 50, 56, -18, -254, 
-145, 498, 339, -159, -156, -104, -70, -9, 46, 28, 
-158, -296, 235, 415, 2, -92, -71, -70, -30, 19, 
56, -52, -307, 26, 329, 107, -70, 14, -29, -43, 
-2, 52, 37, -240, -137, 222, 161, -54, -15, -4, 
-32, -13, 37, 76, -147, -244, 26, 214, 40, -17, 
32, 23, -39, 48, 34, 21, 24, 37, 27, 17, 
-11, -9, 5, 6, -33, -29, -10, 12, 2, -25, 
-39, -29, -32, -34, -19, -3, 41, 31, 6, -16, 
-76, -74, -51, -58, -59, -18, -49, -49, -118, -193, 
-236, -217, -189, -163, -90, -28, 89, -88, -119, -178, 
-178, -124, -41, 55, 170, 255, 279, 250, -23, -57, 
29, 153, 301, 429, 495, 467, 332, 152, -10, 109, 
136, 307, 431, 440, 336, 154, -8, -162, -223, -255, 
230, 198, 194, 80, -63, -227, -338, -359, -298, -190, 
-111, 4, -114, -208, -284, -338, -346, -279, -187, -92, 
-6, 17, -42, -74, -71, -32, -4, 44, 86, 126, 
147, 113, 81, -33, -16, -16, 8, 20, 27, 43, 
38, 20, -14, -4, -4, -2, 5, 31, 17, 26, 
12, 23, 3, -9, 16, 4, -10, 2, 20, 16, 
2, 11, 9, 9, -3, -12, 58, 49, 58, 69, 
87, 102, 98, 91, 83, 73, 63, 52, 37, 42, 
63, 84, 95, 72, 45, 24, -8, -28, 40, 55, 
50, 72, 54, 10, -38, -85, -100, -96, -112, -21, 
-9, -72, -147, -244, -290, -292, -236, -169, -126, -77, 
-157, -163, -287, -317, -336, -283, -205, -101, -25, -29, 
-19, -164, -106, -127, -37, -3, 68, 78, 89, 49, 
10, 18, -8, 60, 66, 89, 129, 136, 116, 88, 
44, 29, 67, 128, 128, 161, 155, 156, 134, 124, 
108, 105, 74, 92, 49, 25, 40, 45, 19, 21, 
6, 15, 15, -17, -7, -1, -18, 29, 17, 17, 
7, 4, 9, 7, 14, -30, -61, -79, -40, -41, 
-34, -32, -31, -23, -24, -28, -80, 60, 48, 86, 
68, 43, 49, 48, 47, 15, 17, -82, 20, -21, 
41, 25, -6, 5, -14, -9, -40, 0, -90, 31, 
10, 56, 49, 6, 29, 27, 3, -41, 6, -83, 
67, 16, 40, 42, 9, 30, 39, -9, -57, 5, 
-71, 76, 24, 38, 20, 12, 19, 39, -19, -47, 
3, -76, 69, 60, 44, 11, 4, -7, 6, -22, 
-38, -3, -68, 72, 58, 35, 11, -38, -45, -20, 
-11, -24, -3, -90, 108, 103, 75, 53, 51, 44, 
56, 43, 12, 5, -67, -13, -8, -22, -47, -29, 
-34, -44, -60, -95, -90, -157, 53, 17, -58, -62, 
-71, -49, 136, 270, -16, -243, 73, -46, 96, 153, 
108, -80, -306, -391, 52, 497, 140, -206, -79, -116, 
-3, 255, 402, 183, -391, -659, -100, 410, 91, 56, 
-109, -257, -163, 193, 565, 457, -232, -615, -138, 249, 
66, 102, -90, -357, -320, 100, 539, 465, -107, -405, 
-43, -4, 102, 156, -153, -386, -314, 86, 432, 330, 
-84, -184, -8, 27, 318, 229, -254, -547, -341, 86, 
381, 195, -96, -53, -184, 34, 530, 428, -160, -506, 
-401, 39, 272, 76, 80, -100, -418, -116, 474, 513, 
83, -355, -343, -8, 82, 67, 215, -47, -407, -270, 
180, 380, 224, -105, -146, 2, -89, -13, 199, 127, 
-143, -201, -89, 108, 116, -14, -7, 109, 54, 108, 
81, 80, 82, 81, 83, 53, 67, 44, -14, -51, 
-17, -47, -54, -44, -45, -41, -52, -34, -66, 98, 
34, 83, 73, 76, 75, 67, 73, 61, 55, 58, 
38, -12, 18, 2, 13, 15, -14, -7, 1, -7, 
-7, 55, 25, 39, 9, 21, 13, 9, 24, 15, 
12, 8, 27, -2, 7, -5, -9, -14, -10, -7, 
-2, -22, 8, 10, 3, -12, 3, -8, 5, 8, 
-17, 3, -28, -7, -12, 9, -36, -29, -28, -28, 
-36, -51, -39, -38, -25, -8, 24, -34, -23, -37, 
-20, -20, -28, 4, -18, -5, -67, -47, -98, -83, 
-86, -79, -70, -71, -50, -85, -62, 6, 37, -35, 
-24, -33, -31, -13, -22, 5, -4, 54, -9, 2, 
-13, 107, 116, -156, -82, 67, 10, -3, 9, -1, 
-15, -73, 44, 195, -71, -180, 64, 46, -38, 52, 
-13, -35, -82, -16, 323, 54, -325, -50, 141, -31, 
20, 34, -33, -105, -192, 301, 363, -312, -286, 179, 
55, -22, 45, 5, -87, -284, 46, 605, 1, -502, 
3, 180, 1, 33, 76, 18, -312, -305, 506, 491, 
-380, -301, 106, 52, -3, 78, 119, -180, -474, 74, 
657, 77, -402, -85, 80, 0, 25, 171, 20, -419, 
-271, 392, 399, -152, -217, 28, 9, -47, 104, 214, 
-170, -392, 24, 345, 135, -114, -52, 39, -49, -16, 
191, 45, -305, -167, 149, 173, 18, -70, 16, 24, 
-62, 78, 156, -120, -205, -36, 55, 90, 9, -7, 
24, 25, 45, 33, 37, 22, 35, 57, 36, 29, 
10, 45, 40, 80, 88, 93, 74, 75, 107, 89, 
87, 45, 88, 41, 45, 48, 29, 11, -4, 24, 
28, 121, 55, 102, 40, 52, 42, 17, 39, 14, 
4, 20, 138, 30, 92, 21, 34, 21, 40, 76, 
56, -8, -27, 89, 17, 80, 2, 23, 40, 47, 
87, 72, 44, -15, 87, 33, 66, -11, 26, 36, 
31, 58, 56, 36, 20, 59, 68, 41, -11, 41, 
45, 24, 47, 33, 46, 24, 58, 56, 19, -13, 
28, 58, 26, 46, 30, 8, -1, 44, -4, -21, 
-47, -9, -6, -5, 3, -3, -19, -44, 16, -3, 
15, -21, 4, -7, 2, -5, -22, -15, -55, 15, 
132, 140, 218, 205, 177, 137, 74, 11, -25, -69, 
-30, 168, 187, 265, 262, 213, 174, 85, 10, -51, 
-91, -64, 185, 243, 327, 310, 260, 184, 68, -17, 
-110, -127, -98, 210, 253, 345, 321, 269, 157, 47, 
-74, -164, -180, -119, 189, 242, 324, 313, 245, 133, 
-33, -157, -232, -237, -165, 200, 232, 312, 275, 200, 
83, -77, -200, -287, -280, -180, 183, 224, 275, 244, 
162, 17, -150, -273, -376, -326, -233, 154, 175, 233, 
181, 88, -64, -219, -337, -412, -381, -248, 124, 134, 
189, 121, 33, -117, -291, -382, -427, -391, -257, 46, 
39, 102, 33, -56, -183, -280, -367, -401, -367, -267, 
48, 16, 64, 6, -70, -153, -211, -263, -287, -259, 
-194, 143, 132, 58, 86, 93, 98, 65, 79, 67, 
61, 172, 119, 90, 9, 14, 7, 16, 47, 54, 
35, 42, 154, 49, -13, -154, -197, -205, -161, -99, 
-43, -14, -7, 127, 39, -45, -269, -385, -387, -299, 
-169, -62, -12, 18, 157, 9, -144, -449, -596, -624, 
-475, -253, -90, -11, 27, 170, -9, -202, -528, -704, 
-723, -550, -277, -81, 8, 15, 165, -1, -151, -465, 
-598, -594, -456, -231, -74, 5, 20, 169, 43, -69, 
-286, -364, -351, -253, -131, -30, 24, 19, 161, 81, 
5, -127, -157, -135, -88, -33, 5, 11, 19, 146, 
107, 81, -9, -11, -4, 0, 20, 28, 29, 32, 
141, 242, 234, 153, 185, 184, 180, 157, 150, 133, 
122, 218, -28, -63, -72, -81, -102, -111, -115, -115, 
-110, -87, -42, 92, 69, 96, 81, 101, 101, 98, 
102, 98, 86, 90, 91, 119, 154, 149, 198, 208, 
217, 211, 202, 157, 116, -70, -48, -29, -32, -42, 
-56, -81, -105, -104, -63, -68, -150, -155, -199, -203, 
-201, -190, -177, -147, -160, -118, -156, -37, -55, -104, 
-173, -224, -253, -258, -229, -187, -121, -79, 75, 66, 
104, 119, 147, 140, 109, 91, 83, 37, 50, 106, 
101, 189, 281, 355, 428, 461, 417, 322, 231, 192, 
-30, -55, -75, -127, -190, -247, -259, -238, -188, -122, 
-26, 23, 4, -4, -24, -28, -34, -53, -28, -39, 
-4, -5, -27, -4, -23, -10, 11, 30, 27, 15, 
11, -4, -16, -42, 27, -68, 54, 117, 117, 58, 
20, -43, -112, 1, -16, 11, -96, 9, 83, 87, 
46, -11, -40, -111, -10, -29, -5, -129, -6, 130, 
179, 102, 26, -29, -125, -39, -16, -1, -114, -33, 
84, 186, 137, 12, -37, -122, -55, -40, -38, -150, 
-46, 44, 187, 186, 42, -34, -146, -64, -17, -52, 
-185, -58, 29, 174, 220, 84, -28, -160, -71, -4, 
-58, -198, -67, 31, 167, 217, 95, -15, -150, -72, 
-5, -52, -182, -76, -2, 126, 195, 99, -1, -135, 
-71, 12, -21, -144, -66, -13, 100, 174, 105, 42, 
-94, -53, 4, -21, -135, -60, -12, 66, 126, 83, 
41, -75, -38, 25, 5, -152, -67, 0, 71, 92, 
74, 72, -24, -22, -25, 23, -35, 103, 151, -108, 
-209, -44, 62, 28, 6, -35, 26, -69, 112, 185, 
-140, -199, 38, 95, 12, 7, -31, 30, -88, 197, 
241, -291, -294, 86, 127, 5, 5, -48, 35, -95, 
251, 248, -421, -264, 172, 121, -12, 4, -55, 37, 
-68, 296, 200, -559, -226, 276, 106, -24, -4, -53, 
42, -37, 353, 136, -615, -131, 332, 62, -23, 7, 
-45, 34, -12, 355, 43, -593, -41, 294, 38, -4, 
-11, -43, 12, 15, 310, -48, -520, 22, 236, 14, 
-13, -22, -32, 34, 21, 231, -128, -372, 60, 203, 
35, -7, -18, -24, 25, 21, 128, -119, -237, 50, 
132, 17, 0, -20, -6, 44, 15, 57, -121, -149, 
32, 104, 11, 0, 12, 6, -8, 1, 24, 29, 
25, 15, -11, 3, 9, 18, 36, 22, -26, -73, 
-66, -39, 11, 37, 48, 26, -1, -24, 9, 82, 
93, 76, 21, -33, -76, -67, -75, -35, -47, -27, 
12, 66, 80, 86, 62, 35, 14, 10, 26, -15, 
-153, -350, -475, -489, -385, -229, -45, 58, 69, 30, 
188, 339, 540, 665, 630, 519, 302, 131, -5, -40, 
-37, -169, -150, -132, -76, -64, -48, -41, -57, -51, 
-45, 1, -100, -283, -515, -680, -712, -549, -326, -136, 
-27, 18, 35, 204, 379, 571, 685, 674, 511, 316, 
145, 53, 29, -16, -72, -160, -190, -189, -146, -110, 
-77, -35, -10, 0, -6, 4, 25, -5, -14, -43, 
-23, -6, -11, 6, -4, -4, 26, -16, 19, -5, 
30, 37, 31, 16, 25, 8, 29, -27, -64, -28, 
-78, -51, -20, -23, -16, 15, 10, -32, 54, -5, 
-7, -66, 2, 48, 48, 43, 66, 35, 22, 110, 
64, 85, 78, 138, 103, 76, 14, -11, -3, 19, 
60, 111, 259, 254, 158, -9, -110, -121, -75, -62, 
-30, 13, 63, 201, 120, -36, -138, -158, -67, -5, 
-28, -46, 24, -55, -9, -69, -127, -95, 23, 62, 
33, -9, -16, 31, -42, -22, -55, -101, -64, 12, 
-7, -9, -32, 8, 68, 51, 86, 34, -6, 0, 
-33, -61, -48, -58, -13, -3, 29, 24, -24, -44, 
-27, -22, -63, -41, -67, -50, -5, -16, -17, -27, 
-42, -27, -6, -21, -28, -68, -46, 9, 15, -59, 
104, -107, 53, 47, -36, -29, 13, 19, 4, 28, 
-115, 170, -149, 32, 103, -82, -3, 13, -4, 8, 
15, -118, 245, -246, 8, 215, -182, -23, 76, -20, 
7, -17, -100, 301, -310, -4, 346, -279, -60, 168, 
-54, 36, -61, -78, 316, -369, -2, 430, -350, -76, 
247, -100, 81, -126, -27, 324, -414, 48, 446, -374, 
-113, 311, -129, 56, -124, -24, 314, -430, 102, 399, 
-376, -156, 348, -142, 43, -69, -43, 312, -435, 132, 
335, -341, -125, 333, -127, 16, -26, -72, 283, -389, 
159, 249, -287, -62, 234, -89, 1, 7, -94, 233, 
-314, 148, 156, -204, -22, 129, -49, -2, 41, -74, 
133, -187, 96, 108, -141, -14, 51, 3, 8, 57, 
30, -187, -157, 53, 153, 82, -33, -5, -21, -23, 
47, 113, -167, -180, 72, 154, 52, -53, -5, -15, 
-16, 57, 161, -207, -303, 69, 223, 68, -65, -11, 
-15, -15, 53, 218, -171, -403, 52, 271, 74, -77, 
-27, -5, -27, 59, 257, -129, -494, -2, 321, 122, 
-76, -35, 9, -26, 58, 273, -59, -497, -56, 324, 
157, -56, -39, 10, -48, 39, 259, 10, -453, -137, 
280, 164, -34, -47, -6, -58, 22, 218, 19, -377, 
-175, 242, 144, -27, -68, -21, -42, 35, 192, 26, 
-291, -183, 210, 164, 2, -42, -12, -40, 21, 136, 
4, -224, -182, 128, 125, -7, -41, -16, -18, 37, 
125, 22, -152, -156, 58, 115, 26, 7, -12, -54, 
-12, 23, 41, -15, -36, -12, 18, 13, -3, -6, 
-18, -8, -22, -1, -48, -42, -23, 6, 29, 25, 
30, -18, 6, 9, 61, 14, -5, -5, 20, 27, 
51, 38, -53, -28, -14, 52, 0, -34, -38, 7, 
19, 35, 22, -58, -22, -2, 88, -4, -51, -20, 
17, 16, 20, 18, -49, -8, -3, 90, -25, -62, 
-14, 21, 17, 9, 16, -64, -19, 25, 66, -20, 
-58, -23, 7, 3, 17, 19, -62, -13, 25, 38, 
-38, -60, -35, -4, -2, 4, 20, -38, -2, 23, 
-2, -48, -51, -27, 7, 9, 4, 17, -31, 29, 
17, -17, -46, -26, -3, 15, 9, 20, 21, -30, 
47, 39, -1, -23, -28, -27, -13, 14, 33, 25, 
28, -15, 19, -163, -15, 92, 117, -44, -62, -21, 
15, 52, 10, 27, -187, 18, 132, 96, -91, -47, 
3, 39, 28, 12, -9, -235, 63, 227, 80, -158, 
-67, 27, 27, 29, 16, -29, -269, 91, 285, 34, 
-212, -71, 41, 25, 40, 8, -35, -290, 139, 342, 
7, -245, -51, 77, 21, 49, 18, -74, -281, 228, 
344, -68, -263, -23, 101, 10, 46, 8, -111, -249, 
325, 289, -150, -256, 9, 115, -9, 36, -28, -121, 
-189, 370, 174, -220, -216, 28, 83, -23, 52, -42, 
-102, -80, 346, 82, -196, -122, 65, 74, -4, 41, 
-64, -89, -28, 262, 8, -165, -68, 27, 49, -17, 
30, -67, -49, 55, 204, -25, -120, -49, 30, 50, 
10, -83, -26, -60, -59, -53, -54, -26, -49, -36, 
-66, -77, -17, 24, 2, -14, 6, 10, 12, -37, 
-2, -20, -21, -64, -21, -29, -34, -28, -22, -33, 
-58, -31, -26, -49, -45, -22, -24, 4, -41, -54, 
-30, -39, 1, -11, -31, -50, -52, -48, 92, -4, 
-74, -49, -30, -5, -21, -39, -53, 4, 190, 603, 
254, -30, -21, -17, -2, -34, -77, -64, 48, 392, 
958, 423, -14, -74, -65, -19, -25, -68, -56, 10, 
91, 330, 117, -49, -61, -48, -31, -49, -67, -12, 
29, -4, 55, 16, -19, -21, -48, -27, -46, -56, 
-42, 1, -6, 37, 10, 4, 8, -56, -19, -16, 
-26, -77, -30, -46, -32, -45, -43, -48, -97, -56, 
-64, -62, 78, 70, 69, -1, -107, -174, -146, -65, 
3, 67, 63, 85, 78, 63, -6, -113, -121, -51, 
-2, 44, 76, 41, 126, 118, 51, -81, -233, -184, 
-65, -9, 47, 101, 64, 160, 133, 80, -134, -288, 
-149, -1, 47, 82, 111, 53, 177, 160, 36, -259, 
-339, -95, 59, 86, 100, 98, 38, 204, 136, -51, 
-311, -287, -21, 111, 94, 85, 117, 37, 194, 89, 
-127, -297, -203, 43, 76, 60, 62, 93, -4, 159, 
42, -168, -250, -104, 47, 55, 41, 62, 68, -33, 
128, -2, -168, -168, -60, 50, 53, 74, 69, 54, 
-28, 91, -33, -151, -132, -48, 39, 34, 33, 43, 
35, -30, 50, -91, -131, -106, 2, 79, 66, 41, 
63, 67, 0, 3, -6, -19, -4, -15, -49, 139, 
48, -212, 24, 49, 39, -58, -5, 45, -64, 10, 
191, -74, -209, 138, 16, 21, -67, 31, 51, -155, 
134, 270, -296, -158, 242, -50, -47, 10, 34, -56, 
-89, 299, 75, -464, 67, 240, -97, -59, 105, -91, 
-96, 147, 317, -237, -471, 309, 124, -95, 6, 29, 
-149, 45, 254, 173, -486, -313, 542, -1, -86, 57, 
-127, 25, 165, 115, 7, -626, 70, 647, -282, -60, 
-15, -74, 181, 40, 46, -232, -454, 562, 283, -463, 
116, -33, 70, 111, -77, 40, -387, 16, 706, -272, 
-316, 210, 1, 105, -41, -55, -66, -258, 396, 326, 
-507, 8, 107, 39, 3, -56, -2, -97, 26, 337, 
-119, -307, 197, -25, 0, -3, 19, 56, -16, -165, 
-71, 19, 49, 44, 23, 2, 2, -9, 80, 76, 
-112, -87, 48, 79, 18, 18, -10, 10, -29, 79, 
146, -120, -281, -18, 135, 23, 15, -6, -7, -28, 
53, 199, -40, -375, -76, 240, 4, 16, 2, -1, 
-28, 17, 208, 71, -450, -173, 321, -6, 17, -8, 
4, -4, -11, 184, 224, -444, -296, 370, 46, -3, 
-3, 9, -7, -21, 110, 309, -373, -426, 350, 101, 
-3, -12, -9, -2, 2, 53, 289, -233, -454, 226, 
143, -3, -17, 3, 7, 10, 7, 235, -93, -391, 
78, 140, 32, -21, -10, -21, 1, -17, 160, -28, 
-289, -17, 117, 19, 7, 3, -2, 18, 37, 137, 
6, -215, -91, 81, 33, 10, -41, 1, 11, -38, 
-39, 3, -22, -23, 60, 45, 66, -12, -8, 53, 
-49, -109, -44, -39, -81, -46, 24, -9, -52, -84, 
-62, -150, -172, -107, -77, -152, -149, -22, -49, -27, 
-36, -52, -115, -135, -127, -72, -112, -118, 33, -44, 
-46, -47, -102, -99, -115, -164, -102, -61, -135, 25, 
-23, 1, -50, -95, -76, -76, -151, -139, -84, -196, 
28, -25, -32, -110, -48, 33, 3, -62, -136, -134, 
-192, 12, 5, -14, -143, -80, -8, -4, -88, -151, 
-103, -139, 20, 24, 43, -75, -61, -93, -93, -104, 
-134, -107, -124, 56, -19, 61, -62, -47, -103, -142, 
-98, -132, -123, -136, 15, 81, 135, 23, 25, -17, 
-24, 7, -52, -35, -70, 37, -27, 27, -38, -11, 
16, -4, -5, 2, 9, -12, 35, 0, 58, 23, 
53, 46, 36, 14, 19, 51, 37, 56, -47, 34, 
-59, -6, 4, 2, -11, -12, 11, -16, -4, -36, 
57, -46, 41, 58, 64, 39, 31, 39, -6, 24, 
-29, 60, -61, 27, 45, 45, 19, 2, 26, -9, 
14, -3, 43, -73, -25, -5, 13, -5, 5, 25, 
-8, 48, -12, 35, -103, -55, -75, -51, -45, -14, 
42, -9, 33, -45, 39, -133, -107, -130, -104, -61, 
-21, 28, -8, 37, -27, 62, -126, -97, -117, -98, 
-45, -16, 28, 7, 25, -105, -10, -169, -133, -145, 
-150, -122, -71, -31, -69, -32, -37, 53, -58, 12, 
-11, -13, -32, -11, 31, -21, 26, -189, -156, -135, 
-156, -180, -192, -192, -200, -187, -173, -271, -155, -112, 
-67, -78, -80, -93, -81, -103, -122, -120, -237, -127, 
-53, 23, 73, 106, 148, 164, 127, 62, 5, -130, 
-177, -96, 35, 119, 231, 327, 372, 292, 178, 67, 
-116, -192, -104, 53, 200, 373, 552, 575, 494, 334, 
164, -94, -192, -109, 72, 216, 452, 649, 678, 575, 
424, 226, -60, -196, -114, 62, 196, 371, 555, 622, 
547, 378, 209, -37, -206, -117, 6, 100, 244, 367, 
434, 401, 280, 141, -73, -185, -117, -28, 37, 109, 
200, 233, 217, 164, 106, -54, -164, -110, -32, -24, 
14, 56, 75, 89, 84, 65, -56, -228, -180, -162, 
-159, -186, -160, -155, -138, -116, -90, -173, -8, -38, 
41, 62, 84, 90, 47, 56, 26, 31, 21, -12, 
-41, 31, 32, 39, 26, -6, -2, -4, -13, -43, 
24, 4, 93, 70, 50, 48, 18, 15, -2, -5, 
-30, 32, 16, 90, 38, 30, 11, 10, 6, -3, 
-48, -54, 55, 46, 84, 32, -2, 5, 11, -10, 
-37, -54, -21, 40, 5, 53, 9, -18, -7, -27, 
-45, -39, -61, -20, 35, 21, 28, -8, -19, -29, 
-27, -31, -31, -47, -9, 38, 16, 38, -7, -23, 
-25, -37, -23, -36, -50, 26, 43, 14, 31, -2, 
-16, -24, -38, -34, -23, -32, 22, 8, -11, -4, 
-42, -60, -85, -81, -65, -41, -62, -10, -2, -13, 
-18, -44, -57, -59, -37, -35, -1, -18, 56, 19, 
31, 65, 54, 49, 79, 52, 72, 100, 92, 68, 
-5, -33, 3, -2, 23, 32, -29, 9, 35, 23, 
8, 25, 5, 40, 4, 39, 17, -203, -113, 49, 
39, 39, 41, 2, 46, 1, -21, -221, -788, -490, 
-12, 22, 23, 58, -4, 34, 34, 27, -156, -646, 
-328, 58, 65, 30, 27, -50, 2, 22, 48, 32, 
-133, -8, 103, 55, 9, 8, -38, 0, -5, 48, 
38, -53, 23, 69, 18, 0, 13, -2, 23, 15, 
34, 29, -38, 21, 50, 22, 11, 32, 13, 36, 
3, 16, 46, -2, 20, 23, 33, 20, 33, 5, 
33, 0, -8, 28, 16, -8, 11, 39, 22, 7, 
-13, 19, 13, 30, 56, 52, 27, 20, 60, -16, 
-33, -40, -7, 11, 13, -1, -5, 27, 44, 51, 
6, 5, -18, 5, -8, -5, 8, -2, 13, -6, 
3, 3, -38, -72, -22, -18, 1, 26, 17, 33, 
33, 37, 47, 26, -55, -68, -36, 14, -9, 9, 
14, 25, 52, 6, 33, -15, -62, -95, -80, -49, 
-29, 0, 11, 72, 16, 34, -17, -51, -94, -62, 
0, 0, -7, 29, 61, 4, 34, -25, 13, -54, 
-57, -12, -16, 14, 44, 56, 32, 13, 9, 40, 
-6, -9, 43, 31, 24, 17, 37, 5, 16, 5, 
59, 33, 24, 9, 18, 37, 14, -5, 6, 30, 
-16, 74, 60, 41, 10, 23, 18, 4, 33, 16, 
26, 0, 62, 57, 47, 43, 34, 47, 5, 31, 
-16, 19, -38, -3, 29, -22, -16, 54, 46, -94, 
-67, 45, -15, -6, 30, -17, -20, 106, 91, -91, 
-135, 47, 56, -42, 15, -11, -48, 104, 165, -81, 
-265, -41, 141, 21, 15, -26, -76, 62, 254, 31, 
-329, -235, 180, 167, -34, 5, -93, 9, 281, 196, 
-310, -470, 31, 402, 84, -99, -76, -5, 238, 285, 
-201, -613, -206, 491, 380, -150, -133, -38, 143, 230, 
-72, -560, -400, 395, 685, -33, -349, -36, 54, 134, 
-23, -339, -411, 169, 710, 222, -445, -206, 103, 75, 
8, -145, -235, -29, 464, 398, -337, -368, 96, 105, 
21, -72, -119, -24, 181, 339, -85, -382, -18, 166, 
3, -18, -31, 7, 89, 130, -5, -259, -65, 144, 
23, -1, 68, 78, 114, 74, 95, 88, 89, 56, 
46, 77, 51, 46, 22, 72, 88, 79, 86, 84, 
84, 56, 70, 45, 61, 92, 115, 146, 187, 196, 
207, 210, 183, 164, 111, 5, 19, 58, 88, 144, 
172, 191, 187, 162, 139, 71, -37, -38, -13, 21, 
90, 126, 152, 147, 128, 89, 58, -21, -25, -59, 
-34, 11, 54, 86, 100, 74, 46, 27, -25, -32, 
-87, -81, -61, -17, 29, 42, 27, 26, 28, -77, 
-63, -126, -135, -158, -131, -117, -102, -58, -31, -2, 
-79, -64, -153, -189, -225, -227, -217, -209, -150, -94, 
-22, -44, -34, -125, -159, -237, -276, -258, -228, -173, 
-121, -41, 1, 21, -68, -85, -134, -175, -181, -165, 
-136, -91, -22, -11, -11, -57, -81, -91, -86, -79, 
-77, -64, -37, -28, -43, -48, -67, -67, -78, -64, 
-50, -27, -1, 15, 31, -24, -26, -31, -26, -24, 
-12, -4, 25, 48, 49, 58, 25, 13, 26, 3, 
39, 63, 80, 58, 59, 40, 47, 76, 33, 58, 
65, 94, 99, 77, 48, 26, 7, 10, 68, 22, 
54, 60, 75, 38, 13, 26, 8, -10, 3, 48, 
-4, 39, 22, 14, 0, -9, -7, 10, 21, 4, 
51, 5, 5, 2, 12, 16, -7, -5, 7, 10, 
-8, 20, -9, -10, -18, -6, -20, -27, -29, -44, 
-23, -46, 5, -9, -22, -38, -48, -53, -56, -30, 
-46, -29, -53, 5, 6, -32, -21, -24, -19, -26, 
-12, 0, 38, 16, -23, -10, 30, 24, 39, 21, 
20, 5, -1, -27, -120, 27, 4, 38, 55, 74, 
66, 41, 45, 43, 23, -19, -10, 13, 61, 93, 
112, 101, 88, 89, 77, 75, 19, -15, -4, 45, 
80, 114, 122, 130, 142, 148, 142, 94, -8, -3, 
25, 56, 124, 162, 210, 198, 239, 214, 139, -41, 
-60, -36, 12, 107, 237, 320, 331, 330, 282, 182, 
-109, -101, -133, -107, -63, 70, 208, 323, 347, 300, 
216, -168, -142, -186, -201, -211, -193, -77, 95, 210, 
241, 226, -209, -211, -243, -242, -256, -280, -227, -101, 
2, 56, 111, -202, -248, -310, -320, -288, -263, -229, 
-162, -108, -82, -34, -149, -210, -262, -250, -232, -218, 
-195, -143, -105, -87, -44, 0, 10, 12, 11, -17, 
-4, -23, -45, -13, -31, -25, 20, -1, -15, -23, 
-40, -11, -1, -15, -4, -25, -7, 25, 20, -13, 
-26, -20, -4, -17, -18, -22, -28, 4, 4, 12, 
-42, -32, -20, -18, -25, -36, -30, -16, 14, -3, 
21, -48, -38, -6, 28, -20, -47, -14, 9, 4, 
-2, 17, -51, -40, 208, 322, 156, 0, 7, -8, 
-16, -28, -49, -143, -80, 296, 494, 234, -18, -53, 
-46, -34, -13, -21, -115, -119, 78, 189, 72, -68, 
-34, -5, 0, 16, 28, -14, -86, -65, -35, -66, 
-64, 1, 17, 10, -14, -9, 19, -23, -29, -24, 
-51, -42, -9, -26, -35, -14, -6, 23, 17, 8, 
4, 3, -13, -1, -26, 0, 6, -14, 66, 2, 
-27, 36, 58, 44, 41, 76, -11, -31, -31, 54, 
-4, 4, 37, 27, 10, 3, 42, -19, -42, -69, 
56, 38, 35, 76, 43, 12, 23, 75, -11, -122, 
-187, 9, 39, 65, 77, 28, 20, 17, 75, -32, 
-227, -342, -83, 11, 37, 65, 44, 35, 32, 60, 
-56, -249, -353, -97, -9, 45, 92, 85, 46, 62, 
85, -24, -155, -229, -8, 18, 64, 88, 66, 20, 
35, 76, -27, -38, -87, 45, 25, 39, 50, 25, 
-3, 6, 50, -47, 52, -6, 90, 20, 11, 37, 
23, -8, -9, 48, -63, 97, 12, 95, 23, 22, 
49, 31, 7, 13, 50, -47, 33, -10, 56, -5, 
-5, 6, -31, -46, -32, 18, -94, -72, 53, -52, 
23, 5, 40, 34, 70, 55, 121, -13, -40, 43, 
-49, 1, -22, -15, -5, 0, -18, 35, -55, -101, 
28, -50, 1, 11, 28, 47, 63, 45, 137, 66, 
-74, 39, -67, -17, -7, 10, 12, 19, 9, 91, 
33, -86, 39, -75, -27, -19, 1, 22, 43, 43, 
81, 46, -82, 36, -97, -25, -17, 7, 7, 30, 
26, 82, 63, -110, 10, -85, -17, -16, 4, -5, 
30, 20, 57, 40, -96, 17, -85, -22, -42, -8, 
-8, 35, 27, 68, 53, -68, 18, -81, -32, -28, 
-3, 11, 18, -3, 47, 20, -109, -11, -117, -35, 
-33, -13, 4, 26, 3, 52, 18, -30, 42, -89, 
-47, -46, 1, 1, -14, 0, 55, 6, -10, -7, 
-2, 3, -1, 7, 5, 14, 5, 0, 8, -1, 
3, 3, 8, 11, 18, 20, 9, 10, 1, 3, 
-16, -12, -6, 5, -4, 14, 6, 7, -20, -9, 
-6, -30, -62, -49, -26, -21, -13, -20, -28, -17, 
-31, -27, 9, -11, -41, -69, -72, -60, -41, -15, 
-27, -31, -37, 61, 93, 119, 68, 27, -19, -39, 
-35, -33, -12, 11, -64, 16, 92, 174, 216, 203, 
146, 43, -12, -42, 8, -121, -132, -168, -127, -51, 
92, 226, 252, 186, 104, 68, -2, -35, -143, -233, 
-377, -412, -330, -173, -53, 28, 43, 71, 89, 114, 
124, 57, -48, -201, -291, -305, -232, -168, 78, 56, 
72, 138, 218, 276, 303, 232, 176, 108, 91, 18, 
15, 20, 47, 29, 28, 10, -11, 2, 13, 32, 
27, 5, 17, 13, 5, 18, 4, 5, 4, -7, 
-7, 16, 16, 19, 21, 10, 6, 16, 12, 6, 
3, -8, 17, 22, 12, 12, 9, 19, 50, 21, 
6, -6, 1, 31, -1, 14, 6, 32, 45, 35, 
-6, -15, -9, -3, 8, 14, -9, 4, 30, 28, 
16, -16, -34, -5, 0, -15, -14, 8, 16, -1, 
-15, -11, -24, -31, -21, -1, -7, -4, -3, 9, 
2, -2, -36, -35, -29, -20, 10, -19, -8, -11, 
1, 3, -26, -50, -53, -33, -22, -6, -12, -21, 
-12, 1, -17, -39, -60, -36, -36, -24, 2, -11, 
-4, 15, 3, -13, -21, -29, -19, -10, -7, 4, 
-85, -87, -58, 22, 77, 125, 145, 117, 37, 19, 
-93, -8, -67, -104, -85, -37, 10, 61, 56, 11, 
27, -54, 43, -78, -140, -143, -59, 26, 121, 136, 
75, 66, -11, 106, -24, -78, -208, -161, -19, 82, 
146, 121, 76, 14, 118, 15, 8, -172, -272, -187, 
7, 120, 115, 114, 56, 132, 40, 38, -63, -256, 
-318, -127, 23, 76, 95, 86, 151, 87, 82, 30, 
-74, -258, -208, -68, 16, 32, 98, 94, 90, 114, 
91, 32, -144, -208, -151, -54, 29, 52, 48, 59, 
121, 87, 73, -22, -123, -130, -72, -3, 47, 36, 
48, 84, 87, 90, 28, -51, -118, -93, -50, 18, 
-53, 4, 86, 111, 115, 104, 68, -27, -95, -74, 
-62, 22, -16, -29, -46, -66, -51, -21, -49, -60, 
-37, -112, 26, -25, -44, -52, -59, -42, -33, -70, 
-87, -40, -101, 120, 95, 96, 94, 66, 69, 69, 
30, 15, 51, -39, 77, 81, 103, 111, 66, 48, 
34, 24, -3, 26, -51, 111, 128, 132, 130, 93, 
68, 62, 22, 9, 43, -62, 127, 139, 142, 135, 
107, 104, 84, 14, -22, 19, -86, 139, 141, 130, 
112, 89, 106, 89, 30, -6, 1, -93, 108, 110, 
124, 97, 61, 87, 94, 53, 23, 17, -109, 82, 
54, 70, 62, 58, 72, 124, 97, 40, 17, -101, 
84, 50, 56, 64, 75, 112, 153, 108, 48, 34, 
-76, -52, -73, -51, -61, -60, -7, -4, -76, -104, 
-81, -157, 8, 13, -14, 14, -16, -17, -25, -8, 
-18, -57, -15, 29, 42, 29, 71, 53, 53, 16, 
8, 14, -9, 8, -12, 35, 43, 96, 84, 60, 
1, -8, 3, -19, -11, 6, 51, 65, 112, 99, 
94, 66, 28, 26, -10, 0, 3, 38, 30, 57, 
62, 75, 57, 27, 5, -26, -7, -8, 24, 4, 
16, 17, 11, 3, 21, 7, -17, -10, -7, 12, 
-20, -30, -48, -51, -34, 7, 9, -7, -4, -28, 
11, -27, -59, -77, -68, -49, -1, 26, -19, 11, 
-5, 20, -26, -15, -35, -43, -25, 2, 33, -15, 
11, -64, -33, -82, -48, -52, -41, -45, -42, -18, 
-46, -31, -44, -6, -50, -27, -26, -33, -40, -33, 
-16, -45, -6, 54, 12, 66, 13, 22, 5, 12, 
-3, -2, 65, 5, 32, -15, 19, -13, -39, -47, 
-29, -35, -43, 18, -19, 63, -7, 47, 18, 7, 
18, 18, -2, 1, 68, 8, 36, -1, 39, -11, 
-38, -24, -17, -26, -14, 65, -8, 42, -15, 30, 
-58, -55, -46, -41, -41, -4, 53, -4, 23, -19, 
8, -47, -30, 9, 4, -25, -12, 23, -9, 10, 
-40, 0, -28, -8, 12, 10, -2, -2, 45, -21, 
-13, -75, -17, -39, -28, -23, -32, -20, -7, 35, 
-49, 3, -89, 7, -6, -10, -32, -40, -29, -2, 
36, -46, 37, -18, 65, 33, 50, 36, 20, 42, 
71, 91, 17, 30, -22, 1, -3, 6, -14, -15, 
12, 24, 47, -20, 11, 61, -34, 23, 66, -15, 
31, -10, -1, 20, 20, -15, 43, 47, 43, 24, 
25, 53, 62, 80, 38, -37, -72, -154, -221, -202, 
-208, -226, -225, -263, -245, -164, -45, 47, 143, 189, 
196, 264, 236, 303, 362, 350, 285, 139, 58, 127, 
118, 109, 124, 42, -19, -140, -180, -176, -134, -135, 
-315, -458, -478, -460, -509, -404, -306, -176, -83, -6, 
118, 270, 417, 516, 561, 537, 590, 487, 403, 261, 
110, -35, -22, -130, -172, -168, -277, -267, -303, -286, 
-207, -83, -37, -111, -166, -191, -154, -149, -113, -37, 
57, 71, 39, -21, 104, 163, 205, 252, 208, 201, 
108, 45, -9, -48, 21, 6, -74, -79, -54, -119, 
-54, -15, -36, 27, 25, 4, -17, -81, -73, -25, 
59, 120, 144, 121, 71, -33, -74, -96, -59, 93, 
226, 276, 166, 20, -124, -204, -171, -41, 61, 244, 
347, 251, 2, -254, -370, -316, -148, 49, 159, 260, 
260, 59, -282, -504, -443, -198, 27, 138, 204, 228, 
74, -194, -470, -518, -274, 35, 187, 252, 200, 127, 
-55, -286, -441, -311, 5, 247, 277, 217, 126, 28, 
-21, -221, -181, -53, 189, 274, 234, 134, 60, 19, 
-16, -29, -59, 86, 165, 175, 114, 54, 26, 15, 
-9, -32, -38, 36, 82, 23, 24, 44, 46, -14, 
-26, -40, -38, -41, 15, -3, 25, 23, 12, -56, 
-76, -65, -50, -28, -25, 26, 17, 9, -30, -66, 
-30, -4, -1, 20, 14, 1, -74, -48, -142, -112, 
-120, -67, -31, -5, 26, 59, 53, -41, -9, -106, 
-65, -34, 12, 14, 28, 28, 55, 47, -167, -69, 
-161, -124, -93, -17, 9, 26, 21, 81, 83, -120, 
-40, -111, -62, -9, 40, 46, 45, 56, 80, 68, 
-125, -32, -106, -38, -2, 41, 15, 61, 53, 73, 
62, -125, -34, -102, -9, 12, 30, 34, 62, 58, 
75, 83, -113, -31, -84, -26, -10, 16, 31, 47, 
46, 87, 73, -88, 4, -74, 9, 5, 42, 41, 
58, 39, 95, 54, -80, 16, -46, 6, 6, 25, 
34, 31, 10, 70, 19, -94, -9, -52, 5, 1, 
30, 34, 41, 42, 99, 37, -10, 65, 7, 44, 
42, 61, 56, 58, 33, 77, -57, -1, -66, -35, 
-30, 5, 17, 11, 38, 66, 39, 31, 61, -28, 
-52, -95, -104, -21, 23, 2, -4, 28, 51, 99, 
24, 45, -87, -167, -171, -112, -56, -37, -20, 52, 
125, 114, 188, 116, -50, -197, -233, -172, -89, -76, 
-6, -10, 95, 212, 315, 285, 78, -164, -207, -196, 
-160, -137, -153, -66, 4, 155, 378, 472, 287, 64, 
-76, -126, -215, -145, -120, -176, -170, -34, 250, 388, 
319, 176, 76, -68, -61, -62, -114, -171, -203, -138, 
-6, 130, 171, 151, 100, 19, -3, -37, -76, -122, 
-149, -111, -38, 37, 68, 111, 75, 43, 7, -28, 
-73, -94, -94, -79, -28, 20, 95, 70, 86, 70, 
47, 46, 21, -49, -84, -90, -49, 18, 96, 60, 
64, 52, 62, 53, 55, 68, 71, 96, 89, 22, 
-37, -42, -70, -71, -71, -64, -59, -40, -15, 8, 
33, -18, 5, -16, -4, 13, 15, 21, 9, 17, 
31, -26, -60, -35, -58, -37, -7, -21, -29, -46, 
-24, -10, -14, -69, -43, -91, -72, -53, -60, -48, 
-53, 2, 11, -13, -43, -52, -95, -95, -77, -80, 
-75, -64, -7, 16, 16, -3, -40, -85, -82, -64, 
-66, -52, -58, 3, 19, 25, -9, -9, -54, -62, 
-44, -42, -38, -24, 13, 33, 34, 4, 20, -39, 
-35, -42, -45, -18, -25, 6, 32, 60, 31, 48, 
19, 10, 1, -13, 19, 25, 35, 43, 48, 46, 
45, 10, 14, 11, 19, 18, 27, 28, 30, 11, 
18, 4, 22, 13, 11, -1, 6, 26, -48, 62, 
59, 57, 51, 61, 53, 41, 57, 44, 45, 15, 
70, 11, 7, 11, -1, 23, -3, 16, -4, 10, 
-27, 8, 11, 34, 37, 12, 31, 23, 18, 13, 
15, -2, 47, 3, 5, -1, 8, 4, -20, 7, 
-4, 9, -10, 20, 17, -6, -8, 6, 9, -14, 
-11, -5, 16, 9, 16, -5, -17, 4, -14, -11, 
-14, -23, -9, -18, -6, 14, -2, -20, -3, -25, 
-27, -1, 2, -13, -10, -16, -12, -11, -27, -16, 
-26, -45, -46, -21, -1, -9, -22, -17, 8, -5, 
-3, -6, -23, -32, -16, -22, -13, -10, 2, -57, 
-54, -44, -49, -52, -20, -30, -37, -32, -13, -19, 
38, 39, -2, 16, 16, 42, 12, -54, 42, 55, 
-27, 27, 29, -14, -29, -59, -7, 210, 109, -79, 
-78, 14, -52, -107, -30, 111, 202, -21, -264, -169, 
-29, 94, 112, -2, 113, 35, -5, -41, -120, -137, 
85, 99, -21, -9, 74, 125, -7, -193, -364, -50, 
423, 348, -32, -291, -163, 49, -121, -167, 100, 276, 
162, -284, -406, -10, 192, 63, -82, -3, 77, 41, 
108, -26, -184, -178, -102, 108, 94, -22, 106, 87, 
-107, -229, -90, 312, 381, -47, -240, -89, 28, -26, 
-95, 29, 51, 23, -125, -134, 89, 67, -32, 60, 
-24, -14, 37, 26, 9, -92, -131, -56, 27, 57, 
-8, 22, 7, -44, -14, -20, 90, 139, -4, -76, 
-12, -12, 3, -8, -6, 13, -3, 15, 23, -8, 
-18, -17, -3, -12, -6, -3, -2, -5, -8, -8, 
-29, -23, -23, -9, -2, -37, -29, -23, -30, -43, 
-33, -19, -20, -26, -40, -29, -39, -37, -24, -32, 
-32, -31, -25, -7, 0, -5, -8, -7, -6, -8, 
-7, -7, -2, -15, 11, 18, 20, -4, 3, 7, 
9, -5, 0, 1, -2, 6, 5, 25, -17, -11, 
-17, -32, -31, -33, -12, 21, 38, 69, 76, 19, 
57, 48, 64, 79, 112, 142, 152, 121, 139, 133, 
100, 152, 171, 224, 258, 270, 236, 160, 81, 99, 
165, 108, 105, 85, 69, 38, -5, -36, -67, -66, 
-40, -132, -150, -199, -225, -245, -271, -304, -286, -248, 
-208, -198, -93, -53, -169, -156, -161, -160, -137, -139, 
-123, -114, -45, 14, 27, -20, 20, 1, 5, 15, 
11, 24, 7, 56, -95, -49, -115, -73, -109, -92, 
-85, -106, -89, -76, -68, -25, 33, -36, -10, -27, 
-20, -36, -43, -4, -16, 4, -23, 3, -30, -10, 
-18, -24, -18, -19, -20, -12, -21, 22, 21, -4, 
21, 6, 14, 19, 18, 5, 0, -6, 29, 34, 
26, 52, 28, 33, 10, 25, 23, 27, 12, 30, 
16, 61, 44, 56, 63, 54, 31, 36, 31, 35, 
28, 11, 45, 15, 27, 36, 38, 24, 28, 46, 
16, 101, 63, 117, 84, 107, 111, 91, 113, 99, 
110, 98, -15, -12, 50, 29, 46, 61, 45, 50, 
30, 58, -2, -101, 64, 118, -75, -104, 107, 57, 
-75, -14, 20, -1, 85, 105, -158, -143, 177, 24, 
-147, -12, 111, 13, -21, 115, -173, -193, 177, 109, 
-135, 23, 137, -65, -95, 50, -43, -149, 153, 155, 
-103, -15, 72, -69, -87, 101, 48, -91, 26, 165, 
93, -3, -107, -122, -68, 138, 125, -115, -55, 274, 
222, -164, -392, -166, 139, 191, 99, -118, -65, 215, 
80, -415, -543, -57, 586, 371, -8, -241, -210, 74, 
-25, -385, -310, 381, 840, 244, -421, -423, -141, 201, 
148, -193, 69, 493, 478, -219, -705, -364, 108, 321, 
165, -138, 115, 214, 48, -374, -509, -16, 447, 334, 
-7, -235, -71, 18, -94, -163, -42, 213, 258, -58, 
-208, -82, 82, 121
};
