extern const int weights_1[7744] = {
-24, -2, -28, -9, -31, -62, -51, -1, 41, -7, 
33, 0, 23, 9, 49, 25, 1, 17, 24, 19, 
-14, 19, 6, 30, 0, 1, -5, -36, -22, -29, 
12, -3, 9, 19, 49, 7, 1, -26, -44, -61, 
-54, -17, -24, -1, 26, 51, -7, -13, -31, -45, 
-91, -101, -56, -45, -7, -21, 24, -25, -39, -79, 
-78, -63, -61, -48, -12, 26, -84, -15, -72, -71, 
-116, -55, 59, 71, 40, 44, 50, -98, -30, -113, 
-90, -59, 79, 364, 337, 147, 63, -21, -64, -12, 
-64, -30, 32, 169, 402, 320, 106, -10, -81, -47, 
3, -41, -18, -28, 10, 74, 39, -27, -34, -78, 
-19, 12, -41, -43, -57, -35, -32, -78, -70, -42, 
-57, -37, 7, -40, -12, -48, -56, -45, -40, -16, 
-82, -1, -5, 59, 9, 42, 35, 26, 69, 73, 
76, -3, 44, -81, -23, -75, -46, -50, -37, -12, 
-50, -58, -132, 19, -63, 17, -40, -13, 3, 3, 
4, -65, -82, -141, 70, -57, -1, -45, 4, -6, 
-16, -23, -79, -101, -121, 84, -31, -3, -41, 24, 
-11, -14, 23, -22, -65, -91, 110, -37, 14, -36, 
1, -21, -22, 45, -7, -49, -93, 88, -42, 24, 
-32, -12, -10, -1, 30, -1, -41, -126, 33, -40, 
32, -29, 16, 4, 6, 26, 10, -17, -105, 41, 
-62, -24, -79, -47, -62, -59, -34, -42, -81, -166, 
-14, 8, 48, -13, -22, -13, -7, 0, -20, -48, 
-103, 20, 12, -28, 15, -43, -86, -81, -43, 50, 
97, 123, 113, 9, -27, 13, -44, -109, -124, -85, 
14, 89, 158, 185, 72, 14, 49, -48, -162, -262, 
-255, -196, -58, 33, 172, 99, 43, 93, 17, -95, 
-225, -309, -277, -165, -24, 150, 131, 89, 164, 120, 
33, -108, -249, -296, -230, -98, 68, 110, 88, 206, 
166, 110, 26, -115, -219, -233, -160, 12, 84, 52, 
193, 168, 161, 105, 7, -134, -184, -163, -47, 22, 
15, 166, 152, 170, 139, 94, -35, -129, -141, -72, 
-12, -34, 116, 135, 136, 117, 102, 18, -69, -105, 
-78, -6, -29, 119, 142, 138, 136, 126, 54, -7, 
-45, -32, -137, -152, -1, 39, 71, 82, 89, 64, 
19, -7, -28, -3, -11, -12, 2, -4, 16, 15, 
15, 21, 14, -6, 4, -18, -27, -23, -15, 19, 
40, 31, 8, 39, 17, 41, 12, -9, -87, -117, 
-146, -163, -154, -108, -67, -51, 55, 96, 162, 198, 
179, 141, 52, 5, -36, -44, -24, -59, -42, -7, 
58, 143, 237, 286, 288, 225, 157, 96, -96, -94, 
-167, -205, -243, -204, -140, -70, 9, 65, 71, -49, 
-17, -70, -91, -159, -194, -264, -273, -243, -171, -129, 
71, 93, 123, 157, 162, 158, 125, 85, 24, -15, 
-63, 16, 2, 30, 37, 44, 64, 78, 94, 90, 
65, 31, 17, -25, -22, -48, -57, -32, -13, -12, 
3, 18, 22, -5, -5, -18, -7, 6, 8, -4, 
-22, -11, 1, 15, -94, -62, -167, -88, -20, -12, 
25, 83, 115, 183, 96, -66, -16, -173, -89, -33, 
26, 43, 85, 92, 138, 53, -141, -93, -254, -158, 
-52, 31, 87, 135, 161, 214, 114, -124, -121, -288, 
-168, -39, 46, 108, 148, 184, 225, 111, -157, -133, 
-332, -203, -62, 31, 103, 167, 197, 243, 130, -139, 
-138, -340, -221, -74, 32, 113, 173, 206, 257, 151, 
-106, -114, -327, -236, -100, 20, 107, 149, 205, 272, 
168, -73, -73, -282, -244, -139, -29, 49, 126, 191, 
259, 158, -60, -38, -234, -206, -159, -70, 9, 97, 
155, 243, 177, -78, -24, -205, -177, -156, -96, -22, 
69, 130, 236, 164, -4, 36, -99, -82, -62, -58, 
-44, 30, 96, 187, 130, 109, -29, 126, 12, 15, 
-36, -63, -52, -31, -123, 31, 55, -63, 47, 5, 
11, -2, -14, -22, 23, -51, 71, 157, -9, 106, 
16, 16, -24, -38, -58, -40, -148, -32, 83, -42, 
97, 32, 21, 2, -17, -33, -16, -102, 17, 123, 
-37, 97, 33, 15, 1, -21, -52, -23, -115, -19, 
115, -44, 111, 34, 18, -2, -19, -44, -16, -123, 
-31, 95, -49, 90, 34, 23, -9, -1, -31, -23, 
-129, -27, 109, -27, 106, 47, 38, 5, -18, -19, 
-23, -130, -31, 66, -45, 91, 28, 27, 16, -19, 
-10, -31, -122, -27, 121, -22, 115, 36, 22, 1, 
-22, -24, -25, -133, -49, 66, -75, 104, 16, 28, 
12, -8, -30, -1, -128, -33, -38, -52, -5, 7, 
44, 96, 97, 56, 16, -20, -47, -49, -33, 9, 
22, 15, 32, 8, -26, -37, -63, -40, 3, -2, 
60, 75, 70, 57, 20, -33, -66, -71, -6, 21, 
8, 77, 75, 50, 17, -20, -73, -93, -47, 49, 
54, 32, 97, 37, 16, -21, -96, -123, -84, -19, 
67, 68, 37, 65, 1, -35, -110, -152, -133, -26, 
29, 84, 60, 5, 22, -8, -97, -146, -107, -38, 
30, 76, 88, 44, -31, -26, -76, -128, -91, -16, 
31, 46, 84, 66, 9, -56, -32, -64, -58, 17, 
18, 17, 55, 60, 18, -39, -36, -27, -31, -27, 
22, 4, 42, 71, 81, 25, -49, -22, 8, -3, 
27, 90, 58, 71, 45, 29, -61, -47, -64, -56, 
-116, -124, -115, -79, -76, -61, -31, -99, -5, -37, 
-34, -98, -110, -56, -79, -99, -102, -24, -56, 25, 
17, 29, -21, -47, -43, -62, -48, -26, 24, -31, 
27, 40, 63, 4, -94, -91, -23, 40, 67, 79, 
-37, 26, 37, 24, -46, -109, -51, 84, 148, 118, 
72, -50, -27, -8, -5, -50, -89, -19, 106, 101, 
40, -11, -85, -14, 18, 76, 50, -41, -26, 33, 
1, -43, -43, -77, -1, 34, 109, 85, -14, 26, 
58, 10, -40, -19, -78, 18, 35, 44, 28, -15, 
48, 117, 85, 52, 58, -28, 37, -6, -17, -7, 
1, 58, 95, 41, 9, 43, -42, 13, -18, -9, 
10, 20, 17, -14, -82, -92, -38, -85, 49, -174, 
120, 18, -119, 72, 42, -35, -84, 85, -29, 60, 
-97, 108, -100, 88, 6, -77, 153, -146, 74, -19, 
17, -125, 160, -225, 151, -4, -107, 147, -131, 7, 
25, 29, -156, 143, -92, 77, -22, -37, 39, -123, 
100, -40, 46, 25, -56, -38, 143, -31, -21, 75, 
-92, 55, -1, -6, -60, 41, -2, -4, -11, 77, 
-102, 39, -71, 47, 104, -161, 23, 90, -71, -28, 
127, -148, 49, 34, -6, 2, 91, -61, -21, 149, 
-101, 89, 37, -48, -27, 70, -72, 52, 11, -128, 
115, -14, -58, 29, 18, -106, 47, 39, -123, -48, 
25, -156, 105, -91, -59, 2, -101, -5, 3, 150, 
-110, 130, -4, -17, 94, 29, -22, 33, 40, 29, 
-58, 10, -27, 59, 55, -102, 86, -24, -12, -8, 
61, -112, 56, -39, -4, 120, -164, 120, -68, -9, 
23, 84, -168, 94, -53, -4, 148, -214, 192, -105, 
-33, 34, 116, -176, 137, -131, 49, 163, -245, 230, 
-127, -27, 53, 113, -183, 147, -212, 127, 142, -268, 
276, -127, -77, 83, 105, -165, 187, -275, 181, 138, 
-307, 300, -103, -124, 102, 87, -158, 178, -302, 173, 
162, -328, 276, -50, -182, 132, 72, -131, 182, -259, 
102, 236, -337, 194, 25, -200, 117, 64, -118, 134, 
-183, 20, 237, -267, 120, 76, -179, 89, 58, -84, 
82, -103, -31, 215, -184, 39, 90, -147, 46, 47, 
-64, 11, -37, -40, 155, -95, -13, 98, -67, -16, 
13, 41, 56, 89, 67, 49, 25, 10, 12, -10, 
26, -73, -25, -34, 21, 69, 112, 98, 71, 44, 
41, 43, -66, -53, -140, -129, -82, 14, 77, 82, 
72, 24, 38, -3, 11, -57, -99, -194, -221, -174, 
-84, -13, -21, -12, 2, 50, 58, 79, 25, -47, 
-121, -135, -91, -48, -36, 21, 0, 19, 58, 83, 
104, 72, 13, -23, -6, -27, 22, -14, -19, -13, 
-9, -2, 15, -1, -10, -20, -23, 8, -1, 4, 
-2, -7, -6, 8, 14, 2, -11, -25, 11, 4, 
14, 20, 5, 10, 12, 19, 7, 1, 6, 27, 
1, 3, 5, 16, 27, 33, 21, 35, 23, 15, 
-3, -8, -7, -5, -9, 5, -2, -8, -2, 21, 
21, -16, 11, -17, -16, -42, -40, 5, 12, -14, 
-1, 17, -5, 2, 7, 0, -7, 10, 17, -13, 
-24, 12, 8, 9, 1, -20, -21, -13, -6, -6, 
14, 17, 16, 18, 13, 2, -19, 19, 14, -18, 
11, 62, 11, -4, 2, 4, 4, -16, -5, -36, 
-17, 45, 35, -39, -18, -13, -35, -4, -10, -8, 
-33, 47, 70, -13, -47, -1, -17, -12, 1, -1, 
-23, -10, 93, 51, -30, -18, 1, 5, -16, 6, 
-17, -22, 38, 56, -13, -5, 0, -30, 32, -5, 
-2, -19, 16, 34, 10, -22, -14, -9, -7, 27, 
-17, -9, -3, 27, 31, -2, 3, -4, -20, -33, 
3, -1, -16, 3, 29, -8, -25, 0, -1, -16, 
7, 42, 121, 36, -88, -82, -76, 10, 12, 0, 
10, 23, 1, 30, 115, -25, -40, -80, -16, 30, 
-4, -24, -2, 17, -33, 161, 72, -42, -123, -95, 
27, 35, -5, -9, 13, -108, 82, 169, 51, -85, 
-109, -27, 18, 28, 15, 0, -91, -63, 209, 171, 
-76, -118, -42, 0, 0, 31, 10, -42, -167, 56, 
349, 16, -144, -51, -34, -48, 0, 18, 16, -116, 
-120, 295, 171, -114, -32, -36, -62, -30, 18, 25, 
-61, -206, 146, 218, -53, -20, 18, -39, -35, -11, 
24, 8, -195, 17, 196, 22, -24, 65, -5, -34, 
-27, 10, 52, -159, -73, 155, 77, -54, 27, 18, 
-20, -46, 4, 59, -110, -163, 29, 146, 18, -6, 
39, 24, -37, 21, 6, 9, 15, 20, 22, 11, 
-12, -34, -11, 8, -24, -18, -1, 12, 4, 1, 
-7, 1, 4, 0, -2, 22, 51, 48, 39, 12, 
-2, -19, -12, -16, -23, -23, -28, -28, -59, -102, 
-123, -117, -114, -109, -74, -35, 41, -68, -66, -95, 
-117, -92, -45, -4, 60, 131, 158, 158, -27, -50, 
-6, 54, 136, 212, 262, 254, 172, 90, -41, 38, 
47, 149, 214, 229, 159, 64, -40, -130, -147, -196, 
133, 95, 106, 31, -38, -136, -190, -192, -151, -100, 
-64, -13, -71, -122, -171, -190, -171, -139, -81, -35, 
20, 35, -14, -39, -13, 11, 44, 63, 91, 107, 
117, 101, 89, -21, -6, -4, -1, -2, 34, 23, 
27, 8, -9, 7, -7, 18, 4, 19, 9, 8, 
-4, 7, -8, -17, 20, -6, -12, -1, -1, -10, 
-21, -22, -24, -31, -16, -5, 1, -8, -18, -25, 
-24, -12, -16, -16, 18, 19, 48, -12, -35, -37, 
-30, -5, 12, 16, 21, 26, 44, 39, 0, 5, 
41, 63, 79, 80, 69, 60, 24, 20, -1, 7, 
44, 39, 42, 10, -9, -32, -34, -27, -13, -25, 
-25, -8, -60, -72, -63, -57, -41, -15, 14, -6, 
-26, -20, 15, 5, 37, 48, 35, 33, 20, 0, 
-20, -21, 26, 31, 15, 7, 1, 9, -4, -18, 
-23, -23, 0, 37, 1, -4, -7, -3, -25, -23, 
-14, -5, -2, 26, -16, -46, -38, -23, -17, -13, 
-11, 3, 17, 1, 5, -155, -139, -37, -41, -61, 
-57, -70, -66, -51, -30, -127, -192, -213, -117, -131, 
-125, -113, -110, -117, -91, -66, -178, 75, 14, 129, 
90, 84, 100, 93, 101, 114, 156, -3, -25, -78, 
41, 30, 13, 12, 13, 32, 33, 123, -25, -7, 
-55, 71, 60, 44, 52, 75, 56, 63, 145, 16, 
21, -43, 87, 61, 54, 70, 90, 86, 66, 150, 
33, 5, -45, 75, 45, 26, 56, 77, 55, 57, 
147, 22, -11, -28, 66, 50, 23, 32, 51, 70, 
76, 125, 10, -11, -26, 53, 30, 12, 11, 38, 
72, 74, 142, 18, 44, 45, 119, 116, 116, 113, 
119, 147, 144, 184, 28, -83, -99, -16, -39, -33, 
-28, -19, -20, -6, 16, -125, 50, -7, -60, -49, 
-26, 23, 138, 181, -116, -264, 108, -36, 72, 96, 
43, -95, -226, -201, 132, 395, 42, -230, -45, -74, 
11, 154, 213, 59, -259, -393, 38, 343, 0, 63, 
-47, -139, -98, 80, 291, 231, -170, -372, -9, 218, 
15, 97, -6, -158, -154, 4, 230, 213, -109, -242, 
43, -54, 36, 97, -10, -121, -102, 55, 179, 136, 
-96, -120, -29, -40, 146, 130, -128, -210, -86, 93, 
198, 75, -110, -24, -144, -56, 272, 235, -85, -244, 
-171, 67, 169, 27, 75, -21, -316, -149, 250, 288, 
75, -183, -193, 30, 60, 30, 207, 40, -290, -250, 
43, 219, 160, -67, -101, 16, -82, -44, 164, 194, 
-31, -165, -127, 22, 74, -10, -6, 1, -18, 1, 
-7, -17, -2, -6, 4, 0, 10, 6, -39, -25, 
-31, -44, -49, -38, -36, -25, -30, -6, -27, 1, 
-13, 5, 4, 4, 9, 4, 5, 3, 1, 13, 
-42, -27, -30, -41, -15, -34, -34, -24, -28, -30, 
-27, -1, -3, -4, -8, 2, -5, -8, 0, -1, 
-3, -1, -32, -11, 2, -19, -10, -23, -10, -13, 
4, -18, 14, -3, 3, -1, 9, 19, 22, 16, 
0, 18, 6, 11, -12, 5, -14, 2, -9, -13, 
2, -21, -4, -10, 7, 9, 37, 8, 20, -3, 
17, 24, 26, 25, 5, 31, -17, 16, -17, 11, 
6, 21, 9, 13, 2, -17, -4, 40, 58, 29, 
60, 42, 51, 57, 38, 50, 34, 81, -28, 7, 
4, 93, 96, -128, -80, 25, -14, 9, 13, -22, 
9, -46, 31, 141, -54, -117, 63, 3, -47, 47, 
-28, -11, -29, -13, 218, 28, -217, -17, 94, -65, 
22, -3, -17, -27, -121, 192, 260, -220, -164, 141, 
-4, -45, -1, -4, -13, -170, 13, 432, 6, -349, 
43, 121, -49, -15, 18, 47, -175, -211, 339, 344, 
-277, -184, 110, 11, -24, 27, 84, -78, -320, 44, 
457, 54, -274, -24, 41, -4, -26, 88, 40, -245, 
-203, 258, 295, -96, -145, 12, 39, -71, 29, 143, 
-78, -268, 12, 239, 115, -95, -59, 48, -39, -66, 
115, 49, -191, -106, 115, 144, 19, -71, 31, 38, 
-59, 13, 89, -89, -136, -36, 62, 84, 7, -59, 
-60, -22, -14, -13, -8, -36, -41, -8, -34, -95, 
-81, -70, -25, -13, -8, 5, -11, -12, 18, -1, 
-76, -44, -22, 21, 30, 36, 13, 18, 23, 51, 
39, 4, -44, -2, 47, 94, 70, 46, 75, 66, 
82, 50, 15, -58, -4, 57, 93, 55, 38, 78, 
104, 79, 34, -4, -57, -6, 13, 29, 15, 6, 
36, 60, 77, 12, -47, -59, -30, -9, 17, -18, 
-56, -33, -12, 33, -2, -81, -33, -38, 11, 46, 
10, -46, -38, -8, 28, -8, -78, -3, -20, 48, 
67, 27, -3, 6, 6, 39, 14, -55, -15, -2, 
61, 50, 20, -4, 23, 24, 32, 10, -42, -1, 
4, 45, 36, 10, -4, 4, 22, 18, 8, -26, 
-84, -116, -105, -91, -76, -45, -34, -13, 8, 47, 
29, -85, -113, -114, -82, -72, -37, -13, 14, 42, 
78, 45, -94, -118, -121, -110, -84, -45, -10, 6, 
30, 84, 70, -95, -136, -130, -90, -83, -31, -1, 
21, 48, 107, 75, -100, -121, -118, -82, -53, -8, 
14, 29, 41, 125, 81, -76, -122, -83, -67, -19, 
14, 50, 46, 71, 139, 91, -78, -114, -89, -57, 
-18, 21, 29, 45, 70, 142, 80, -64, -102, -62, 
-31, 17, 31, 41, 56, 85, 143, 99, -35, -61, 
-27, 0, 42, 56, 53, 86, 82, 156, 117, -47, 
-56, 6, 3, 39, 35, 71, 78, 100, 146, 111, 
-21, -29, 12, 20, 25, 36, 58, 83, 109, 146, 
108, -67, -56, -41, -31, -30, -33, -55, -34, -27, 
-31, -79, -72, -36, 18, 29, 46, 17, -16, -7, 
-8, -23, -54, -31, 19, 66, 103, 115, 76, 29, 
3, 2, -15, -53, -5, 61, 127, 173, 192, 139, 
65, 15, 11, -28, -58, 43, 128, 188, 205, 206, 
183, 111, 63, 27, -22, -57, 48, 140, 191, 208, 
184, 198, 157, 62, 34, -12, -51, 16, 121, 182, 
192, 181, 184, 128, 58, 20, -13, -55, -11, 54, 
106, 166, 174, 133, 68, 32, -1, -21, -58, -72, 
2, 44, 90, 91, 82, 35, -7, -10, -38, -78, 
-94, -45, -9, 10, 2, -3, -10, -22, -41, -30, 
-84, -103, -85, -65, -59, -44, -49, -56, -53, -49, 
-45, -91, -30, -41, -27, -56, -53, -57, -59, -55, 
-82, -43, -49, 48, 24, 42, 31, 47, 51, 50, 
51, 51, 58, 43, 65, 65, 79, 68, 101, 132, 
133, 124, 135, 100, 74, -62, -19, -19, -26, -35, 
-43, -80, -96, -88, -60, -55, -97, -95, -105, -117, 
-115, -95, -94, -74, -91, -84, -106, 3, -15, -30, 
-70, -109, -109, -110, -103, -73, -24, -37, 70, 51, 
76, 84, 108, 103, 98, 81, 91, 61, 58, 82, 
69, 117, 164, 228, 265, 283, 255, 212, 157, 151, 
-41, -66, -86, -122, -178, -222, -243, -201, -174, -111, 
-57, 4, 2, -7, -10, -11, -8, -13, -6, -2, 
-5, -11, -27, -7, -11, -5, 15, 18, 23, 19, 
9, 7, -19, -19, 26, -45, 59, 108, 90, 48, 
-6, -61, -126, 10, -25, 4, -77, 4, 55, 60, 
14, -8, -45, -104, -2, -15, -2, -92, 13, 99, 
134, 54, -17, -33, -112, -8, -14, -1, -81, -9, 
66, 129, 77, -28, -42, -114, -20, -24, -19, -100, 
-13, 33, 136, 111, 9, -51, -110, -24, 4, -18, 
-115, -20, 27, 128, 138, 29, -28, -136, -19, 17, 
-31, -146, -21, 20, 128, 135, 38, -31, -133, -18, 
13, -21, -125, -48, 12, 103, 139, 50, -11, -127, 
-23, 23, -10, -106, -34, -6, 88, 127, 68, 1, 
-100, -12, 49, 13, -87, -29, 13, 81, 94, 53, 
17, -78, -14, 38, 5, -125, -51, 22, 66, 68, 
50, 39, -61, -15, -4, 7, -54, 85, 121, -60, 
-124, -14, 45, -15, -3, -6, 4, -82, 56, 109, 
-59, -93, 41, 50, -16, -14, -9, 23, -104, 117, 
191, -141, -149, 67, 58, -16, 3, -10, 6, -118, 
134, 194, -215, -117, 107, 44, -19, 1, -17, 28, 
-125, 160, 190, -299, -97, 155, 12, -38, 9, -26, 
12, -113, 207, 155, -336, -44, 187, -16, -35, 13, 
-26, 2, -88, 221, 107, -340, 9, 160, -27, -12, 
14, -24, -9, -64, 205, 34, -292, 28, 110, -16, 
-9, -17, -7, 4, -29, 177, -24, -217, 42, 105, 
-13, -11, -7, -22, -8, -10, 128, -43, -142, 22, 
66, -10, -14, 0, 4, 21, 11, 98, -45, -109, 
3, 59, -4, -11, 4, -15, -28, -5, 6, 7, 
-3, -12, -20, -19, -2, -10, 24, 25, -22, -47, 
-44, -12, 19, 31, 39, 40, 3, -10, 13, 45, 
53, 28, -1, -17, -42, -43, -33, -20, -46, 3, 
37, 95, 124, 128, 82, 46, -1, -10, 1, -2, 
-103, -251, -342, -368, -300, -189, -68, 24, 36, 2, 
138, 202, 333, 417, 384, 301, 173, 71, 4, -6, 
-10, -115, -108, -84, -63, -37, -23, -14, -10, -12, 
-14, 9, -39, -147, -287, -393, -402, -310, -165, -62, 
-4, 16, -1, 150, 264, 425, 514, 496, 381, 235, 
90, 30, 3, -8, -81, -167, -222, -260, -224, -170, 
-130, -60, 5, 11, 37, 1, 31, 39, 27, 0, 
13, 35, -1, 0, -17, -25, 60, 16, 43, 13, 
39, 52, 33, 20, 17, -10, 27, -9, -41, -9, 
-55, -35, -19, -28, -29, 0, 5, -42, 52, -24, 
-35, -87, -48, 5, 31, 46, 48, 20, 1, 76, 
-22, -28, -39, 49, 75, 101, 63, 10, -15, -20, 
26, -8, 104, 139, 139, 74, -7, -42, -38, -54, 
-69, -29, -9, 127, 107, 55, -20, -76, -43, -15, 
-44, -78, 23, -43, 24, 3, -14, -44, 26, 22, 
0, -46, -48, 68, -14, 47, 17, -24, -36, -25, 
-50, -39, -27, -13, 78, 68, 116, 61, 14, -20, 
-62, -78, -58, -36, -15, 13, 19, 39, 13, -19, 
-13, -13, -53, -42, -33, -34, 17, -11, 5, -17, 
-21, -18, 0, -21, -14, -58, -36, -16, 25, -52, 
100, -95, 48, 32, -14, -22, -5, 18, -28, 28, 
-89, 139, -121, 20, 64, -50, 6, -24, 0, -5, 
33, -103, 203, -181, 25, 149, -106, 0, 33, 15, 
-1, 6, -115, 245, -211, -11, 251, -194, -27, 84, 
-28, 28, -26, -83, 262, -259, -11, 301, -233, -50, 
135, -62, 51, -85, -56, 250, -289, 27, 312, -228, 
-72, 188, -96, 43, -71, -52, 238, -296, 68, 268, 
-238, -88, 210, -101, 13, -17, -68, 246, -302, 105, 
212, -194, -75, 199, -94, 0, 6, -92, 234, -298, 
129, 156, -171, -39, 119, -65, -19, 34, -92, 182, 
-239, 115, 115, -137, -17, 63, -34, -37, 47, -61, 
109, -153, 97, 82, -94, -8, 16, 3, 17, 50, 
48, -106, -99, 26, 75, 18, -40, 25, -16, -21, 
19, 81, -83, -78, 47, 62, -18, -46, 31, -13, 
4, 20, 114, -84, -139, 69, 96, -22, -53, 36, 
-4, -14, 1, 124, -51, -186, 71, 120, -42, -80, 
38, 12, -16, -3, 133, -18, -230, 60, 157, -19, 
-85, 29, 23, -24, -17, 127, 37, -226, 1, 138, 
1, -79, 15, 25, -21, -38, 132, 51, -193, -42, 
138, 13, -46, 10, 17, -32, -32, 97, 57, -163, 
-74, 111, 8, -57, 2, 7, -17, -12, 94, 54, 
-131, -70, 118, 36, -41, 4, 17, -28, -8, 73, 
32, -100, -78, 77, 33, -41, -6, 2, -3, 12, 
82, 37, -79, -92, 45, 42, -13, 10, -7, 14, 
9, 44, 43, -23, -48, -31, 3, -7, 15, -3, 
34, 14, 16, 7, -40, -40, -27, -3, 2, 26, 
5, 23, 14, 17, 35, -6, -29, -36, 6, 4, 
27, 1, 9, -8, 2, 31, -33, -50, -37, 3, 
4, 23, 13, 9, -11, 7, 50, -49, -66, -20, 
15, 16, 19, 1, 16, 8, 20, 47, -50, -62, 
-12, 29, 12, 31, 13, 2, -5, 17, 42, -47, 
-51, -12, 13, 12, 17, 11, 4, 3, 15, 31, 
-45, -38, -24, -9, 5, 11, -6, 3, 4, 31, 
2, -54, -35, -19, 5, -5, 13, -1, 21, 28, 
15, -6, -54, -13, 0, 16, 24, 15, 3, 5, 
43, 34, 1, -25, -25, -19, -16, 12, 40, 9, 
2, 6, 91, -88, -24, -11, 10, -64, -10, 24, 
18, -28, 26, 121, -83, -30, -6, -11, -70, 17, 
22, 16, -10, 31, 127, -101, -3, 40, -14, -68, 
41, 51, 22, -19, 41, 124, -123, -24, 25, -44, 
-68, 51, 43, -1, -23, 62, 120, -154, -29, 54, 
-36, -67, 64, 50, -4, -9, 65, 95, -189, 12, 
59, -76, -75, 90, 52, -29, -4, 55, 61, -176, 
92, 44, -114, -60, 102, 56, -47, 8, 40, 18, 
-162, 130, -7, -139, -41, 115, 38, -48, 31, 22, 
3, -103, 155, -41, -110, 19, 107, 40, -42, 43, 
-17, -24, -85, 103, -66, -93, 0, 72, 30, -38, 
43, -37, -32, -24, 99, -75, -88, -14, 77, 32, 
-8, 5, 39, -14, -20, -19, -16, 8, -17, 26, 
-6, 1, 48, 80, 33, 20, 18, 29, 37, -1, 
38, 30, 53, 26, 28, -21, -43, -26, -8, 3, 
-35, -4, 23, 22, 23, 3, -39, -49, -65, -29, 
-17, -24, 24, 20, 18, -1, -61, -115, -8, -62, 
-80, -20, 4, 26, 24, 19, -46, -86, 21, 396, 
124, -69, -27, 2, 27, 15, -14, -62, -105, 92, 
595, 188, -124, -87, -38, 27, 28, 13, -46, -145, 
-184, 16, -105, -132, -68, -22, 27, 45, 20, 9, 
-54, -172, -141, -132, -57, 11, 11, 50, 42, 41, 
22, 11, -68, -78, -57, 23, 70, 44, 66, 90, 
79, 7, 31, -44, -28, -19, 19, 35, 23, 57, 
64, 56, 11, 43, 90, 45, -61, -121, -125, -81, 
-15, 18, 4, 20, 44, 82, 30, -45, -59, -36, 
11, 20, 37, 10, 46, 50, 102, -15, -141, -116, 
-53, -12, 17, 61, 10, 71, 93, 122, -59, -201, 
-97, 18, 19, 38, 50, 13, 86, 97, 91, -148, 
-242, -63, 53, 47, 39, 43, -6, 129, 98, 40, 
-193, -211, 1, 76, 63, 31, 48, -14, 132, 70, 
-32, -202, -140, 40, 68, 29, 14, 42, -27, 129, 
36, -70, -159, -83, 38, 28, 15, 15, 22, -41, 
128, 8, -83, -119, -31, 50, 23, 22, 37, 16, 
-26, 133, -15, -62, -68, -34, 27, 18, 16, 13, 
7, -29, 70, -73, -69, -72, 1, 69, 37, 19, 
25, 40, 0, 30, 9, -20, 2, 11, -71, 61, 
59, -132, 58, 41, 36, -58, -15, 63, -53, -64, 
100, -45, -103, 128, -27, 22, -55, 43, 68, -140, 
24, 185, -177, -54, 187, -77, -26, 14, 73, -40, 
-138, 146, 90, -268, 108, 149, -101, -70, 119, -25, 
-114, 0, 208, -75, -251, 250, 41, -91, -3, 72, 
-102, -33, 81, 148, -226, -147, 381, -83, -57, 68, 
-81, -13, 38, 13, 111, -336, 91, 426, -299, -22, 
18, -91, 77, -32, 61, -41, -290, 390, 132, -390, 
135, -31, 1, 39, -70, 134, -221, -13, 464, -258, 
-195, 172, -33, 35, -42, 2, 33, -198, 229, 174, 
-395, 91, 33, 17, -7, -23, 64, -44, 21, 215, 
-148, -208, 213, -95, 17, -18, -5, 39, 30, -68, 
-3, 19, 12, -30, -22, -2, -13, -29, 22, 59, 
-36, -7, 46, 25, -60, -8, 10, -5, -39, -1, 
110, -12, -98, 34, 74, -54, 4, 8, -12, -43, 
-25, 116, 46, -137, 28, 121, -98, -2, 9, -1, 
-43, -63, 95, 117, -171, -37, 185, -106, -17, 19, 
-5, -15, -79, 64, 213, -168, -101, 229, -94, -25, 
5, 2, -18, -77, 1, 245, -104, -207, 204, -43, 
-34, 12, 1, -12, -58, -25, 220, -30, -234, 144, 
3, -31, 9, 9, 2, -42, -47, 166, 24, -195, 
55, 25, -3, 1, -1, -7, -21, -43, 105, 50, 
-132, 14, 45, -5, 12, -12, -20, -9, 21, 115, 
51, -117, -51, 42, 5, -41, -92, 61, 56, 19, 
38, 58, 23, 28, 98, -81, -8, -78, 42, 81, 
16, -12, 29, 28, 2, 23, -81, 59, 32, 132, 
142, 59, 57, 115, 151, 94, 88, 36, -5, 13, 
131, 99, 72, 84, 86, 137, 99, 95, 58, -9, 
-7, 112, 30, 52, 70, 47, 109, 142, 72, 71, 
2, 20, 106, 36, 38, 75, 45, 56, 117, 45, 
76, -26, -2, 47, 50, 105, 110, 88, 60, 84, 
28, 39, -10, -4, 8, 40, 91, 99, 56, 37, 
104, 63, 36, -8, 31, 48, 65, 38, 48, 76, 
53, 98, 57, 64, -36, 25, 35, 57, 30, -7, 
53, 48, 84, 63, 30, -62, -8, -13, -3, -26, 
-31, 35, -11, 36, 25, -31, -32, 23, -41, 1, 
19, 6, -2, 4, -13, -27, -18, -14, 50, 6, 
37, 43, 20, -5, 5, 32, 0, 20, -46, 37, 
-39, -6, 1, -4, -21, -25, 12, -39, -39, -25, 
60, -37, 15, 28, 28, 11, -8, 6, -30, -34, 
-14, 47, -63, -10, 6, -3, -18, -27, -24, -34, 
-43, 10, 51, -53, -13, 2, 3, -26, -25, -1, 
-42, -27, 20, 65, -37, 2, -22, -7, -18, -2, 
22, -31, -14, 4, 93, -49, -15, -32, -11, 1, 
34, 40, -5, 12, 15, 118, -14, 3, -13, 4, 
27, 50, 77, 38, 23, -37, 65, -74, -25, -45, 
-51, -26, 2, 22, -21, -3, 21, 97, 23, 74, 
54, 50, 32, 47, 63, 19, 48, 130, 87, 95, 
97, 117, 144, 138, 133, 109, 99, 147, 63, 25, 
32, 16, 44, 70, 78, 50, 49, 67, 89, 98, 
25, 2, -14, -37, -36, -54, -33, -8, 16, 96, 
117, 31, 6, -54, -150, -186, -189, -152, -75, -21, 
102, 136, 63, -15, -87, -250, -382, -387, -297, -186, 
-47, 113, 161, 94, -4, -97, -279, -454, -497, -414, 
-253, -95, 113, 137, 60, 0, -71, -238, -390, -427, 
-381, -250, -121, 80, 133, 62, 19, -16, -134, -237, 
-299, -253, -186, -104, 54, 133, 49, 10, -16, -51, 
-104, -128, -132, -117, -62, 35, 120, 44, 23, 11, 
-4, -12, -33, -49, -70, -42, 36, 143, 99, 105, 
103, 95, 100, 107, 101, 79, 60, 92, -45, -64, 
219, 284, 339, 327, 198, 121, 82, 33, 35, -25, 
-50, 209, 241, 236, 177, 76, 23, -22, -75, -64, 
93, 99, 340, 286, 211, 148, 70, 12, -23, -81, 
-94, 109, 110, 297, 215, 122, 69, 29, -29, -70, 
-139, -119, 158, 95, 261, 136, 46, 13, 15, -60, 
-137, -182, -116, 114, 54, 216, 83, 14, -19, -57, 
-118, -169, -229, -122, 89, 53, 165, 63, -5, -51, 
-93, -134, -179, -206, -103, 96, 25, 135, 19, -58, 
-100, -152, -174, -172, -185, -59, 91, 30, 87, -32, 
-81, -141, -181, -177, -165, -170, -39, 23, -47, 10, 
-106, -164, -229, -246, -232, -188, -196, -50, 15, -25, 
16, -65, -133, -157, -151, -111, -50, -47, 125, 10, 
7, 20, 0, -12, 33, 4, 35, 40, 28, 21, 
-2, -13, 2, -13, 8, 53, 0, 28, 39, 17, 
-7, -6, -31, 3, 5, 53, 73, -114, -35, 82, 
37, 20, -9, -22, 12, -5, 12, -121, -621, -353, 
53, 30, -13, 27, -21, 27, 51, 89, -39, -476, 
-202, 128, 70, 30, 10, -49, 6, 57, 115, 146, 
2, 88, 138, 36, -13, 1, -43, -23, 14, 93, 
130, 48, 85, 78, -13, -27, -8, -16, 1, 0, 
43, 76, 15, 47, 42, -17, -33, 3, -3, 4, 
-12, 2, 44, 23, 23, 10, -16, -10, 20, -1, 
3, -31, -28, 15, 30, -28, -20, 0, -10, 0, 
-28, -20, -13, -10, 27, 38, 2, -16, -8, -34, 
-77, -64, 55, 19, -3, -28, -34, 0, 17, 40, 
-109, -45, -39, 39, -1, -34, -65, -86, -76, -71, 
-56, -147, 38, 41, 199, 153, 132, 125, 103, 111, 
93, 92, -27, 38, 5, 142, 161, 161, 107, 103, 
98, 78, 88, -95, 7, 1, 114, 139, 120, 104, 
93, 93, 58, 68, -112, -11, -36, 94, 89, 112, 
126, 91, 66, 38, 53, -111, -29, -67, 81, 50, 
42, 65, 40, 57, 55, 58, -91, -37, -60, 37, 
25, 9, 37, 24, 19, 35, 67, -67, -12, -59, 
52, 4, 15, -15, 8, 30, 26, 48, -62, 23, 
-28, 75, 55, 30, 7, 46, 49, 43, 80, -17, 
-84, -134, -33, -66, -67, -49, -44, -58, -61, -16, 
-158, 27, -34, 15, 33, -27, -52, 28, 58, -52, 
-19, 30, -12, 4, 32, -21, -72, 38, 66, -39, 
-83, 43, 24, -29, 37, 18, -62, 8, 104, -5, 
-136, -6, 97, 2, 27, 31, -83, -34, 118, 62, 
-141, -106, 126, 81, -38, 45, -72, -65, 126, 156, 
-99, -244, 26, 215, 14, -92, -34, -60, 84, 185, 
-44, -317, -102, 272, 186, -138, -66, -38, 50, 136, 
4, -287, -222, 243, 379, -92, -217, 43, -2, 76, 
6, -170, -215, 105, 431, 74, -323, -90, 102, 48, 
2, -72, -106, -10, 272, 217, -262, -203, 114, 35, 
-9, -64, -74, -6, 119, 198, -87, -253, 33, 105, 
-50, -16, 2, 34, 78, 84, -20, -187, -24, 97, 
-17, -13, 61, 48, 74, 35, 5, -4, -26, -30, 
-40, 2, -59, -12, -43, 7, 4, -13, -31, -48, 
-58, -55, -24, -98, 83, 76, 118, 140, 156, 171, 
165, 168, 123, 122, 50, -32, -11, 8, 63, 134, 
145, 155, 153, 121, 105, 6, -71, -69, -51, 14, 
91, 132, 150, 154, 119, 96, 7, -70, -59, -88, 
-27, 43, 102, 160, 144, 118, 96, 47, -56, -38, 
-119, -81, -37, 42, 119, 131, 127, 103, 90, -44, 
-28, -129, -138, -152, -115, -66, 2, 41, 73, 83, 
-11, 12, -126, -170, -231, -240, -217, -164, -75, -10, 
54, -11, 38, -66, -126, -233, -291, -290, -243, -148, 
-92, -2, 62, 134, 70, 44, -27, -84, -112, -96, 
-47, -27, 42, -80, -88, -147, -176, -174, -183, -170, 
-138, -122, -89, -81, -105, -102, -118, -129, -116, -109, 
-90, -41, 2, 27, 43, -48, -41, -54, -56, -29, 
2, 12, 64, 107, 108, 108, 27, 22, 42, 23, 
73, 107, 121, 120, 125, 118, 120, 114, 64, 96, 
111, 161, 165, 152, 128, 98, 62, 70, 128, 67, 
117, 126, 133, 99, 85, 73, 66, 48, 52, 100, 
41, 87, 74, 65, 30, 22, 19, 46, 55, 32, 
86, 33, 39, 42, 39, 14, -1, 7, 13, 11, 
-26, 35, 1, 3, -9, -33, -38, -50, -57, -64, 
-43, -80, -17, -28, -56, -75, -106, -96, -98, -100, 
-107, -82, -108, -48, -52, -89, -94, -98, -78, -88, 
-83, -44, -8, -22, -6, -26, -3, -31, -34, -33, 
-43, -42, -42, -52, -79, 36, -10, -1, -36, -28, 
-29, -35, -42, -45, -17, -30, -5, -41, -28, -43, 
-64, -85, -71, -87, -102, -105, -78, 24, -20, -17, 
-72, -88, -128, -145, -146, -159, -154, -105, 63, 23, 
17, -58, -114, -185, -233, -268, -259, -223, -156, 129, 
102, 109, 37, -46, -112, -177, -276, -313, -294, -230, 
175, 173, 194, 145, 52, -13, -83, -165, -245, -279, 
-225, 172, 192, 239, 221, 170, 104, 34, -34, -122, 
-168, -157, 153, 175, 229, 240, 246, 242, 187, 127, 
38, -40, -59, 154, 147, 174, 184, 212, 254, 254, 
218, 153, 63, 17, 123, 100, 102, 100, 112, 124, 
145, 133, 123, 87, 52, -22, 9, 23, 31, 7, 
26, 0, -10, 13, -16, -43, -29, -25, -1, -7, 
-5, 20, 13, 1, 16, -11, -36, -26, 10, 16, 
19, 36, 46, 30, 9, 5, -29, -33, -34, -14, 
28, 60, 78, 61, 40, -3, -1, -23, -21, -52, 
-5, 46, 92, 172, 171, 86, 3, -12, -24, -47, 
-76, -2, 12, 137, 399, 505, 259, 50, -6, -40, 
-59, -110, -96, -123, 42, 458, 648, 319, -20, -81, 
-84, -66, -84, -108, -169, -116, 126, 213, 59, -102, 
-73, -32, -15, -39, -55, -106, -179, -151, -111, -150, 
-136, -22, 5, 31, -47, -67, -71, -157, -183, -158, 
-136, -115, -52, -23, 4, -12, -44, -41, -101, -135, 
-106, -69, -40, -22, -5, 17, -30, -50, 15, -54, 
-78, -18, 9, -16, -13, 40, -10, -11, -28, 31, 
-41, -47, -21, -11, -38, -32, 16, -1, -14, -50, 
50, 6, 3, 10, 2, -18, -5, 62, 9, -59, 
-146, 3, 19, 20, -2, -7, -25, 1, 59, -8, 
-156, -286, -84, -13, -18, -4, -3, -3, 15, 66, 
-7, -204, -310, -84, -42, 6, 24, 18, 12, 26, 
86, 11, -134, -199, -28, -8, 20, 48, 2, -5, 
11, 73, 12, -37, -97, 34, -12, -5, 20, -1, 
-13, 5, 56, 5, 22, -23, 60, 5, -4, 21, 
25, 4, 10, 70, 10, 62, 14, 83, 26, 46, 
59, 36, 24, 31, 100, 34, 62, 33, 88, 50, 
53, 61, 41, 15, 29, 86, 33, -95, 64, -67, 
39, 52, 86, 101, 114, 98, 167, -34, -62, 50, 
-63, 9, -21, 2, 8, 41, 0, 74, -83, -167, 
14, -81, 3, -7, 38, 70, 83, 89, 174, 52, 
-155, 5, -133, -50, -24, 12, 45, 61, 62, 161, 
57, -146, 17, -148, -55, -20, 5, 29, 81, 85, 
135, 81, -157, -1, -158, -55, -4, 15, 27, 76, 
93, 148, 93, -176, -24, -137, -53, -30, 5, 19, 
70, 67, 106, 80, -155, -5, -160, -61, -48, -15, 
17, 69, 61, 113, 90, -124, 2, -142, -72, -47, 
-9, 19, 48, 33, 85, 65, -154, -8, -169, -77, 
-61, -24, 10, 31, 29, 86, 67, -17, 48, -146, 
-94, -73, -50, -27, -22, -31, 51, 9, 6, -5, 
3, -9, -13, -25, -22, -14, -26, -19, -15, 21, 
19, 25, 22, 8, 17, 12, 2, 5, 7, 15, 
16, 32, 50, 50, 43, 53, 52, 37, 29, 30, 
62, -33, -33, -24, 9, 28, 45, 30, 49, 37, 
36, 37, -19, -52, -76, -84, -79, -40, -21, 15, 
17, 20, 8, 44, 52, 21, -31, -79, -99, -102, 
-64, -15, 1, 32, -4, 44, 71, 103, 94, 62, 
-6, -66, -94, -82, -13, -40, -24, -44, -12, 25, 
106, 148, 145, 58, -17, -21, 3, -1, -32, -79, 
-154, -195, -128, -47, 16, 33, 11, -6, 19, 38, 
70, 51, 2, -102, -142, -152, -119, -109, 1, -54, 
-54, -36, 16, 72, 117, 127, 104, 87, 78, 349, 
423, 330, 227, 69, -19, -76, -53, -48, -51, -11, 
349, 366, 170, -24, -208, -252, -230, -155, -96, -79, 
-26, 198, 120, -200, -420, -506, -461, -311, -143, -54, 
-4, 45, 25, -128, -468, -630, -616, -415, -170, -13, 
68, 78, 91, -143, -323, -565, -569, -397, -133, 76, 
177, 207, 163, 114, -181, -328, -443, -323, -70, 180, 
318, 345, 266, 180, 90, -156, -222, -213, -25, 183, 
350, 399, 326, 240, 142, 28, -44, -48, -3, 132, 
310, 402, 369, 254, 157, 63, -2, 28, 33, 91, 
202, 315, 333, 260, 121, 27, -18, -94, 61, 44, 
93, 192, 245, 225, 140, 22, -81, -125, -127, 49, 
25, 59, 98, 101, 87, -5, -117, -191, -181, -161, 
-7, 2, 18, 41, 54, 32, 36, 39, 1, 30, 
-44, 27, 6, -5, 6, -11, -22, -19, -21, -38, 
8, -13, 49, -18, -6, -7, 33, 16, 26, 29, 
-16, -7, -22, 56, 1, 11, -46, 3, 30, 29, 
37, -23, -30, -45, 26, -21, 35, -24, -64, -12, 
37, 40, -7, -10, -38, 25, -40, -3, 14, -47, 
-88, 14, 43, 5, -10, -13, 44, -20, -26, 13, 
17, -65, -10, 28, 16, -13, 3, 28, -11, -23, 
-3, 30, -36, -42, 5, 25, 4, 8, 8, -16, 
-10, -18, 17, -19, -19, -4, 6, 21, 13, 34, 
3, -11, -32, -27, -26, -16, -40, -5, 6, 26, 
1, 9, 22, 6, -4, 10, 41, 8, -26, 1, 
8, 17, -15, -4, 7, -10, 3, 25, -6, -4, 
26, 7, -32, -48, -51, -27, -27, -25, -25, -48, 
-56, -9, -10, 42, 2, 10, 14, 13, 22, 24, 
16, 14, 50, 29, -39, -44, -28, -28, -36, -44, 
-31, -33, -12, 16, -14, -19, -29, -17, -4, -23, 
-15, -14, -39, -13, 35, 0, -12, -9, -13, -10, 
-17, -8, 0, -40, -40, 24, -13, -2, 1, -5, 
2, -19, -3, 11, -18, -42, 21, 10, -8, -9, 
-16, -8, -29, -23, -4, -10, -26, 9, -10, -2, 
-35, -25, -18, -39, -20, -9, -3, -19, 20, 2, 
29, -9, 9, 3, 18, 28, 37, 30, 21, 60, 
57, -6, -30, -19, -26, -28, -20, -23, -47, -29, 
48, 54, 52, 120, -67, 4, 17, 41, 40, 45, 
27, -52, 204, 85, 176, 15, 97, 108, 126, 131, 
131, 97, -1, 216, -101, -11, -246, -181, -182, -151, 
-127, -109, -115, -206, 21, 3, 60, -220, -200, -220, 
-146, -68, 4, -7, -95, 90, 45, 89, -228, -272, 
-266, -195, -108, -3, -5, -85, 129, 41, 100, -204, 
-225, -246, -189, -139, -40, -27, -81, 115, 25, 119, 
-154, -144, -172, -145, -104, -17, 9, -88, 114, 18, 
99, -127, -88, -87, -69, -35, 6, 19, -97, 124, 
25, 103, -115, -22, -23, -6, -32, -9, -21, -120, 
94, -55, 26, -199, -110, -46, -51, -79, -93, -99, 
-189, 28, 199, 244, 36, 118, 162, 148, 132, 119, 
90, 22, 248, -51, -76, 83, 67, 90, 96, 86, 
41, 40, 65, -79, -68, -140, 18, 11, 34, 30, 
22, -7, -11, 5, -133, -26, -69, 105, 93, 88, 
115, 101, 74, 57, 54, -91, -19, -52, 94, 62, 
43, 56, 68, 44, 33, 50, -95, -13, -25, 105, 
48, 43, 47, 56, 26, 15, 47, -67, 33, -1, 
139, 83, 87, 105, 75, 29, -16, 34, -86, 20, 
-15, 123, 90, 87, 76, 21, -17, -9, 38, -83, 
-13, -57, 93, 48, 20, -10, -55, -48, -23, 39, 
-98, 7, -58, 64, 35, 10, -43, -65, -30, 15, 
50, -65, 51, -28, 112, 77, 50, 15, -2, 40, 
77, 116, -15, -64, -119, -54, -91, -88, -110, -111, 
-67, -56, -43, -137, -3, -1, -41, -23, 14, -34, 
-6, -26, -29, -4, -6, -20, 14, 77, 71, 24, 
45, 49, 53, 80, 14, -32, -4, -94, -97, -125, 
-139, -124, -133, -173, -157, -106, -2, 38, 30, 112, 
88, 108, 134, 193, 222, 232, 191, 112, 50, 75, 
128, 119, 97, 82, 26, -103, -125, -139, -98, -61, 
-242, -282, -307, -344, -325, -278, -202, -76, -32, 8, 
97, 141, 276, 333, 342, 377, 397, 307, 274, 150, 
59, -14, -60, -90, -152, -169, -206, -219, -234, -231, 
-169, -60, 25, -57, -25, -40, -55, -27, 3, 42, 
100, 79, 37, -23, 8, 101, 96, 100, 121, 98, 
26, 1, -25, -47, 31, -19, -43, -48, -43, -73, 
-41, -24, -11, 27, 32, 34, 24, -27, -52, -62, 
-13, 24, 58, 78, 60, -17, -44, -78, -87, -14, 
92, 144, 122, 47, -38, -119, -92, -54, -32, 103, 
186, 170, 49, -106, -162, -126, -68, 53, 55, 120, 
171, 78, -109, -252, -196, -68, 34, 70, 85, 131, 
75, -57, -225, -252, -88, 66, 80, 95, 53, -1, 
-9, -141, -227, -133, 58, 149, 118, 51, -5, -36, 
-58, -109, -76, 15, 155, 126, 63, -9, -21, -6, 
0, 3, -10, 77, 112, 47, -31, -24, -1, 10, 
0, 8, 6, 45, 34, -29, -31, -4, 27, 2, 
-12, -2, -5, -2, 0, -21, -1, 19, 35, -16, 
-45, -39, -23, -4, 11, 15, -6, 14, -14, -27, 
-17, 14, 9, 30, 22, 9, 111, 101, 143, 151, 
95, 72, 19, -12, -39, -81, -60, 116, 69, 102, 
110, 58, 26, 2, -24, -54, -91, -64, 128, 109, 
113, 84, 25, 3, -27, -32, -72, -81, -59, 163, 
126, 123, 74, 21, 13, -38, -44, -64, -87, -66, 
155, 105, 81, 48, 0, -16, -55, -59, -88, -103, 
-63, 156, 87, 72, 45, 3, -29, -34, -49, -82, 
-107, -66, 133, 85, 58, 22, -17, -33, -41, -62, 
-101, -112, -54, 128, 58, 36, 24, -29, -21, -56, 
-47, -97, -86, -27, 112, 49, 23, 15, -27, -55, 
-72, -104, -110, -98, -45, 66, 8, -8, -32, -50, 
-57, -78, -77, -87, -60, -5, 72, 8, 2, -28, 
-43, -40, -60, -60, -56, -24, -10, 6, -60, -55, 
-53, -30, -17, -27, 0, 45, 16, -3, 84, 0, 
-41, -80, -74, -4, 13, -22, -14, 8, 25, 93, 
18, 25, -77, -131, -137, -78, -40, -44, -42, 1, 
146, 103, 155, 88, -37, -147, -171, -107, -61, -56, 
-37, 31, 87, 187, 266, 245, 78, -109, -133, -108, 
-105, -112, -108, -9, 25, 157, 336, 409, 249, 75, 
-28, -46, -146, -134, -76, -119, -108, 0, 225, 327, 
266, 163, 103, -28, -112, -82, -111, -132, -140, -89, 
8, 110, 142, 125, 102, -38, -63, -66, -92, -104, 
-104, -78, -3, 40, 72, 94, 19, -10, -38, -57, 
-90, -78, -86, -65, -15, 27, 86, 32, 52, 42, 
6, -7, -17, -70, -86, -83, -51, -2, 80, 61, 
50, 59, 56, 60, 64, 55, 28, 42, 45, 48, 
12, -15, -16, 16, 3, -23, -24, -38, -20, 13, 
53, 32, 30, 41, 62, 70, 48, 30, -11, -18, 
-10, 19, -1, 14, -1, 36, 53, 29, 5, -29, 
-37, -14, 8, -8, -21, -28, -20, 9, -15, -18, 
-40, -28, 0, 28, -1, -35, -65, -49, -43, -47, 
-52, -68, -25, 10, 24, 35, -15, -48, -47, -38, 
-34, -44, -43, -26, 21, 32, 19, -9, -27, -25, 
-23, -14, -15, -36, -22, 24, 14, 8, -10, -11, 
-10, -18, -17, -35, -28, -21, 20, 18, 8, -22, 
-17, -3, -13, -14, -15, -13, -21, 11, 28, 32, 
-14, -16, 0, 12, 5, 10, -13, -8, 14, 65, 
55, 64, 96, 104, 127, 114, 130, 125, 76, 116, 
29, -13, 33, 59, 65, 77, 90, 85, 80, 72, 
75, 34, 46, 66, 100, 119, 125, 160, 132, 156, 
141, 130, 7, 11, 32, 51, 89, 86, 117, 114, 
111, 100, 105, -30, -29, -34, 6, 25, 29, 67, 
45, 55, 53, 58, -35, -34, -47, -20, -2, 1, 
26, 8, 35, 32, 15, -60, -49, -62, -62, -58, 
-32, -29, -32, -20, 3, -5, -68, -64, -77, -94, 
-103, -86, -64, -76, -53, -41, -34, -64, -63, -110, 
-121, -151, -148, -126, -115, -96, -70, -70, -46, -45, 
-90, -114, -130, -154, -160, -152, -130, -104, -101, -4, 
13, -12, -33, -42, -58, -67, -78, -61, -45, -73, 
-13, 5, -5, -4, -6, 33, -14, -75, 20, 13, 
-51, -20, -11, -35, -62, -97, -3, 186, 90, -92, 
-92, -31, -48, -79, -25, 111, 202, 14, -209, -127, 
25, 148, 101, -23, 93, 79, 11, -26, -97, -150, 
49, 102, 35, 30, 65, 103, 40, -130, -328, -39, 
369, 310, -17, -218, -115, 31, -123, -142, 109, 263, 
179, -182, -297, 45, 217, 56, -87, -7, 66, 29, 
103, 20, -98, -85, -69, 81, 42, -43, 79, 92, 
-87, -190, -79, 292, 354, -38, -216, -82, 13, -34, 
-51, 52, 54, 35, -128, -138, 106, 103, -17, 44, 
-19, 5, 65, 45, 27, -72, -98, -27, 57, 72, 
-36, -16, 15, -74, -36, -34, 51, 93, -16, -63, 
-6, -6, -2, 4, 11, 0, 8, 4, 13, 10, 
5, 6, 10, 2, -2, 7, 0, -19, -2, -5, 
7, 1, -6, -1, 4, -8, -11, -8, -20, -21, 
-25, 3, 15, -8, 0, 11, -5, 4, -8, 6, 
-8, -8, 1, 26, 15, 23, 14, 36, 25, 36, 
31, 26, 10, 21, 28, 11, 5, 2, 5, 16, 
4, 10, -2, -9, -13, -16, -14, -37, -64, -58, 
-72, -76, -81, -98, -69, -46, -19, -1, -12, -68, 
-52, -73, -85, -69, -37, -1, 30, 38, 64, 45, 
1, 62, 69, 91, 116, 141, 128, 77, 45, 57, 
103, 77, 112, 93, 81, 60, 50, 15, 5, 11, 
14, -91, -75, -95, -93, -75, -99, -118, -95, -68, 
-40, -50, -140, -81, -218, -192, -205, -192, -192, -165, 
-140, -155, -65, 16, 53, -19, 38, 7, 13, 32, 
31, 50, 20, 80, -175, -91, -179, -139, -162, -152, 
-151, -172, -148, -137, -122, -69, 7, -68, -45, -50, 
-52, -63, -64, -44, -36, -43, -34, 6, -38, -30, 
-32, -25, -20, -18, -16, -23, -44, 31, 18, -17, 
21, 4, 6, 9, 16, -7, 15, -29, 41, 27, 
47, 66, 25, 33, 1, 8, 15, 21, -6, 63, 
21, 61, 65, 72, 73, 54, 34, 32, 52, 17, 
53, 16, 72, 42, 42, 58, 52, 50, 45, 67, 
28, 135, 94, 166, 135, 156, 167, 161, 148, 146, 
159, 141, 4, -21, 81, 73, 91, 108, 106, 111, 
88, 129, 40, -108, 56, 134, -40, -85, 100, 44, 
-90, -40, 12, -3, 59, 109, -138, -136, 130, 6, 
-139, -18, 109, 19, -1, 106, -111, -172, 135, 62, 
-137, 12, 155, -44, -88, 54, 1, -114, 110, 109, 
-97, 17, 90, -44, -69, 75, 35, -105, -18, 94, 
89, 47, -43, -87, -77, 118, 88, -113, -103, 207, 
216, -72, -311, -172, 87, 163, 111, -117, -61, 166, 
88, -309, -460, -82, 458, 314, 18, -170, -161, 62, 
-2, -309, -279, 303, 695, 227, -314, -291, -125, 160, 
104, -187, 56, 403, 411, -182, -547, -256, 89, 250, 
105, -132, 88, 188, 52, -295, -414, 10, 349, 218, 
-48, -221, -44, 41, -78, -138, -36, 191, 169, -104, 
-198, -50, 103, 92
};
