unsigned score(int rel_timestamp, int hops, int size, bool prod_0, bool prod_1, bool prod_2, bool prod_3, bool prod_4, bool prod_5, bool cons_0, bool cons_1, bool cons_2, bool cons_3, bool cons_4, bool cons_6) {
    float var0;
    if (size >= 38) {
        if (rel_timestamp >= 65128) {
            if (rel_timestamp >= 333798) {
                if (hops >= 3) {
                    if (hops >= 4) {
                        if (hops >= 5) {
                            var0 = 144.48117;
                        } else {
                            var0 = 142.44856;
                        }
                    } else {
                        var0 = 140.28972;
                    }
                } else {
                    if (hops >= 2) {
                        var0 = 138.24951;
                    } else {
                        var0 = 136.08975;
                    }
                }
            } else {
                if (rel_timestamp >= 220046) {
                    var0 = 163.24286;
                } else {
                    if (hops >= 3) {
                        if (hops >= 4) {
                            var0 = 152.12074;
                        } else {
                            var0 = 149.61981;
                        }
                    } else {
                        if (hops >= 2) {
                            var0 = 147.52641;
                        } else {
                            var0 = 145.43237;
                        }
                    }
                }
            }
        } else {
            if (rel_timestamp >= 32967) {
                if (hops >= 3) {
                    var0 = 167.5427;
                } else {
                    var0 = 163.07904;
                }
            } else {
                if (hops >= 3) {
                    var0 = 191.82732;
                } else {
                    var0 = 187.3498;
                }
            }
        }
    } else {
        if (hops >= 3) {
            if (hops >= 4) {
                if (hops >= 5) {
                    var0 = 77.04147;
                } else {
                    var0 = 74.948685;
                }
            } else {
                var0 = 72.849655;
            }
        } else {
            if (hops >= 2) {
                var0 = 70.75166;
            } else {
                var0 = 68.65049;
            }
        }
    }
    float var1;
    if (size >= 38) {
        if (rel_timestamp >= 65128) {
            if (rel_timestamp >= 333798) {
                if (hops >= 3) {
                    if (hops >= 4) {
                        if (hops >= 5) {
                            var1 = 101.13941;
                        } else {
                            var1 = 99.71454;
                        }
                    } else {
                        var1 = 98.203186;
                    }
                } else {
                    if (hops >= 2) {
                        var1 = 96.77502;
                    } else {
                        var1 = 95.26309;
                    }
                }
            } else {
                if (rel_timestamp >= 220046) {
                    if (hops >= 3) {
                        var1 = 116.74195;
                    } else {
                        var1 = 112.30546;
                    }
                } else {
                    if (hops >= 3) {
                        if (hops >= 4) {
                            var1 = 106.49026;
                        } else {
                            var1 = 104.739006;
                        }
                    } else {
                        if (hops >= 2) {
                            var1 = 103.27325;
                        } else {
                            var1 = 101.80634;
                        }
                    }
                }
            }
        } else {
            if (rel_timestamp >= 32967) {
                if (hops >= 4) {
                    var1 = 118.586266;
                } else {
                    if (hops >= 2) {
                        var1 = 115.708115;
                    } else {
                        var1 = 113.21667;
                    }
                }
            } else {
                if (hops >= 3) {
                    var1 = 134.28601;
                } else {
                    var1 = 131.15016;
                }
            }
        }
    } else {
        if (hops >= 3) {
            if (hops >= 4) {
                if (hops >= 5) {
                    var1 = 53.930943;
                } else {
                    var1 = 52.464516;
                }
            } else {
                var1 = 50.99507;
            }
        } else {
            if (hops >= 2) {
                var1 = 49.526447;
            } else {
                var1 = 48.055565;
            }
        }
    }
    float var2;
    if (size >= 38) {
        if (rel_timestamp >= 65128) {
            if (rel_timestamp >= 333798) {
                if (hops >= 3) {
                    if (hops >= 4) {
                        if (hops >= 5) {
                            var2 = 70.79939;
                        } else {
                            var2 = 69.80055;
                        }
                    } else {
                        var2 = 68.74249;
                    }
                } else {
                    if (hops >= 2) {
                        var2 = 67.74276;
                    } else {
                        var2 = 66.68436;
                    }
                }
            } else {
                if (rel_timestamp >= 108464) {
                    if (hops >= 2) {
                        var2 = 81.07199;
                    } else {
                        var2 = 77.661964;
                    }
                } else {
                    if (hops >= 3) {
                        if (hops >= 5) {
                            var2 = 76.19774;
                        } else {
                            var2 = 73.677444;
                        }
                    } else {
                        if (hops >= 2) {
                            var2 = 72.29462;
                        } else {
                            var2 = 71.26702;
                        }
                    }
                }
            }
        } else {
            if (rel_timestamp >= 32967) {
                if (hops >= 3) {
                    var2 = 82.1659;
                } else {
                    var2 = 79.869896;
                }
            } else {
                if (hops >= 4) {
                    var2 = 95.264984;
                } else {
                    if (hops >= 2) {
                        var2 = 92.90215;
                    } else {
                        var2 = 90.902885;
                    }
                }
            }
        }
    } else {
        if (hops >= 3) {
            if (hops >= 4) {
                if (hops >= 5) {
                    var2 = 37.753002;
                } else {
                    var2 = 36.725464;
                }
            } else {
                var2 = 35.696766;
            }
        } else {
            if (hops >= 2) {
                var2 = 34.668716;
            } else {
                var2 = 33.639046;
            }
        }
    }
    float var3;
    if (size >= 38) {
        if (rel_timestamp >= 65128) {
            if (rel_timestamp >= 333798) {
                if (hops >= 3) {
                    if (hops >= 4) {
                        if (hops >= 5) {
                            var3 = 49.560833;
                        } else {
                            var3 = 48.860657;
                        }
                    } else {
                        var3 = 48.11993;
                    }
                } else {
                    if (hops >= 2) {
                        var3 = 47.4201;
                    } else {
                        var3 = 46.679184;
                    }
                }
            } else {
                if (rel_timestamp >= 220046) {
                    if (hops >= 4) {
                        var3 = 58.68859;
                    } else {
                        var3 = 55.308216;
                    }
                } else {
                    if (hops >= 3) {
                        if (hops >= 4) {
                            var3 = 52.302883;
                        } else {
                            var3 = 51.220203;
                        }
                    } else {
                        if (hops >= 2) {
                            var3 = 50.60857;
                        } else {
                            var3 = 49.888714;
                        }
                    }
                }
            }
        } else {
            if (rel_timestamp >= 32967) {
                if (hops >= 4) {
                    var3 = 58.37575;
                } else {
                    if (hops >= 2) {
                        var3 = 56.707382;
                    } else {
                        var3 = 55.300476;
                    }
                }
            } else {
                if (hops >= 4) {
                    var3 = 66.692665;
                } else {
                    if (hops >= 2) {
                        var3 = 65.0346;
                    } else {
                        var3 = 63.63662;
                    }
                }
            }
        }
    } else {
        if (hops >= 3) {
            if (hops >= 4) {
                if (hops >= 5) {
                    var3 = 26.428034;
                } else {
                    var3 = 25.708038;
                }
            } else {
                var3 = 24.987892;
            }
        } else {
            if (hops >= 2) {
                var3 = 24.26824;
            } else {
                var3 = 23.547438;
            }
        }
    }
    float var4;
    if (size >= 38) {
        if (rel_timestamp >= 65128) {
            if (rel_timestamp >= 333798) {
                if (hops >= 3) {
                    if (hops >= 4) {
                        if (hops >= 5) {
                            var4 = 34.693474;
                        } else {
                            var4 = 34.202644;
                        }
                    } else {
                        var4 = 33.684082;
                    }
                } else {
                    if (hops >= 2) {
                        var4 = 33.194195;
                    } else {
                        var4 = 32.67553;
                    }
                }
            } else {
                if (rel_timestamp >= 220046) {
                    if (hops >= 3) {
                        var4 = 40.37209;
                    } else {
                        var4 = 38.3115;
                    }
                } else {
                    if (hops >= 3) {
                        if (hops >= 5) {
                            var4 = 37.671688;
                        } else {
                            var4 = 36.07263;
                        }
                    } else {
                        if (hops >= 2) {
                            var4 = 35.42763;
                        } else {
                            var4 = 34.923367;
                        }
                    }
                }
            }
        } else {
            if (rel_timestamp >= 32967) {
                if (hops >= 4) {
                    if (hops >= 5) {
                        var4 = 42.508606;
                    } else {
                        var4 = 40.46991;
                    }
                } else {
                    if (hops >= 2) {
                        var4 = 39.697056;
                    } else {
                        var4 = 38.713135;
                    }
                }
            } else {
                if (hops >= 4) {
                    if (hops >= 5) {
                        var4 = 48.404133;
                    } else {
                        var4 = 46.27344;
                    }
                } else {
                    if (hops >= 2) {
                        var4 = 45.526382;
                    } else {
                        var4 = 44.548862;
                    }
                }
            }
        }
    } else {
        if (hops >= 3) {
            if (hops >= 4) {
                if (hops >= 5) {
                    var4 = 18.500278;
                } else {
                    var4 = 17.995777;
                }
            } else {
                var4 = 17.491629;
            }
        } else {
            if (hops >= 2) {
                if (rel_timestamp >= 323119) {
                    var4 = 16.580357;
                } else {
                    var4 = 16.998108;
                }
            } else {
                if (rel_timestamp >= 323955) {
                    var4 = 16.076197;
                } else {
                    if (rel_timestamp >= 293400) {
                        var4 = 16.645237;
                    } else {
                        var4 = 16.465939;
                    }
                }
            }
        }
    }
    float var5;
    if (size >= 38) {
        if (rel_timestamp >= 65128) {
            if (rel_timestamp >= 333798) {
                if (hops >= 3) {
                    if (hops >= 4) {
                        if (hops >= 5) {
                            var5 = 24.28605;
                        } else {
                            var5 = 23.941982;
                        }
                    } else {
                        var5 = 23.578953;
                    }
                } else {
                    if (hops >= 2) {
                        var5 = 23.236023;
                    } else {
                        var5 = 22.872934;
                    }
                }
            } else {
                if (rel_timestamp >= 331628) {
                    if (hops >= 4) {
                        var5 = 29.008238;
                    } else {
                        if (hops >= 2) {
                            var5 = 27.521877;
                        } else {
                            var5 = 26.365763;
                        }
                    }
                } else {
                    if (hops >= 4) {
                        if (hops >= 5) {
                            var5 = 26.37766;
                        } else {
                            var5 = 25.5403;
                        }
                    } else {
                        if (hops >= 2) {
                            var5 = 24.915712;
                        } else {
                            var5 = 24.491093;
                        }
                    }
                }
            }
        } else {
            if (rel_timestamp >= 32967) {
                if (hops >= 4) {
                    if (hops >= 5) {
                        var5 = 29.7729;
                    } else {
                        var5 = 28.332708;
                    }
                } else {
                    if (hops >= 2) {
                        var5 = 27.789267;
                    } else {
                        var5 = 27.101156;
                    }
                }
            } else {
                if (hops >= 4) {
                    if (hops >= 5) {
                        var5 = 33.902103;
                    } else {
                        var5 = 32.395714;
                    }
                } else {
                    if (hops >= 2) {
                        var5 = 31.86999;
                    } else {
                        var5 = 31.186453;
                    }
                }
            }
        }
    } else {
        if (hops >= 3) {
            if (hops >= 4) {
                if (hops >= 5) {
                    var5 = 12.950652;
                } else {
                    if (rel_timestamp >= 323133) {
                        var5 = 12.186318;
                    } else {
                        if (rel_timestamp >= 293427) {
                            var5 = 12.758322;
                        } else {
                            var5 = 12.580036;
                        }
                    }
                }
            } else {
                if (rel_timestamp >= 323073) {
                    var5 = 11.837796;
                } else {
                    if (rel_timestamp >= 293428) {
                        var5 = 12.393726;
                    } else {
                        var5 = 12.229622;
                    }
                }
            }
        } else {
            if (hops >= 2) {
                if (rel_timestamp >= 325848) {
                    var5 = 11.449153;
                } else {
                    if (rel_timestamp >= 293413) {
                        var5 = 12.0196705;
                    } else {
                        var5 = 11.872987;
                    }
                }
            } else {
                if (rel_timestamp >= 325841) {
                    var5 = 11.100779;
                } else {
                    if (rel_timestamp >= 159286) {
                        if (rel_timestamp >= 227127) {
                            var5 = 11.528548;
                        } else {
                            var5 = 11.6274;
                        }
                    } else {
                        var5 = 11.457524;
                    }
                }
            }
        }
    }
    float var6;
    if (size >= 38) {
        if (rel_timestamp >= 65128) {
            if (rel_timestamp >= 333798) {
                if (hops >= 3) {
                    if (hops >= 4) {
                        if (hops >= 5) {
                            var6 = 17.000671;
                        } else {
                            var6 = 16.759478;
                        }
                    } else {
                        var6 = 16.505331;
                    }
                } else {
                    if (hops >= 2) {
                        var6 = 16.265276;
                    } else {
                        var6 = 16.011103;
                    }
                }
            } else {
                if (rel_timestamp >= 220046) {
                    if (hops >= 4) {
                        var6 = 20.31685;
                    } else {
                        if (hops >= 2) {
                            var6 = 19.269901;
                        } else {
                            var6 = 18.561037;
                        }
                    }
                } else {
                    if (hops >= 3) {
                        if (hops >= 5) {
                            var6 = 18.4696;
                        } else {
                            var6 = 17.697725;
                        }
                    } else {
                        if (rel_timestamp >= 99434) {
                            var6 = 17.442099;
                        } else {
                            var6 = 17.138985;
                        }
                    }
                }
            }
        } else {
            if (rel_timestamp >= 32967) {
                if (hops >= 4) {
                    if (hops >= 5) {
                        var6 = 20.852848;
                    } else {
                        var6 = 19.835533;
                    }
                } else {
                    if (hops >= 2) {
                        var6 = 19.453407;
                    } else {
                        var6 = 18.972178;
                    }
                }
            } else {
                if (hops >= 4) {
                    if (hops >= 5) {
                        var6 = 23.744928;
                    } else {
                        var6 = 22.680021;
                    }
                } else {
                    if (hops >= 2) {
                        var6 = 22.310051;
                    } else {
                        var6 = 21.832094;
                    }
                }
            }
        }
    } else {
        if (hops >= 3) {
            if (hops >= 4) {
                if (hops >= 5) {
                    var6 = 9.065778;
                } else {
                    if (rel_timestamp >= 325862) {
                        var6 = 8.378985;
                    } else {
                        if (rel_timestamp >= 157964) {
                            var6 = 8.8487425;
                        } else {
                            var6 = 8.737886;
                        }
                    }
                }
            } else {
                if (rel_timestamp >= 325855) {
                    var6 = 8.136163;
                } else {
                    if (rel_timestamp >= 157962) {
                        if (rel_timestamp >= 227085) {
                            var6 = 8.562236;
                        } else {
                            var6 = 8.6520815;
                        }
                    } else {
                        if (cons_3 != 1) {
                            var6 = 8.326449;
                        } else {
                            var6 = 8.532691;
                        }
                    }
                }
            }
        } else {
            if (hops >= 2) {
                if (rel_timestamp >= 157913) {
                    if (rel_timestamp >= 214626) {
                        if (rel_timestamp >= 269960) {
                            var6 = 8.365594;
                        } else {
                            var6 = 8.251459;
                        }
                    } else {
                        if (cons_3 != 1) {
                            var6 = 8.589869;
                        } else {
                            var6 = 8.37592;
                        }
                    }
                } else {
                    if (cons_3 != 1) {
                        var6 = 8.077029;
                    } else {
                        var6 = 8.281041;
                    }
                }
            } else {
                if (rel_timestamp >= 323078) {
                    var6 = 7.8621993;
                } else {
                    if (rel_timestamp >= 293400) {
                        if (rel_timestamp >= 298950) {
                            var6 = 8.144839;
                        } else {
                            var6 = 8.34379;
                        }
                    } else {
                        if (rel_timestamp >= 227127) {
                            var6 = 8.010978;
                        } else {
                            var6 = 8.089682;
                        }
                    }
                }
            }
        }
    }
    float var7;
    if (size >= 38) {
        if (rel_timestamp >= 65128) {
            if (rel_timestamp >= 333798) {
                if (hops >= 3) {
                    if (hops >= 4) {
                        if (hops >= 5) {
                            var7 = 11.900774;
                        } else {
                            var7 = 11.731692;
                        }
                    } else {
                        var7 = 11.553774;
                    }
                } else {
                    if (hops >= 2) {
                        if (rel_timestamp >= 433395) {
                            var7 = 11.400452;
                        } else {
                            var7 = 11.303894;
                        }
                    } else {
                        var7 = 11.207803;
                    }
                }
            } else {
                if (rel_timestamp >= 220046) {
                    if (hops >= 5) {
                        var7 = 15.821953;
                    } else {
                        if (hops >= 2) {
                            var7 = 13.6009035;
                        } else {
                            var7 = 12.997378;
                        }
                    }
                } else {
                    if (hops >= 4) {
                        if (hops >= 5) {
                            var7 = 12.932386;
                        } else {
                            var7 = 12.570892;
                        }
                    } else {
                        if (hops >= 2) {
                            var7 = 12.209328;
                        } else {
                            var7 = 11.941068;
                        }
                    }
                }
            }
        } else {
            if (rel_timestamp >= 32967) {
                if (hops >= 4) {
                    if (hops >= 5) {
                        var7 = 14.6052685;
                    } else {
                        var7 = 13.886726;
                    }
                } else {
                    if (hops >= 2) {
                        var7 = 13.618027;
                    } else {
                        var7 = 13.281488;
                    }
                }
            } else {
                if (hops >= 4) {
                    if (hops >= 5) {
                        var7 = 16.630869;
                    } else {
                        var7 = 15.878133;
                    }
                } else {
                    if (hops >= 2) {
                        var7 = 15.617778;
                    } else {
                        var7 = 15.283572;
                    }
                }
            }
        }
    } else {
        if (hops >= 3) {
            if (hops >= 4) {
                if (hops >= 5) {
                    if (rel_timestamp >= 323084) {
                        var7 = 5.932287;
                    } else {
                        if (rel_timestamp >= 293428) {
                            var7 = 6.4954257;
                        } else {
                            var7 = 6.331242;
                        }
                    }
                } else {
                    if (rel_timestamp >= 323079) {
                        var7 = 5.9514933;
                    } else {
                        if (rel_timestamp >= 293413) {
                            var7 = 6.2769604;
                        } else {
                            var7 = 6.160434;
                        }
                    }
                }
            } else {
                if (rel_timestamp >= 323073) {
                    var7 = 5.7852297;
                } else {
                    if (rel_timestamp >= 293434) {
                        if (rel_timestamp >= 298964) {
                            var7 = 6.058741;
                        } else {
                            var7 = 6.2866893;
                        }
                    } else {
                        if (rel_timestamp >= 228468) {
                            var7 = 5.9420094;
                        } else {
                            var7 = 6.011988;
                        }
                    }
                }
            }
        } else {
            if (hops >= 2) {
                if (rel_timestamp >= 323062) {
                    var7 = 5.57997;
                } else {
                    if (rel_timestamp >= 293427) {
                        if (rel_timestamp >= 298958) {
                            var7 = 5.879201;
                        } else {
                            var7 = 6.1026607;
                        }
                    } else {
                        if (rel_timestamp >= 228461) {
                            var7 = 5.7711973;
                        } else {
                            var7 = 5.841749;
                        }
                    }
                }
            } else {
                if (rel_timestamp >= 182734) {
                    if (rel_timestamp >= 188309) {
                        if (rel_timestamp >= 211802) {
                            var7 = 5.6472096;
                        } else {
                            var7 = 5.7503695;
                        }
                    } else {
                        var7 = 5.9417152;
                    }
                } else {
                    if (rel_timestamp >= 177143) {
                        var7 = 5.4506474;
                    } else {
                        if (rel_timestamp >= 173121) {
                            var7 = 5.958832;
                        } else {
                            var7 = 5.600564;
                        }
                    }
                }
            }
        }
    }
    float var8;
    if (size >= 38) {
        if (rel_timestamp >= 65128) {
            if (rel_timestamp >= 333798) {
                if (hops >= 3) {
                    if (hops >= 4) {
                        if (hops >= 5) {
                            var8 = 8.330751;
                        } else {
                            var8 = 8.212231;
                        }
                    } else {
                        var8 = 8.087674;
                    }
                } else {
                    if (hops >= 2) {
                        if (rel_timestamp >= 923902) {
                            var8 = 8.102765;
                        } else {
                            var8 = 7.96442;
                        }
                    } else {
                        if (rel_timestamp >= 922097) {
                            var8 = 7.7478337;
                        } else {
                            var8 = 7.850168;
                        }
                    }
                }
            } else {
                if (rel_timestamp >= 220046) {
                    if (hops >= 5) {
                        var8 = 11.110786;
                    } else {
                        if (hops >= 3) {
                            var8 = 9.622626;
                        } else {
                            var8 = 9.212691;
                        }
                    }
                } else {
                    if (hops >= 4) {
                        if (rel_timestamp >= 99519) {
                            var8 = 9.070813;
                        } else {
                            var8 = 8.792643;
                        }
                    } else {
                        if (rel_timestamp >= 99441) {
                            var8 = 8.668126;
                        } else {
                            var8 = 8.423006;
                        }
                    }
                }
            }
        } else {
            if (rel_timestamp >= 32967) {
                if (hops >= 4) {
                    if (hops >= 5) {
                        var8 = 10.229479;
                    } else {
                        var8 = 9.722002;
                    }
                } else {
                    if (hops >= 2) {
                        var8 = 9.533068;
                    } else {
                        var8 = 9.297712;
                    }
                }
            } else {
                if (hops >= 4) {
                    if (hops >= 5) {
                        var8 = 11.6482115;
                    } else {
                        var8 = 11.116177;
                    }
                } else {
                    if (cons_3 != 1) {
                        var8 = 10.571122;
                    } else {
                        if (hops >= 2) {
                            var8 = 10.997817;
                        } else {
                            var8 = 10.768512;
                        }
                    }
                }
            }
        }
    } else {
        if (hops >= 3) {
            if (hops >= 4) {
                if (hops >= 5) {
                    if (rel_timestamp >= 325800) {
                        var8 = 3.9929962;
                    } else {
                        if (rel_timestamp >= 158013) {
                            var8 = 4.4727745;
                        } else {
                            var8 = 4.3631954;
                        }
                    }
                } else {
                    if (rel_timestamp >= 227092) {
                        if (rel_timestamp >= 268566) {
                            var8 = 4.3468475;
                        } else {
                            var8 = 4.205317;
                        }
                    } else {
                        if (rel_timestamp >= 182747) {
                            var8 = 4.44454;
                        } else {
                            var8 = 4.284775;
                        }
                    }
                }
            } else {
                if (rel_timestamp >= 182748) {
                    if (rel_timestamp >= 188323) {
                        if (rel_timestamp >= 325855) {
                            var8 = 3.9645035;
                        } else {
                            var8 = 4.2128553;
                        }
                    } else {
                        if (rel_timestamp >= 182768) {
                            var8 = 4.5061827;
                        } else {
                            var8 = 4.2182226;
                        }
                    }
                } else {
                    if (rel_timestamp >= 177153) {
                        var8 = 3.991379;
                    } else {
                        if (rel_timestamp >= 173136) {
                            var8 = 4.5082917;
                        } else {
                            var8 = 4.152696;
                        }
                    }
                }
            }
        } else {
            if (hops >= 2) {
                if (rel_timestamp >= 182741) {
                    if (rel_timestamp >= 188317) {
                        if (rel_timestamp >= 323062) {
                            var8 = 3.9068818;
                        } else {
                            var8 = 4.096856;
                        }
                    } else {
                        var8 = 4.3355455;
                    }
                } else {
                    if (rel_timestamp >= 177173) {
                        var8 = 3.8526027;
                    } else {
                        if (rel_timestamp >= 170302) {
                            var8 = 4.164041;
                        } else {
                            var8 = 4.0246644;
                        }
                    }
                }
            } else {
                if (rel_timestamp >= 325841) {
                    var8 = 3.7239344;
                } else {
                    if (rel_timestamp >= 280961) {
                        if (rel_timestamp >= 286537) {
                            var8 = 4.0002465;
                        } else {
                            var8 = 4.1822305;
                        }
                    } else {
                        if (rel_timestamp >= 275519) {
                            var8 = 3.768967;
                        } else {
                            var8 = 3.949985;
                        }
                    }
                }
            }
        }
    }
    float var9;
    if (size >= 38) {
        if (rel_timestamp >= 65128) {
            if (rel_timestamp >= 333798) {
                if (hops >= 3) {
                    if (hops >= 4) {
                        if (hops >= 5) {
                            var9 = 5.831666;
                        } else {
                            var9 = 5.748596;
                        }
                    } else {
                        if (rel_timestamp >= 922161) {
                            var9 = 5.564149;
                        } else {
                            var9 = 5.6660757;
                        }
                    }
                } else {
                    if (hops >= 2) {
                        if (rel_timestamp >= 433392) {
                            var9 = 5.5890903;
                        } else {
                            var9 = 5.5235844;
                        }
                    } else {
                        if (prod_1 != 1) {
                            var9 = 5.4612226;
                        } else {
                            var9 = 5.4995584;
                        }
                    }
                }
            } else {
                if (rel_timestamp >= 220046) {
                    if (hops >= 4) {
                        if (hops >= 5) {
                            var9 = 7.8024282;
                        } else {
                            var9 = 6.9241033;
                        }
                    } else {
                        if (hops >= 2) {
                            var9 = 6.592117;
                        } else {
                            var9 = 6.339919;
                        }
                    }
                } else {
                    if (hops >= 3) {
                        if (rel_timestamp >= 99348) {
                            var9 = 6.295181;
                        } else {
                            var9 = 6.073416;
                        }
                    } else {
                        if (cons_2 != 1) {
                            var9 = 5.7295303;
                        } else {
                            var9 = 5.919552;
                        }
                    }
                }
            }
        } else {
            if (rel_timestamp >= 32967) {
                if (hops >= 4) {
                    if (hops >= 5) {
                        var9 = 7.1646905;
                    } else {
                        var9 = 6.8063116;
                    }
                } else {
                    if (hops >= 2) {
                        var9 = 6.673461;
                    } else {
                        var9 = 6.508865;
                    }
                }
            } else {
                if (hops >= 2) {
                    if (hops >= 5) {
                        var9 = 8.158376;
                    } else {
                        if (cons_3 != 1) {
                            var9 = 7.5294304;
                        } else {
                            var9 = 7.7327595;
                        }
                    }
                } else {
                    if (cons_3 != 1) {
                        var9 = 7.2423673;
                    } else {
                        var9 = 7.538645;
                    }
                }
            }
        }
    } else {
        if (hops >= 3) {
            if (hops >= 4) {
                if (hops >= 5) {
                    if (rel_timestamp >= 323084) {
                        var9 = 2.8908935;
                    } else {
                        if (rel_timestamp >= 293428) {
                            var9 = 3.2068067;
                        } else {
                            var9 = 3.0992825;
                        }
                    }
                } else {
                    if (rel_timestamp >= 325862) {
                        var9 = 2.7843425;
                    } else {
                        if (rel_timestamp >= 157925) {
                            var9 = 3.040962;
                        } else {
                            var9 = 2.9834158;
                        }
                    }
                }
            } else {
                if (rel_timestamp >= 110875) {
                    if (rel_timestamp >= 116535) {
                        if (rel_timestamp >= 157957) {
                            var9 = 2.9516978;
                        } else {
                            var9 = 2.881896;
                        }
                    } else {
                        if (rel_timestamp >= 113636) {
                            var9 = 3.2291827;
                        } else {
                            var9 = 2.983018;
                        }
                    }
                } else {
                    var9 = 2.7152033;
                }
            }
        } else {
            if (hops >= 2) {
                if (rel_timestamp >= 180083) {
                    if (rel_timestamp >= 211809) {
                        if (rel_timestamp >= 269960) {
                            var9 = 2.8815744;
                        } else {
                            var9 = 2.813908;
                        }
                    } else {
                        if (rel_timestamp >= 204806) {
                            var9 = 3.072837;
                        } else {
                            var9 = 2.924373;
                        }
                    }
                } else {
                    if (rel_timestamp >= 117795) {
                        if (cons_2 != 1) {
                            var9 = 2.7017345;
                        } else {
                            var9 = 2.828661;
                        }
                    } else {
                        if (rel_timestamp >= 110875) {
                            var9 = 3.0113373;
                        } else {
                            var9 = 2.6261125;
                        }
                    }
                }
            } else {
                if (rel_timestamp >= 170295) {
                    if (rel_timestamp >= 213146) {
                        if (rel_timestamp >= 268545) {
                            var9 = 2.8055081;
                        } else {
                            var9 = 2.7197313;
                        }
                    } else {
                        if (rel_timestamp >= 204824) {
                            var9 = 2.9851732;
                        } else {
                            var9 = 2.820008;
                        }
                    }
                } else {
                    if (rel_timestamp >= 164853) {
                        var9 = 2.548994;
                    } else {
                        if (rel_timestamp >= 157904) {
                            var9 = 2.9469833;
                        } else {
                            var9 = 2.7284498;
                        }
                    }
                }
            }
        }
    }
    float var10;
    if (size >= 38) {
        if (rel_timestamp >= 65128) {
            if (rel_timestamp >= 333798) {
                if (hops >= 3) {
                    if (hops >= 4) {
                        if (rel_timestamp >= 424464) {
                            var10 = 4.04639;
                        } else {
                            var10 = 3.9670246;
                        }
                    } else {
                        if (rel_timestamp >= 922836) {
                            var10 = 3.8910847;
                        } else {
                            var10 = 3.966154;
                        }
                    }
                } else {
                    if (hops >= 2) {
                        if (rel_timestamp >= 927380) {
                            var10 = 3.9961479;
                        } else {
                            var10 = 3.9015465;
                        }
                    } else {
                        if (rel_timestamp >= 922097) {
                            var10 = 3.7761972;
                        } else {
                            var10 = 3.84761;
                        }
                    }
                }
            } else {
                if (rel_timestamp >= 220046) {
                    if (hops >= 4) {
                        if (hops >= 5) {
                            var10 = 5.4791675;
                        } else {
                            var10 = 4.850049;
                        }
                    } else {
                        if (hops >= 2) {
                            var10 = 4.6155844;
                        } else {
                            var10 = 4.4395366;
                        }
                    }
                } else {
                    if (hops >= 2) {
                        if (hops >= 5) {
                            var10 = 4.5662675;
                        } else {
                            var10 = 4.234102;
                        }
                    } else {
                        if (rel_timestamp >= 74200) {
                            var10 = 4.0222306;
                        } else {
                            var10 = 4.174621;
                        }
                    }
                }
            }
        } else {
            if (rel_timestamp >= 32967) {
                if (hops >= 3) {
                    if (hops >= 5) {
                        var10 = 5.0181313;
                    } else {
                        var10 = 4.7255096;
                    }
                } else {
                    if (cons_3 != 1) {
                        var10 = 4.4834495;
                    } else {
                        if (rel_timestamp >= 36585) {
                            var10 = 4.6535497;
                        } else {
                            var10 = 4.5120945;
                        }
                    }
                }
            } else {
                if (hops >= 4) {
                    if (hops >= 5) {
                        var10 = 5.714097;
                    } else {
                        var10 = 5.475285;
                    }
                } else {
                    if (cons_3 != 1) {
                        var10 = 5.176686;
                    } else {
                        if (cons_1 != 1) {
                            var10 = 5.2470646;
                        } else {
                            var10 = 5.369647;
                        }
                    }
                }
            }
        }
    } else {
        if (hops >= 3) {
            if (hops >= 4) {
                if (rel_timestamp >= 214640) {
                    if (rel_timestamp >= 269974) {
                        if (cons_3 != 1) {
                            var10 = 2.2844346;
                        } else {
                            var10 = 2.1073434;
                        }
                    } else {
                        if (cons_3 != 1) {
                            var10 = 1.8890059;
                        } else {
                            var10 = 2.1029317;
                        }
                    }
                } else {
                    if (rel_timestamp >= 182761) {
                        if (rel_timestamp >= 188334) {
                            var10 = 2.208227;
                        } else {
                            var10 = 2.397051;
                        }
                    } else {
                        if (rel_timestamp >= 177198) {
                            var10 = 1.9180136;
                        } else {
                            var10 = 2.1179178;
                        }
                    }
                }
            } else {
                if (rel_timestamp >= 279797) {
                    if (cons_4 != 1) {
                        if (rel_timestamp >= 301699) {
                            var10 = 2.0276744;
                        } else {
                            var10 = 1.9125965;
                        }
                    } else {
                        if (rel_timestamp >= 285136) {
                            var10 = 2.1070337;
                        } else {
                            var10 = 2.267982;
                        }
                    }
                } else {
                    if (rel_timestamp >= 227060) {
                        if (cons_2 != 1) {
                            var10 = 1.8296266;
                        } else {
                            var10 = 2.0246127;
                        }
                    } else {
                        if (rel_timestamp >= 182762) {
                            var10 = 2.13034;
                        } else {
                            var10 = 2.0335395;
                        }
                    }
                }
            }
        } else {
            if (hops >= 2) {
                if (rel_timestamp >= 325848) {
                    var10 = 1.8047771;
                } else {
                    if (rel_timestamp >= 293407) {
                        if (rel_timestamp >= 298958) {
                            var10 = 2.0135026;
                        } else {
                            var10 = 2.161141;
                        }
                    } else {
                        if (rel_timestamp >= 287839) {
                            var10 = 1.7801031;
                        } else {
                            var10 = 1.9969501;
                        }
                    }
                }
            } else {
                if (rel_timestamp >= 110875) {
                    if (rel_timestamp >= 116338) {
                        if (rel_timestamp >= 182734) {
                            var10 = 1.9519325;
                        } else {
                            var10 = 1.90153;
                        }
                    } else {
                        if (rel_timestamp >= 113617) {
                            var10 = 2.2918603;
                        } else {
                            var10 = 2.034496;
                        }
                    }
                } else {
                    var10 = 1.7484596;
                }
            }
        }
    }
    float var11;
    if (size >= 38) {
        if (rel_timestamp >= 67476) {
            if (rel_timestamp >= 333798) {
                if (hops >= 3) {
                    if (hops >= 4) {
                        if (hops >= 5) {
                            var11 = 2.8720658;
                        } else {
                            var11 = 2.8137796;
                        }
                    } else {
                        if (prod_1 != 1) {
                            var11 = 2.7465644;
                        } else {
                            var11 = 2.7810152;
                        }
                    }
                } else {
                    if (hops >= 2) {
                        if (rel_timestamp >= 428927) {
                            var11 = 2.740596;
                        } else {
                            var11 = 2.696089;
                        }
                    } else {
                        if (prod_1 != 1) {
                            var11 = 2.6695313;
                        } else {
                            var11 = 2.6964567;
                        }
                    }
                }
            } else {
                if (rel_timestamp >= 99341) {
                    if (cons_4 != 1) {
                        if (hops >= 3) {
                            var11 = 3.0194256;
                        } else {
                            var11 = 2.8782375;
                        }
                    } else {
                        if (hops >= 4) {
                            var11 = 3.3608925;
                        } else {
                            var11 = 3.1485612;
                        }
                    }
                } else {
                    if (hops >= 4) {
                        if (cons_2 != 1) {
                            var11 = 2.9032283;
                        } else {
                            var11 = 3.0772636;
                        }
                    } else {
                        if (cons_1 != 1) {
                            var11 = 2.9721787;
                        } else {
                            var11 = 2.810176;
                        }
                    }
                }
            }
        } else {
            if (rel_timestamp >= 32967) {
                if (hops >= 2) {
                    if (hops >= 5) {
                        var11 = 3.503598;
                    } else {
                        if (cons_3 != 1) {
                            var11 = 3.1946402;
                        } else {
                            var11 = 3.3128679;
                        }
                    }
                } else {
                    if (rel_timestamp >= 65118) {
                        var11 = 3.0355017;
                    } else {
                        var11 = 3.1787379;
                    }
                }
            } else {
                if (hops >= 2) {
                    if (hops >= 5) {
                        var11 = 4.0021315;
                    } else {
                        if (cons_3 != 1) {
                            var11 = 3.6958718;
                        } else {
                            var11 = 3.8008077;
                        }
                    }
                } else {
                    if (rel_timestamp >= 3323) {
                        var11 = 3.594951;
                    } else {
                        var11 = 3.845038;
                    }
                }
            }
        }
    } else {
        if (hops >= 3) {
            if (hops >= 4) {
                if (rel_timestamp >= 323083) {
                    var11 = 1.3415384;
                } else {
                    if (hops >= 5) {
                        if (rel_timestamp >= 158013) {
                            var11 = 1.558914;
                        } else {
                            var11 = 1.4901408;
                        }
                    } else {
                        if (rel_timestamp >= 293413) {
                            var11 = 1.5372138;
                        } else {
                            var11 = 1.472657;
                        }
                    }
                }
            } else {
                if (rel_timestamp >= 323073) {
                    if (cons_3 != 1) {
                        var11 = 1.3564757;
                    } else {
                        var11 = 1.2825948;
                    }
                } else {
                    if (rel_timestamp >= 293428) {
                        if (rel_timestamp >= 298964) {
                            var11 = 1.4691372;
                        } else {
                            var11 = 1.6097451;
                        }
                    } else {
                        if (rel_timestamp >= 287878) {
                            var11 = 1.2451527;
                        } else {
                            var11 = 1.4373271;
                        }
                    }
                }
            }
        } else {
            if (hops >= 2) {
                if (rel_timestamp >= 170302) {
                    if (rel_timestamp >= 228461) {
                        if (rel_timestamp >= 246339) {
                            var11 = 1.4031233;
                        } else {
                            var11 = 1.301673;
                        }
                    } else {
                        if (rel_timestamp >= 225636) {
                            var11 = 1.7668265;
                        } else {
                            var11 = 1.4385978;
                        }
                    }
                } else {
                    if (rel_timestamp >= 163514) {
                        if (rel_timestamp >= 166255) {
                            var11 = 1.2443895;
                        } else {
                            var11 = 1.1524973;
                        }
                    } else {
                        if (rel_timestamp >= 159294) {
                            var11 = 1.5727074;
                        } else {
                            var11 = 1.3672992;
                        }
                    }
                }
            } else {
                if (rel_timestamp >= 323056) {
                    if (cons_3 != 1) {
                        var11 = 1.2716382;
                    } else {
                        if (rel_timestamp >= 324897) {
                            var11 = 1.1816626;
                        } else {
                            var11 = 0.62301826;
                        }
                    }
                } else {
                    if (rel_timestamp >= 315465) {
                        if (rel_timestamp >= 322018) {
                            var11 = 1.3140613;
                        } else {
                            var11 = 1.5170492;
                        }
                    } else {
                        if (rel_timestamp >= 227046) {
                            var11 = 1.3346741;
                        } else {
                            var11 = 1.3704617;
                        }
                    }
                }
            }
        }
    }
    float var12;
    if (size >= 38) {
        if (rel_timestamp >= 65128) {
            if (rel_timestamp >= 333798) {
                if (hops >= 3) {
                    if (hops >= 4) {
                        if (rel_timestamp >= 424464) {
                            var12 = 1.9852983;
                        } else {
                            var12 = 1.9298524;
                        }
                    } else {
                        if (rel_timestamp >= 921923) {
                            var12 = 1.8936343;
                        } else {
                            var12 = 1.944244;
                        }
                    }
                } else {
                    if (hops >= 2) {
                        if (rel_timestamp >= 930837) {
                            var12 = 1.9755079;
                        } else {
                            var12 = 1.9110556;
                        }
                    } else {
                        if (rel_timestamp >= 921933) {
                            var12 = 1.8361439;
                        } else {
                            var12 = 1.8860489;
                        }
                    }
                }
            } else {
                if (rel_timestamp >= 220046) {
                    if (hops >= 5) {
                        var12 = 2.8469322;
                    } else {
                        if (hops >= 2) {
                            var12 = 2.3159285;
                        } else {
                            var12 = 2.165016;
                        }
                    }
                } else {
                    if (hops >= 2) {
                        if (cons_2 != 1) {
                            var12 = 1.9802393;
                        } else {
                            var12 = 2.1171257;
                        }
                    } else {
                        if (rel_timestamp >= 99306) {
                            var12 = 2.0470378;
                        } else {
                            var12 = 1.9450406;
                        }
                    }
                }
            }
        } else {
            if (rel_timestamp >= 32967) {
                if (hops >= 4) {
                    if (rel_timestamp >= 36585) {
                        if (rel_timestamp >= 39821) {
                            var12 = 2.3717773;
                        } else {
                            var12 = 2.7672694;
                        }
                    } else {
                        var12 = 2.2413461;
                    }
                } else {
                    if (cons_3 != 1) {
                        var12 = 2.1918736;
                    } else {
                        if (rel_timestamp >= 36585) {
                            var12 = 2.3000083;
                        } else {
                            var12 = 2.2049117;
                        }
                    }
                }
            } else {
                if (hops >= 4) {
                    if (cons_3 != 1) {
                        var12 = 2.5914438;
                    } else {
                        if (rel_timestamp >= 6697) {
                            var12 = 2.8149946;
                        } else {
                            var12 = 2.6711097;
                        }
                    }
                } else {
                    if (hops >= 2) {
                        if (hops >= 3) {
                            var12 = 2.5694926;
                        } else {
                            var12 = 2.680337;
                        }
                    } else {
                        if (rel_timestamp >= 3323) {
                            var12 = 2.5166874;
                        } else {
                            var12 = 2.6924984;
                        }
                    }
                }
            }
        }
    } else {
        if (hops >= 3) {
            if (hops >= 4) {
                if (rel_timestamp >= 227071) {
                    if (rel_timestamp >= 269974) {
                        if (rel_timestamp >= 271304) {
                            var12 = 1.0390059;
                        } else {
                            var12 = 1.3347237;
                        }
                    } else {
                        if (cons_0 != 1) {
                            var12 = 1.1245284;
                        } else {
                            var12 = 0.9366523;
                        }
                    }
                } else {
                    if (rel_timestamp >= 225734) {
                        var12 = 1.3647139;
                    } else {
                        if (rel_timestamp >= 169142) {
                            var12 = 1.0920166;
                        } else {
                            var12 = 1.0226305;
                        }
                    }
                }
            } else {
                if (rel_timestamp >= 110875) {
                    if (rel_timestamp >= 116535) {
                        if (rel_timestamp >= 135669) {
                            var12 = 1.0118219;
                        } else {
                            var12 = 0.95069766;
                        }
                    } else {
                        if (rel_timestamp >= 113611) {
                            var12 = 1.1994004;
                        } else {
                            var12 = 0.98712754;
                        }
                    }
                } else {
                    var12 = 0.86166626;
                }
            }
        } else {
            if (rel_timestamp >= 323056) {
                if (cons_3 != 1) {
                    if (rel_timestamp >= 324930) {
                        var12 = 1.1377008;
                    } else {
                        var12 = 0.89812154;
                    }
                } else {
                    if (rel_timestamp >= 324901) {
                        var12 = 0.83481205;
                    } else {
                        var12 = 0.52874947;
                    }
                }
            } else {
                if (rel_timestamp >= 315472) {
                    if (cons_0 != 1) {
                        if (hops >= 2) {
                            var12 = 1.2368481;
                        } else {
                            var12 = 1.1590891;
                        }
                    } else {
                        if (rel_timestamp >= 322022) {
                            var12 = 0.9281097;
                        } else {
                            var12 = 1.0424923;
                        }
                    }
                } else {
                    if (rel_timestamp >= 110875) {
                        if (rel_timestamp >= 116345) {
                            var12 = 0.95889634;
                        } else {
                            var12 = 1.1020306;
                        }
                    } else {
                        var12 = 0.82063806;
                    }
                }
            }
        }
    }
    float var13;
    if (size >= 38) {
        if (rel_timestamp >= 67486) {
            if (rel_timestamp >= 333798) {
                if (hops >= 3) {
                    if (hops >= 5) {
                        if (rel_timestamp >= 923503) {
                            var13 = 1.3068833;
                        } else {
                            var13 = 1.4224672;
                        }
                    } else {
                        if (rel_timestamp >= 722529) {
                            var13 = 1.3821776;
                        } else {
                            var13 = 1.3574018;
                        }
                    }
                } else {
                    if (hops >= 2) {
                        if (rel_timestamp >= 902447) {
                            var13 = 1.2999187;
                        } else {
                            var13 = 1.3430505;
                        }
                    } else {
                        if (rel_timestamp >= 720091) {
                            var13 = 1.3323375;
                        } else {
                            var13 = 1.31053;
                        }
                    }
                }
            } else {
                if (rel_timestamp >= 90387) {
                    if (cons_2 != 1) {
                        if (rel_timestamp >= 99311) {
                            var13 = 1.41711;
                        } else {
                            var13 = 1.3032646;
                        }
                    } else {
                        if (rel_timestamp >= 90436) {
                            var13 = 1.5251805;
                        } else {
                            var13 = 1.8477592;
                        }
                    }
                } else {
                    if (cons_4 != 1) {
                        if (hops >= 5) {
                            var13 = 1.7905216;
                        } else {
                            var13 = 1.5390629;
                        }
                    } else {
                        if (rel_timestamp >= 78772) {
                            var13 = 1.2461048;
                        } else {
                            var13 = 1.4216356;
                        }
                    }
                }
            }
        } else {
            if (rel_timestamp >= 32967) {
                if (hops >= 2) {
                    if (hops >= 5) {
                        var13 = 1.7552451;
                    } else {
                        if (rel_timestamp >= 36585) {
                            var13 = 1.6244305;
                        } else {
                            var13 = 1.5364331;
                        }
                    }
                } else {
                    if (rel_timestamp >= 36559) {
                        if (rel_timestamp >= 36585) {
                            var13 = 1.5445567;
                        } else {
                            var13 = 1.4394428;
                        }
                    } else {
                        var13 = 1.6132853;
                    }
                }
            } else {
                if (cons_3 != 1) {
                    if (hops >= 2) {
                        if (hops >= 3) {
                            var13 = 1.7606436;
                        } else {
                            var13 = 1.8708376;
                        }
                    } else {
                        if (rel_timestamp >= 22578) {
                            var13 = 1.7322801;
                        } else {
                            var13 = 1.6166674;
                        }
                    }
                } else {
                    if (hops >= 5) {
                        var13 = 2.0419672;
                    } else {
                        if (rel_timestamp >= 16966) {
                            var13 = 1.8798248;
                        } else {
                            var13 = 1.8229964;
                        }
                    }
                }
            }
        }
    } else {
        if (hops >= 3) {
            if (rel_timestamp >= 321149) {
                if (rel_timestamp >= 325858) {
                    var13 = 0.60175264;
                } else {
                    if (rel_timestamp >= 321152) {
                        if (hops >= 5) {
                            var13 = 0.720626;
                        } else {
                            var13 = 0.6512439;
                        }
                    } else {
                        var13 = 0.34473267;
                    }
                }
            } else {
                if (rel_timestamp >= 315493) {
                    if (cons_0 != 1) {
                        var13 = 0.96852094;
                    } else {
                        if (rel_timestamp >= 321113) {
                            var13 = 0.8631593;
                        } else {
                            var13 = 0.7865422;
                        }
                    }
                } else {
                    if (rel_timestamp >= 210508) {
                        if (rel_timestamp >= 218657) {
                            var13 = 0.7034597;
                        } else {
                            var13 = 0.5764077;
                        }
                    } else {
                        if (rel_timestamp >= 204827) {
                            var13 = 0.905318;
                        } else {
                            var13 = 0.7209318;
                        }
                    }
                }
            }
        } else {
            if (rel_timestamp >= 180082) {
                if (rel_timestamp >= 188313) {
                    if (rel_timestamp >= 191026) {
                        if (rel_timestamp >= 227050) {
                            var13 = 0.66389966;
                        } else {
                            var13 = 0.7208517;
                        }
                    } else {
                        if (hops >= 2) {
                            var13 = 0.5336379;
                        } else {
                            var13 = 0.47554392;
                        }
                    }
                } else {
                    if (rel_timestamp >= 182761) {
                        if (rel_timestamp >= 182785) {
                            var13 = 0.8803692;
                        } else {
                            var13 = 0.8168216;
                        }
                    } else {
                        if (rel_timestamp >= 182744) {
                            var13 = 0.673208;
                        } else {
                            var13 = 0.77387786;
                        }
                    }
                }
            } else {
                if (rel_timestamp >= 175875) {
                    if (rel_timestamp >= 177226) {
                        if (hops >= 2) {
                            var13 = 0.48594093;
                        } else {
                            var13 = 0.44227663;
                        }
                    } else {
                        if (rel_timestamp >= 177144) {
                            var13 = 0.58220404;
                        } else {
                            var13 = 0.46798784;
                        }
                    }
                } else {
                    if (rel_timestamp >= 173125) {
                        var13 = 0.9044067;
                    } else {
                        if (cons_4 != 1) {
                            var13 = 0.7172799;
                        } else {
                            var13 = 0.6404898;
                        }
                    }
                }
            }
        }
    }
    float var14;
    if (size >= 38) {
        if (rel_timestamp >= 67476) {
            if (rel_timestamp >= 333798) {
                if (hops >= 3) {
                    if (hops >= 4) {
                        if (rel_timestamp >= 931224) {
                            var14 = 1.0552742;
                        } else {
                            var14 = 0.96760947;
                        }
                    } else {
                        if (prod_1 != 1) {
                            var14 = 0.9301129;
                        } else {
                            var14 = 0.9541975;
                        }
                    }
                } else {
                    if (rel_timestamp >= 722991) {
                        if (rel_timestamp >= 846895) {
                            var14 = 0.9148794;
                        } else {
                            var14 = 0.962058;
                        }
                    } else {
                        if (rel_timestamp >= 707255) {
                            var14 = 0.87484986;
                        } else {
                            var14 = 0.92591524;
                        }
                    }
                }
            } else {
                if (hops >= 4) {
                    if (rel_timestamp >= 331649) {
                        if (hops >= 5) {
                            var14 = 1.545081;
                        } else {
                            var14 = 1.2882928;
                        }
                    } else {
                        if (hops >= 5) {
                            var14 = 1.19835;
                        } else {
                            var14 = 1.051742;
                        }
                    }
                } else {
                    if (rel_timestamp >= 99320) {
                        if (cons_4 != 1) {
                            var14 = 0.95265406;
                        } else {
                            var14 = 1.0889546;
                        }
                    } else {
                        if (cons_3 != 1) {
                            var14 = 0.8552364;
                        } else {
                            var14 = 0.98073393;
                        }
                    }
                }
            }
        } else {
            if (rel_timestamp >= 32967) {
                if (hops >= 4) {
                    if (rel_timestamp >= 36585) {
                        if (rel_timestamp >= 39821) {
                            var14 = 1.1683185;
                        } else {
                            var14 = 1.4528338;
                        }
                    } else {
                        if (rel_timestamp >= 36559) {
                            var14 = 1.0450642;
                        } else {
                            var14 = 1.2385918;
                        }
                    }
                } else {
                    if (rel_timestamp >= 46422) {
                        if (rel_timestamp >= 49589) {
                            var14 = 1.1017631;
                        } else {
                            var14 = 0.98966557;
                        }
                    } else {
                        if (rel_timestamp >= 36585) {
                            var14 = 1.1895723;
                        } else {
                            var14 = 1.081404;
                        }
                    }
                }
            } else {
                if (hops >= 4) {
                    if (cons_3 != 1) {
                        if (rel_timestamp >= 22605) {
                            var14 = 1.3610609;
                        } else {
                            var14 = 1.2185247;
                        }
                    } else {
                        if (rel_timestamp >= 6697) {
                            var14 = 1.3986539;
                        } else {
                            var14 = 1.3128307;
                        }
                    }
                } else {
                    if (cons_3 != 1) {
                        if (hops >= 2) {
                            var14 = 1.2490686;
                        } else {
                            var14 = 1.1823695;
                        }
                    } else {
                        if (cons_1 != 1) {
                            var14 = 1.2369632;
                        } else {
                            var14 = 1.2959093;
                        }
                    }
                }
            }
        }
    } else {
        if (hops >= 2) {
            if (hops >= 5) {
                if (rel_timestamp >= 110875) {
                    if (rel_timestamp >= 116480) {
                        if (rel_timestamp >= 135694) {
                            var14 = 0.5535612;
                        } else {
                            var14 = 0.46688607;
                        }
                    } else {
                        if (rel_timestamp >= 115077) {
                            var14 = 0.8748367;
                        } else {
                            var14 = 0.6182215;
                        }
                    }
                } else {
                    var14 = 0.35288507;
                }
            } else {
                if (rel_timestamp >= 116373) {
                    if (rel_timestamp >= 119214) {
                        if (rel_timestamp >= 124762) {
                            var14 = 0.49142534;
                        } else {
                            var14 = 0.56710386;
                        }
                    } else {
                        if (rel_timestamp >= 116542) {
                            var14 = 0.35133484;
                        } else {
                            var14 = 0.5113348;
                        }
                    }
                } else {
                    if (rel_timestamp >= 113611) {
                        if (rel_timestamp >= 115060) {
                            var14 = 0.71297324;
                        } else {
                            var14 = 0.5851994;
                        }
                    } else {
                        if (rel_timestamp >= 110875) {
                            var14 = 0.51165813;
                        } else {
                            var14 = 0.37619227;
                        }
                    }
                }
            }
        } else {
            if (rel_timestamp >= 269952) {
                if (rel_timestamp >= 271279) {
                    if (cons_3 != 1) {
                        if (rel_timestamp >= 298950) {
                            var14 = 0.424362;
                        } else {
                            var14 = 0.71617264;
                        }
                    } else {
                        if (rel_timestamp >= 293400) {
                            var14 = 0.48793325;
                        } else {
                            var14 = 0.3685932;
                        }
                    }
                } else {
                    var14 = 0.8362372;
                }
            } else {
                if (rel_timestamp >= 261679) {
                    if (cons_1 != 1) {
                        if (rel_timestamp >= 265748) {
                            var14 = 0.3762185;
                        } else {
                            var14 = 0.5266998;
                        }
                    } else {
                        if (rel_timestamp >= 268545) {
                            var14 = 0.44045922;
                        } else {
                            var14 = 0.2702465;
                        }
                    }
                } else {
                    if (rel_timestamp >= 260123) {
                        if (rel_timestamp >= 260193) {
                            var14 = 0.40606332;
                        } else {
                            var14 = 0.72638416;
                        }
                    } else {
                        if (rel_timestamp >= 251935) {
                            var14 = 0.27342016;
                        } else {
                            var14 = 0.46045706;
                        }
                    }
                }
            }
        }
    }
    float var15;
    if (size >= 38) {
        if (rel_timestamp >= 67500) {
            if (hops >= 2) {
                if (rel_timestamp >= 335767) {
                    if (rel_timestamp >= 483141) {
                        if (rel_timestamp >= 499534) {
                            var15 = 0.66770005;
                        } else {
                            var15 = 0.7425537;
                        }
                    } else {
                        if (rel_timestamp >= 449495) {
                            var15 = 0.6145552;
                        } else {
                            var15 = 0.65971553;
                        }
                    }
                } else {
                    if (rel_timestamp >= 331635) {
                        if (hops >= 5) {
                            var15 = 1.0850087;
                        } else {
                            var15 = 0.84021646;
                        }
                    } else {
                        if (cons_1 != 1) {
                            var15 = 0.77513415;
                        } else {
                            var15 = 0.7023382;
                        }
                    }
                }
            } else {
                if (rel_timestamp >= 896654) {
                    if (rel_timestamp >= 919984) {
                        if (prod_3 != 1) {
                            var15 = 0.6647399;
                        } else {
                            var15 = 0.6016752;
                        }
                    } else {
                        if (prod_0 != 1) {
                            var15 = 0.9025353;
                        } else {
                            var15 = 0.72175366;
                        }
                    }
                } else {
                    if (rel_timestamp >= 873791) {
                        if (prod_3 != 1) {
                            var15 = 0.48040038;
                        } else {
                            var15 = 0.5433139;
                        }
                    } else {
                        if (prod_1 != 1) {
                            var15 = 0.62798965;
                        } else {
                            var15 = 0.64989376;
                        }
                    }
                }
            }
        } else {
            if (rel_timestamp >= 36559) {
                if (rel_timestamp >= 36585) {
                    if (rel_timestamp >= 36628) {
                        if (hops >= 5) {
                            var15 = 0.8883572;
                        } else {
                            var15 = 0.772418;
                        }
                    } else {
                        if (hops >= 4) {
                            var15 = 1.0186514;
                        } else {
                            var15 = 1.1426772;
                        }
                    }
                } else {
                    if (hops >= 4) {
                        var15 = 0.7323194;
                    } else {
                        var15 = 0.67693853;
                    }
                }
            } else {
                if (hops >= 2) {
                    if (cons_2 != 1) {
                        if (rel_timestamp >= 16980) {
                            var15 = 1.0150857;
                        } else {
                            var15 = 0.91024005;
                        }
                    } else {
                        if (hops >= 4) {
                            var15 = 0.9320992;
                        } else {
                            var15 = 0.89199066;
                        }
                    }
                } else {
                    if (rel_timestamp >= 3323) {
                        if (rel_timestamp >= 6670) {
                            var15 = 0.85640854;
                        } else {
                            var15 = 0.7474072;
                        }
                    } else {
                        var15 = 0.9505444;
                    }
                }
            }
        }
    } else {
        if (hops >= 4) {
            if (rel_timestamp >= 116367) {
                if (rel_timestamp >= 146878) {
                    if (rel_timestamp >= 149576) {
                        if (cons_3 != 1) {
                            var15 = 0.4301224;
                        } else {
                            var15 = 0.34829122;
                        }
                    } else {
                        if (rel_timestamp >= 149478) {
                            var15 = 0.6222168;
                        } else {
                            var15 = 0.45165336;
                        }
                    }
                } else {
                    if (cons_0 != 1) {
                        if (rel_timestamp >= 138525) {
                            var15 = 0.321706;
                        } else {
                            var15 = 0.641061;
                        }
                    } else {
                        if (cons_3 != 1) {
                            var15 = 0.19599316;
                        } else {
                            var15 = 0.2882141;
                        }
                    }
                }
            } else {
                if (rel_timestamp >= 110875) {
                    if (rel_timestamp >= 115070) {
                        if (rel_timestamp >= 116361) {
                            var15 = 0.45260265;
                        } else {
                            var15 = 0.68001044;
                        }
                    } else {
                        if (rel_timestamp >= 113746) {
                            var15 = 0.30420855;
                        } else {
                            var15 = 0.4514667;
                        }
                    }
                } else {
                    if (hops >= 5) {
                        var15 = 0.2477578;
                    } else {
                        var15 = 0.20963731;
                    }
                }
            }
        } else {
            if (rel_timestamp >= 269960) {
                if (rel_timestamp >= 271286) {
                    if (cons_3 != 1) {
                        if (rel_timestamp >= 298960) {
                            var15 = 0.2979664;
                        } else {
                            var15 = 0.5462443;
                        }
                    } else {
                        if (rel_timestamp >= 293400) {
                            var15 = 0.3553579;
                        } else {
                            var15 = 0.25228134;
                        }
                    }
                } else {
                    if (hops >= 2) {
                        if (hops >= 3) {
                            var15 = 0.72272563;
                        } else {
                            var15 = 0.6845424;
                        }
                    } else {
                        var15 = 0.58558005;
                    }
                }
            } else {
                if (rel_timestamp >= 261686) {
                    if (cons_1 != 1) {
                        if (rel_timestamp >= 265782) {
                            var15 = 0.22799674;
                        } else {
                            var15 = 0.3225819;
                        }
                    } else {
                        if (hops >= 2) {
                            var15 = 0.15140712;
                        } else {
                            var15 = 0.1902535;
                        }
                    }
                } else {
                    if (rel_timestamp >= 260132) {
                        if (rel_timestamp >= 260200) {
                            var15 = 0.30114982;
                        } else {
                            var15 = 0.56111616;
                        }
                    } else {
                        if (rel_timestamp >= 251948) {
                            var15 = 0.172798;
                        } else {
                            var15 = 0.33535963;
                        }
                    }
                }
            }
        }
    }
    float var16;
    if (size >= 38) {
        if (rel_timestamp >= 67500) {
            if (hops >= 4) {
                if (rel_timestamp >= 335795) {
                    if (rel_timestamp >= 931214) {
                        if (hops >= 5) {
                            var16 = 0.40168506;
                        } else {
                            var16 = 0.567483;
                        }
                    } else {
                        if (rel_timestamp >= 902906) {
                            var16 = 0.3959017;
                        } else {
                            var16 = 0.48074445;
                        }
                    }
                } else {
                    if (rel_timestamp >= 81058) {
                        if (cons_2 != 1) {
                            var16 = 0.47537854;
                        } else {
                            var16 = 0.59445137;
                        }
                    } else {
                        if (cons_1 != 1) {
                            var16 = 0.6110844;
                        } else {
                            var16 = 0.43244803;
                        }
                    }
                }
            } else {
                if (cons_4 != 1) {
                    if (rel_timestamp >= 85383) {
                        if (rel_timestamp >= 108259) {
                            var16 = 0.5198207;
                        } else {
                            var16 = 0.45609844;
                        }
                    } else {
                        if (rel_timestamp >= 85375) {
                            var16 = 0.6405869;
                        } else {
                            var16 = 0.561132;
                        }
                    }
                } else {
                    if (cons_1 != 1) {
                        if (rel_timestamp >= 71945) {
                            var16 = 0.51679087;
                        } else {
                            var16 = 0.3054785;
                        }
                    } else {
                        if (rel_timestamp >= 90387) {
                            var16 = 0.4589125;
                        } else {
                            var16 = 0.39461294;
                        }
                    }
                }
            }
        } else {
            if (rel_timestamp >= 32967) {
                if (cons_3 != 1) {
                    if (rel_timestamp >= 56104) {
                        if (rel_timestamp >= 56229) {
                            var16 = 0.8084401;
                        } else {
                            var16 = 0.60089934;
                        }
                    } else {
                        if (rel_timestamp >= 56072) {
                            var16 = 0.49969193;
                        } else {
                            var16 = 0.46804968;
                        }
                    }
                } else {
                    if (hops >= 2) {
                        if (rel_timestamp >= 36585) {
                            var16 = 0.5807091;
                        } else {
                            var16 = 0.5271353;
                        }
                    } else {
                        if (rel_timestamp >= 49582) {
                            var16 = 0.55175126;
                        } else {
                            var16 = 0.50788856;
                        }
                    }
                }
            } else {
                if (hops >= 2) {
                    if (hops >= 3) {
                        if (rel_timestamp >= 6665) {
                            var16 = 0.6071693;
                        } else {
                            var16 = 0.6956217;
                        }
                    } else {
                        if (rel_timestamp >= 6663) {
                            var16 = 0.70129555;
                        } else {
                            var16 = 0.5627752;
                        }
                    }
                } else {
                    if (rel_timestamp >= 6658) {
                        if (rel_timestamp >= 6662) {
                            var16 = 0.6029861;
                        } else {
                            var16 = 0.33539066;
                        }
                    } else {
                        if (rel_timestamp >= 6656) {
                            var16 = 0.8456643;
                        } else {
                            var16 = 0.6435363;
                        }
                    }
                }
            }
        }
    } else {
        if (rel_timestamp >= 157918) {
            if (rel_timestamp >= 160652) {
                if (rel_timestamp >= 169142) {
                    if (rel_timestamp >= 175882) {
                        if (rel_timestamp >= 180082) {
                            var16 = 0.24509957;
                        } else {
                            var16 = 0.11396745;
                        }
                    } else {
                        if (rel_timestamp >= 173132) {
                            var16 = 0.44840583;
                        } else {
                            var16 = 0.2799627;
                        }
                    }
                } else {
                    if (rel_timestamp >= 164860) {
                        if (rel_timestamp >= 166254) {
                            var16 = 0.109345265;
                        } else {
                            var16 = 0.03533153;
                        }
                    } else {
                        if (rel_timestamp >= 163336) {
                            var16 = 0.29217687;
                        } else {
                            var16 = 0.1781337;
                        }
                    }
                }
            } else {
                if (hops >= 3) {
                    if (rel_timestamp >= 159304) {
                        var16 = 0.59102154;
                    } else {
                        if (rel_timestamp >= 157977) {
                            var16 = 0.17557904;
                        } else {
                            var16 = 0.44574696;
                        }
                    }
                } else {
                    if (rel_timestamp >= 159290) {
                        if (hops >= 2) {
                            var16 = 0.4893913;
                        } else {
                            var16 = 0.5274666;
                        }
                    } else {
                        if (rel_timestamp >= 158017) {
                            var16 = 0.028356172;
                        } else {
                            var16 = 0.37686226;
                        }
                    }
                }
            }
        } else {
            if (cons_3 != 1) {
                if (hops >= 2) {
                    if (rel_timestamp >= 126099) {
                        if (rel_timestamp >= 146870) {
                            var16 = 0.2680174;
                        } else {
                            var16 = 0.11524177;
                        }
                    } else {
                        if (rel_timestamp >= 119220) {
                            var16 = 0.4296351;
                        } else {
                            var16 = 0.15653028;
                        }
                    }
                } else {
                    if (rel_timestamp >= 146857) {
                        if (rel_timestamp >= 146866) {
                            var16 = 0.04040805;
                        } else {
                            var16 = 0.42963257;
                        }
                    } else {
                        if (rel_timestamp >= 139914) {
                            var16 = 0.044410698;
                        } else {
                            var16 = 0.0469799;
                        }
                    }
                }
            } else {
                if (rel_timestamp >= 149565) {
                    if (cons_1 != 1) {
                        if (rel_timestamp >= 155110) {
                            var16 = 0.17135412;
                        } else {
                            var16 = 0.23332086;
                        }
                    } else {
                        if (rel_timestamp >= 152381) {
                            var16 = 0.10293504;
                        } else {
                            var16 = 0.055031214;
                        }
                    }
                } else {
                    if (rel_timestamp >= 149457) {
                        if (hops >= 4) {
                            var16 = 0.43530297;
                        } else {
                            var16 = 0.48671103;
                        }
                    } else {
                        if (cons_0 != 1) {
                            var16 = 0.36256152;
                        } else {
                            var16 = 0.20672594;
                        }
                    }
                }
            }
        }
    }
    float var17;
    if (size >= 38) {
        if (rel_timestamp >= 62773) {
            if (hops >= 5) {
                if (rel_timestamp >= 374552) {
                    if (rel_timestamp >= 923503) {
                        if (rel_timestamp >= 936049) {
                            var17 = 0.2969647;
                        } else {
                            var17 = 0.24160202;
                        }
                    } else {
                        if (rel_timestamp >= 898612) {
                            var17 = 0.5064098;
                        } else {
                            var17 = 0.35119063;
                        }
                    }
                } else {
                    if (prod_3 != 1) {
                        if (rel_timestamp >= 370532) {
                            var17 = 0.4111117;
                        } else {
                            var17 = 0.30606988;
                        }
                    } else {
                        if (prod_0 != 1) {
                            var17 = 0.5159629;
                        } else {
                            var17 = 0.44708645;
                        }
                    }
                }
            } else {
                if (rel_timestamp >= 331833) {
                    if (rel_timestamp >= 722539) {
                        if (rel_timestamp >= 846864) {
                            var17 = 0.311176;
                        } else {
                            var17 = 0.3462848;
                        }
                    } else {
                        if (rel_timestamp >= 714738) {
                            var17 = 0.2554185;
                        } else {
                            var17 = 0.31810647;
                        }
                    }
                } else {
                    if (rel_timestamp >= 99512) {
                        if (cons_4 != 1) {
                            var17 = 0.320155;
                        } else {
                            var17 = 0.4234866;
                        }
                    } else {
                        if (cons_4 != 1) {
                            var17 = 0.4069704;
                        } else {
                            var17 = 0.32121307;
                        }
                    }
                }
            }
        } else {
            if (rel_timestamp >= 36559) {
                if (rel_timestamp >= 62575) {
                    if (rel_timestamp >= 62578) {
                        if (rel_timestamp >= 62581) {
                            var17 = 0.46342483;
                        } else {
                            var17 = 0.27642685;
                        }
                    } else {
                        if (hops >= 4) {
                            var17 = 0.4808243;
                        } else {
                            var17 = 0.73666656;
                        }
